{"learner":{"attributes":{"best_iteration":"0","best_score":"0.7805989583333334","scikit_learn":"{\"_estimator_type\": \"classifier\"}"},"feature_names":[],"feature_types":[],"gradient_booster":{"model":{"cats":{"enc":[],"feature_segments":[],"sorted_idx":[]},"gbtree_model_param":{"num_parallel_tree":"1","num_trees":"31"},"iteration_indptr":[0,1,2,3,4,5,6,7,8,9,10,11,12,13,14,15,16,17,18,19,20,21,22,23,24,25,26,27,28,29,30,31],"tree_info":[0,0,0,0,0,0,0,0,0,0,0,0,0,0,0,0,0,0,0,0,0,0,0,0,0,0,0,0,0,0,0],"trees":[{"base_weights":[1.7804155E-2,5.641026E-1,-1.0608696E0,9.714286E-1,-4.7887325E-1,-4.6666667E-2,5.0602406E-3,3.795918E-2,-9.000001E-3,-4.352941E-2,3.3749998E-2],"categories":[],"categories_nodes":[],"categories_segments":[],"categories_sizes":[],"default_left":[0,0,0,0,0,0,0,0,0,0,0],"id":0,"left_children":[1,3,5,7,9,-1,-1,-1,-1,-1,-1],"loss_changes":[5.09452E1,2.6740751E1,1.9660881E1,1.8451023E1,3.2897717E1,0E0,0E0,0E0,0E0,0E0,0E0],"parents":[2147483647,0,0,1,1,2,2,3,3,4,4],"right_children":[2,4,6,8,10,-1,-1,-1,-1,-1,-1],"split_conditions":[1.1469159E0,2.3629296E0,2.8506393E0,3.234119E0,4.7650304E0,-4.6666667E-2,5.0602406E-3,3.795918E-2,-9.000001E-3,-4.352941E-2,3.3749998E-2],"split_indices":[13,27,22,6,38,0,0,0,0,0,0],"split_type":[0,0,0,0,0,0,0,0,0,0,0],"sum_hessian":[8.125E1,5.55E1,2.575E1,4.075E1,1.475E1,1.8375E1,7.375E0,3.375E1,7E0,9.75E0,5E0],"tree_param":{"num_deleted":"0","num_feature":"208","num_nodes":"11","size_leaf_vector":"1"}},{"base_weights":[2.1007333E-2,-7.2589344E-1,9.676939E-1,-4.8461244E-2,1.3816176E-1,1.2706988E0,-1.2094453E-2,3.2763798E-2,-2.8801456E-2,4.416007E-2,8.0980273E-4],"categories":[],"categories_nodes":[],"categories_segments":[],"categories_sizes":[],"default_left":[0,0,0,0,0,0,0,0,0,0,0],"id":1,"left_children":[1,3,5,-1,7,9,-1,-1,-1,-1,-1],"loss_changes":[6.5258575E1,4.12333E1,1.9481937E1,0E0,3.2601868E1,7.1423035E0,0E0,0E0,0E0,0E0,0E0],"parents":[2147483647,0,0,1,1,2,2,4,4,5,5],"right_children":[2,4,6,-1,8,10,-1,-1,-1,-1,-1],"split_conditions":[3.8161743E0,9.890051E-1,1.7909111E0,-4.8461244E-2,-3.352081E-1,4.7761674E0,-1.2094453E-2,3.2763798E-2,-2.8801456E-2,4.416007E-2,8.0980273E-4],"split_indices":[1,16,52,0,81,7,0,0,0,0,0],"split_type":[0,0,0,0,0,0,0,0,0,0,0],"sum_hessian":[8.5970634E1,4.7856773E1,3.811386E1,2.2866325E1,2.499045E1,3.1991287E1,6.1225743E0,1.3869684E1,1.1120766E1,2.6368587E1,5.6227016E0],"tree_param":{"num_deleted":"0","num_feature":"208","num_nodes":"11","size_leaf_vector":"1"}},{"base_weights":[-1.704046E-1,-7.79244E-1,9.1022784E-1,-0E0,-1.4701111E0,1.2532536E0,-9.416574E-3,-2.6714332E-2,2.575511E-2,-5.9961756E-3,-4.9990755E-2,4.6545863E-2,1.5738058E-4],"categories":[],"categories_nodes":[],"categories_segments":[],"categories_sizes":[],"default_left":[0,0,0,0,0,0,0,0,0,0,0,0,0],"id":2,"left_children":[1,3,5,7,9,11,-1,-1,-1,-1,-1,-1,-1],"loss_changes":[5.7781593E1,3.0754826E1,1.5282221E1,2.4725082E1,4.634941E0,7.9947815E0,0E0,0E0,0E0,0E0,0E0,0E0,0E0],"parents":[2147483647,0,0,1,1,2,2,3,3,4,4,5,5],"right_children":[2,4,6,8,10,12,-1,-1,-1,-1,-1,-1,-1],"split_conditions":[4.357855E0,-6.232229E-1,4.0036723E-1,-2.116599E-1,-1.4117392E0,7.6315635E-1,-9.416574E-3,-2.6714332E-2,2.575511E-2,-5.9961756E-3,-4.9990755E-2,4.6545863E-2,1.5738058E-4],"split_indices":[1,64,13,74,126,3,0,0,0,0,0,0,0],"split_type":[0,0,0,0,0,0,0,0,0,0,0,0,0],"sum_hessian":[8.1788E1,5.344092E1,2.834708E1,2.6352938E1,2.7087982E1,2.2724607E1,5.622472E0,1.2736981E1,1.3615956E1,5.117202E0,2.1970781E1,1.7105486E1,5.619122E0],"tree_param":{"num_deleted":"0","num_feature":"208","num_nodes":"13","size_leaf_vector":"1"}},{"base_weights":[-7.957584E-2,-6.463511E-1,8.3352387E-1,-4.7806982E-2,-7.0979E-2,1.1913316E0,-8.62765E-3,1.191339E-2,-3.258554E-2,4.4981893E-2,-0E0],"categories":[],"categories_nodes":[],"categories_segments":[],"categories_sizes":[],"default_left":[0,0,0,0,0,0,0,0,0,0,0],"id":3,"left_children":[1,3,5,-1,7,9,-1,-1,-1,-1,-1],"loss_changes":[4.6626366E1,2.8653267E1,1.5603512E1,0E0,2.0417038E1,1.0668152E1,0E0,0E0,0E0,0E0,0E0],"parents":[2147483647,0,0,1,1,2,2,4,4,5,5],"right_children":[2,4,6,-1,8,10,-1,-1,-1,-1,-1],"split_conditions":[2.8398304E0,-9.478679E-1,2.167021E0,-4.7806982E-2,4.691169E-1,4.408672E0,-8.62765E-3,1.191339E-2,-3.258554E-2,4.4981893E-2,-0E0],"split_indices":[22,75,27,0,67,6,0,0,0,0,0],"split_type":[0,0,0,0,0,0,0,0,0,0,0],"sum_hessian":[8.4334E1,5.3251522E1,3.1082474E1,1.746032E1,3.5791203E1,2.4096155E1,6.98632E0,2.5072315E1,1.0718886E1,1.8850883E1,5.245271E0],"tree_param":{"num_deleted":"0","num_feature":"208","num_nodes":"11","size_leaf_vector":"1"}},{"base_weights":[3.0234752E-2,5.39177E-1,-8.689995E-1,9.031135E-1,-4.2932597E-1,1.0539352E-2,-1.2598937E0,-6.102918E-3,3.7072536E-2,-4.0011015E-2,2.4508972E-2,-4.6862397E-2,-0E0],"categories":[],"categories_nodes":[],"categories_segments":[],"categories_sizes":[],"default_left":[0,0,0,0,0,0,0,0,0,0,0,0,0],"id":4,"left_children":[1,3,5,7,9,-1,11,-1,-1,-1,-1,-1,-1],"loss_changes":[4.169445E1,2.251665E1,1.7746807E1,1.8267128E1,2.3468004E1,0E0,9.326778E0,0E0,0E0,0E0,0E0,0E0,0E0],"parents":[2147483647,0,0,1,1,2,2,3,3,4,4,6,6],"right_children":[2,4,6,8,10,-1,12,-1,-1,-1,-1,-1,-1],"split_conditions":[1.1469159E0,2.5390756E0,-4.803661E0,-2.7152412E0,4.2898483E0,1.0539352E-2,3.0770273E0,-6.102918E-3,3.7072536E-2,-4.0011015E-2,2.4508972E-2,-4.6862397E-2,-0E0],"split_indices":[13,27,18,36,38,0,58,0,0,0,0,0,0],"split_type":[0,0,0,0,0,0,0,0,0,0,0,0,0],"sum_hessian":[8.575321E1,5.623755E1,2.9515661E1,4.1774807E1,1.4462742E1,6.613836E0,2.2901827E1,9.229899E0,3.254491E1,8.724073E0,5.738669E0,1.767198E1,5.229846E0],"tree_param":{"num_deleted":"0","num_feature":"208","num_nodes":"13","size_leaf_vector":"1"}},{"base_weights":[2.4595628E-2,-6.20068E-1,9.676987E-1,5.5963844E-1,-9.488659E-1,1.6381595E-1,4.415567E-2,-0E0,2.906667E-2,1.5823483E-2,-4.2788308E-2,3.6365584E-2,-1.8722914E-2],"categories":[],"categories_nodes":[],"categories_segments":[],"categories_sizes":[],"default_left":[0,0,0,0,0,0,0,0,0,0,0,0,0],"id":5,"left_children":[1,3,5,7,9,11,-1,-1,-1,-1,-1,-1,-1],"loss_changes":[5.8384075E1,2.375803E1,1.3591583E1,3.5124817E0,3.5350807E1,1.8807726E1,0E0,0E0,0E0,0E0,0E0,0E0,0E0],"parents":[2147483647,0,0,1,1,2,2,3,3,4,4,5,5],"right_children":[2,4,6,8,10,12,-1,-1,-1,-1,-1,-1,-1],"split_conditions":[4.2753687E0,-4.210329E0,4.767934E-1,8.2465625E-1,-5.7760806E0,-3.9039333E0,4.415567E-2,-0E0,2.906667E-2,1.5823483E-2,-4.2788308E-2,3.6365584E-2,-1.8722914E-2],"split_indices":[1,44,22,60,12,3,0,0,0,0,0,0,0],"split_type":[0,0,0,0,0,0,0,0,0,0,0,0,0],"sum_hessian":[8.949635E1,5.3139668E1,3.635669E1,1.0460486E1,4.267918E1,1.6309439E1,2.0047249E1,5.2279706E0,5.232516E0,9.840372E0,3.2838806E1,6.849489E0,9.4599495E0],"tree_param":{"num_deleted":"0","num_feature":"208","num_nodes":"13","size_leaf_vector":"1"}},{"base_weights":[-8.5589856E-2,-4.3292202E-2,2.1027277E-1,6.318161E-1,-7.280159E-1,3.4232304E-2,-7.023678E-3,-3.8749464E-2,1.3146658E-2],"categories":[],"categories_nodes":[],"categories_segments":[],"categories_sizes":[],"default_left":[0,0,0,0,0,0,0,0,0],"id":6,"left_children":[1,-1,3,5,7,-1,-1,-1,-1],"loss_changes":[3.6160862E1,0E0,2.9586342E1,2.4514404E1,1.7565407E1,0E0,0E0,0E0,0E0],"parents":[2147483647,0,0,2,2,3,3,4,4],"right_children":[2,-1,4,6,8,-1,-1,-1,-1],"split_conditions":[-3.6853855E0,-4.3292202E-2,1.1469159E0,7.6315635E-1,2.7643268E0,3.4232304E-2,-7.023678E-3,-3.8749464E-2,1.3146658E-2],"split_indices":[20,0,13,3,22,0,0,0,0],"split_type":[0,0,0,0,0,0,0,0,0],"sum_hessian":[8.169949E1,1.3143161E1,6.8556335E1,4.8715614E1,1.984072E1,3.0802309E1,1.7913305E1,1.3736728E1,6.103991E0],"tree_param":{"num_deleted":"0","num_feature":"208","num_nodes":"9","size_leaf_vector":"1"}},{"base_weights":[1.0462675E-1,-6.011194E-1,1.0682784E0,1.08335756E-1,-1.2626914E0,1.3249456E0,-3.6784115E-3,-2.358287E-2,2.4103051E-2,-4.5546606E-2,-1.8421877E-3,6.4488E-3,4.487265E-2],"categories":[],"categories_nodes":[],"categories_segments":[],"categories_sizes":[],"default_left":[0,0,0,0,0,0,0,0,0,0,0,0,0],"id":7,"left_children":[1,3,5,7,9,11,-1,-1,-1,-1,-1,-1,-1],"loss_changes":[6.2317413E1,2.6056852E1,1.3588745E1,1.8831232E1,6.726101E0,3.5758896E0,0E0,0E0,0E0,0E0,0E0,0E0,0E0],"parents":[2147483647,0,0,1,1,2,2,3,3,4,4,5,5],"right_children":[2,4,6,8,10,12,-1,-1,-1,-1,-1,-1,-1],"split_conditions":[4.2753687E0,-6.232229E-1,1.7909111E0,5.934668E-1,2.98727E0,-4.768055E0,-3.6784115E-3,-2.358287E-2,2.4103051E-2,-4.5546606E-2,-1.8421877E-3,6.4488E-3,4.487265E-2],"split_indices":[1,64,52,16,22,59,0,0,0,0,0,0,0],"split_type":[0,0,0,0,0,0,0,0,0,0,0,0,0],"sum_hessian":[8.511107E1,4.918242E1,3.592865E1,2.4213537E1,2.4968882E1,2.9971132E1,5.95752E0,9.787683E0,1.4425854E1,1.9250185E1,5.7186956E0,5.6813602E0,2.4289772E1],"tree_param":{"num_deleted":"0","num_feature":"208","num_nodes":"13","size_leaf_vector":"1"}},{"base_weights":[5.3432636E-2,-5.601808E-1,1.0224056E0,5.653801E-1,-1.051369E0,1.2594082E0,-9.442853E-4,3.6056913E-2,-6.5088086E-4,7.307277E-3,-3.9863806E-2,4.2325605E-2,8.17529E-3],"categories":[],"categories_nodes":[],"categories_segments":[],"categories_sizes":[],"default_left":[0,0,0,0,0,0,0,0,0,0,0,0,0],"id":8,"left_children":[1,3,5,7,9,11,-1,-1,-1,-1,-1,-1,-1],"loss_changes":[5.234176E1,3.1549156E1,9.940159E0,7.7689185E0,1.5901005E1,1.4879913E0,0E0,0E0,0E0,0E0,0E0,0E0,0E0],"parents":[2147483647,0,0,1,1,2,2,3,3,4,4,5,5],"right_children":[2,4,6,8,10,12,-1,-1,-1,-1,-1,-1,-1],"split_conditions":[4.2753687E0,-4.391231E0,5.3999786E0,-2.071973E0,-4.210329E0,3.381679E0,-9.442853E-4,3.6056913E-2,-6.5088086E-4,7.307277E-3,-3.9863806E-2,4.2325605E-2,8.17529E-3],"split_indices":[1,18,3,63,44,18,0,0,0,0,0,0,0],"split_type":[0,0,0,0,0,0,0,0,0,0,0,0,0],"sum_hessian":[8.136506E1,4.996057E1,3.1404486E1,1.4422441E1,3.553813E1,2.5935736E1,5.4687495E0,6.229691E0,8.192749E0,5.6988482E0,2.9839281E1,2.0489483E1,5.446252E0],"tree_param":{"num_deleted":"0","num_feature":"208","num_nodes":"13","size_leaf_vector":"1"}},{"base_weights":[-0E0,4.6115476E-1,-8.654807E-1,8.4751016E-1,-4.5728138E-1,-4.1201416E-2,1.2891248E-2,3.7972283E-2,-1.3750851E-2,-3.845822E-2,1.7695751E-2],"categories":[],"categories_nodes":[],"categories_segments":[],"categories_sizes":[],"default_left":[0,0,0,0,0,0,0,0,0,0,0],"id":9,"left_children":[1,3,5,7,9,-1,-1,-1,-1,-1,-1],"loss_changes":[3.346987E1,2.093792E1,2.1904749E1,2.4542513E1,1.795014E1,0E0,0E0,0E0,0E0,0E0,0E0],"parents":[2147483647,0,0,1,1,2,2,3,3,4,4],"right_children":[2,4,6,8,10,-1,-1,-1,-1,-1,-1],"split_conditions":[8.802461E-1,1.5932748E0,3.3548152E0,1.4075673E0,5.4340596E0,-4.1201416E-2,1.2891248E-2,3.7972283E-2,-1.3750851E-2,-3.845822E-2,1.7695751E-2],"split_indices":[13,6,22,21,4,0,0,0,0,0,0],"split_type":[0,0,0,0,0,0,0,0,0,0,0],"sum_hessian":[7.7802704E1,5.162993E1,2.6172775E1,3.7271523E1,1.4358405E1,1.9224852E1,6.9479227E0,2.8880049E1,8.391475E0,8.190437E0,6.1679673E0],"tree_param":{"num_deleted":"0","num_feature":"208","num_nodes":"11","size_leaf_vector":"1"}},{"base_weights":[-1.5177228E-2,-5.7726884E-1,7.77066E-1,-4.0449306E-2,1.4995961E-1,1.0896775E0,-5.834154E-3,-3.41608E-2,2.2432856E-2,3.883224E-2,1.6358483E-5],"categories":[],"categories_nodes":[],"categories_segments":[],"categories_sizes":[],"default_left":[0,0,0,0,0,0,0,0,0,0,0],"id":10,"left_children":[1,3,5,-1,7,9,-1,-1,-1,-1,-1],"loss_changes":[3.9267765E1,3.1263594E1,1.2485851E1,0E0,2.4557E1,5.062752E0,0E0,0E0,0E0,0E0,0E0],"parents":[2147483647,0,0,1,1,2,2,4,4,5,5],"right_children":[2,4,6,-1,8,10,-1,-1,-1,-1,-1],"split_conditions":[3.8161743E0,7.733677E-1,3.9914923E0,-4.0449306E-2,-1.497905E0,2.1696825E0,-5.834154E-3,-3.41608E-2,2.2432856E-2,3.883224E-2,1.6358483E-5],"split_indices":[1,16,6,0,20,41,0,0,0,0,0],"split_type":[0,0,0,0,0,0,0,0,0,0,0],"sum_hessian":[8.2606766E1,4.953692E1,3.306985E1,2.346801E1,2.6068907E1,2.5522102E1,7.547748E0,6.870759E0,1.9198147E1,2.0234848E1,5.2872534E0],"tree_param":{"num_deleted":"0","num_feature":"208","num_nodes":"11","size_leaf_vector":"1"}},{"base_weights":[-3.655719E-2,-6.412878E-1,8.932845E-1,-4.512792E-2,2.0235349E-1,1.1658529E0,-3.4014755E-3,2.413425E-2,-2.4730979E-2,4.3262996E-2,-0E0],"categories":[],"categories_nodes":[],"categories_segments":[],"categories_sizes":[],"default_left":[0,0,0,0,0,0,0,0,0,0,0],"id":11,"left_children":[1,3,5,-1,7,9,-1,-1,-1,-1,-1],"loss_changes":[4.7396244E1,3.9993942E1,1.0446209E1,0E0,1.9463627E1,7.7764626E0,0E0,0E0,0E0,0E0,0E0],"parents":[2147483647,0,0,1,1,2,2,4,4,5,5],"right_children":[2,4,6,-1,8,10,-1,-1,-1,-1,-1],"split_conditions":[4.7905917E0,9.890051E-1,9.668177E-1,-4.512792E-2,1.3937691E-1,1.0142348E0,-3.4014755E-3,2.413425E-2,-2.4730979E-2,4.3262996E-2,-0E0],"split_indices":[1,16,13,0,64,3,0,0,0,0,0],"split_type":[0,0,0,0,0,0,0,0,0,0,0],"sum_hessian":[7.868127E1,4.8891006E1,2.9790262E1,2.3593222E1,2.5297787E1,2.3851213E1,5.9390473E0,1.6969406E1,8.328382E0,1.8288645E1,5.562568E0],"tree_param":{"num_deleted":"0","num_feature":"208","num_nodes":"11","size_leaf_vector":"1"}},{"base_weights":[3.047028E-2,-6.755962E-1,1.0025158E0,-3.956783E-2,1.1781209E-2,1.2894647E0,-1.0350793E-2,2.9151035E-2,-1.6937898E-2,4.2216115E-2,8.543333E-3],"categories":[],"categories_nodes":[],"categories_segments":[],"categories_sizes":[],"default_left":[0,0,0,0,0,0,0,0,0,0,0],"id":12,"left_children":[1,3,5,-1,7,9,-1,-1,-1,-1,-1],"loss_changes":[6.2596493E1,2.4364618E1,1.7255909E1,0E0,1.7200968E1,1.0303917E0,0E0,0E0,0E0,0E0,0E0],"parents":[2147483647,0,0,1,1,2,2,4,4,5,5],"right_children":[2,4,6,-1,8,10,-1,-1,-1,-1,-1],"split_conditions":[4.357855E0,9.890051E-1,1.6997427E0,-3.956783E-2,-3.6548736E0,3.5791004E0,-1.0350793E-2,2.9151035E-2,-1.6937898E-2,4.2216115E-2,8.543333E-3],"split_indices":[1,16,52,0,19,48,0,0,0,0,0],"split_type":[0,0,0,0,0,0,0,0,0,0,0],"sum_hessian":[8.476798E1,4.9035873E1,3.5732113E1,2.465716E1,2.4378716E1,3.0177439E1,5.554672E0,9.025191E0,1.5353524E1,2.5045153E1,5.132286E0],"tree_param":{"num_deleted":"0","num_feature":"208","num_nodes":"11","size_leaf_vector":"1"}},{"base_weights":[6.258984E-2,-4.4825637E-1,9.0338826E-1,1.6965781E-1,-1.070371E0,1.1946775E0,-8.695547E-3,-3.093394E-2,1.9169072E-2,2.6946212E-3,-4.233402E-2,6.812856E-3,4.046522E-2],"categories":[],"categories_nodes":[],"categories_segments":[],"categories_sizes":[],"default_left":[0,0,0,0,0,0,0,0,0,0,0,0,0],"id":13,"left_children":[1,3,5,7,9,11,-1,-1,-1,-1,-1,-1,-1],"loss_changes":[3.7749565E1,2.2018532E1,1.3581295E1,1.7720226E1,1.2725992E1,1.7073708E0,0E0,0E0,0E0,0E0,0E0,0E0,0E0],"parents":[2147483647,0,0,1,1,2,2,3,3,4,4,5,5],"right_children":[2,4,6,8,10,12,-1,-1,-1,-1,-1,-1,-1],"split_conditions":[4.7905917E0,-4.677603E-1,1.7909111E0,-2.3073092E0,-3.299917E0,-1.1194718E0,-8.695547E-3,-3.093394E-2,1.9169072E-2,2.6946212E-3,-4.233402E-2,6.812856E-3,4.046522E-2],"split_indices":[1,64,52,43,76,165,0,0,0,0,0,0,0],"split_type":[0,0,0,0,0,0,0,0,0,0,0,0,0],"sum_hessian":[8.100004E1,5.051796E1,3.0482077E1,2.5632738E1,2.4885221E1,2.5171698E1,5.3103795E0,5.5950356E0,2.0037703E1,5.485035E0,1.9400187E1,5.3704925E0,1.9801205E1],"tree_param":{"num_deleted":"0","num_feature":"208","num_nodes":"13","size_leaf_vector":"1"}},{"base_weights":[-3.0560901E-2,-6.823178E-1,8.59526E-1,2.2688799E-2,-1.0430402E0,1.0761818E0,-2.9573035E-3,2.3995193E-3,-3.838995E-2,2.3486093E-3,3.7691977E-2],"categories":[],"categories_nodes":[],"categories_segments":[],"categories_sizes":[],"default_left":[0,0,0,0,0,0,0,0,0,0,0],"id":14,"left_children":[1,3,5,-1,7,9,-1,-1,-1,-1,-1],"loss_changes":[5.104512E1,2.940062E1,8.918327E0,0E0,1.29403E1,3.9544907E0,0E0,0E0,0E0,0E0,0E0],"parents":[2147483647,0,0,1,1,2,2,4,4,5,5],"right_children":[2,4,6,-1,8,10,-1,-1,-1,-1,-1],"split_conditions":[3.8161743E0,-4.712244E0,1.7909111E0,2.2688799E-2,-6.3241253E0,-1.1882071E0,-2.9573035E-3,2.3995193E-3,-3.838995E-2,2.3486093E-3,3.7691977E-2],"split_indices":[1,37,52,0,12,16,0,0,0,0,0],"split_type":[0,0,0,0,0,0,0,0,0,0,0],"sum_hessian":[8.2263214E1,4.8542347E1,3.3720867E1,8.516262E0,4.0026085E1,2.8051567E1,5.6693E0,6.5760317E0,3.345005E1,5.7981696E0,2.2253397E1],"tree_param":{"num_deleted":"0","num_feature":"208","num_nodes":"11","size_leaf_vector":"1"}},{"base_weights":[4.4605485E-3,-3.9940012E-1,7.1308285E-1,-1.1773739E0,2.9134429E-1,9.8326534E-1,-1.0337553E-2,-9.6184394E-4,-4.158565E-2,2.4263991E-2,-1.7572075E-2,-0E0,3.6147527E-2],"categories":[],"categories_nodes":[],"categories_segments":[],"categories_sizes":[],"default_left":[0,0,0,0,0,0,0,0,0,0,0,0,0],"id":15,"left_children":[1,3,5,7,9,11,-1,-1,-1,-1,-1,-1,-1],"loss_changes":[2.6035004E1,3.220802E1,1.1233839E1,5.094059E0,1.5978565E1,5.741331E0,0E0,0E0,0E0,0E0,0E0,0E0,0E0],"parents":[2147483647,0,0,1,1,2,2,3,3,4,4,5,5],"right_children":[2,4,6,8,10,12,-1,-1,-1,-1,-1,-1,-1],"split_conditions":[4.357855E0,7.733677E-1,2.9383583E0,-2.4763494E0,-5.008299E-1,-2.3418818E0,-1.0337553E-2,-9.6184394E-4,-4.158565E-2,2.4263991E-2,-1.7572075E-2,-0E0,3.6147527E-2],"split_indices":[1,16,51,80,27,56,0,0,0,0,0,0,0],"split_type":[0,0,0,0,0,0,0,0,0,0,0,0,0],"sum_hessian":[8.3891106E1,5.3371403E1,3.0519705E1,2.4787674E1,2.8583729E1,2.5230944E1,5.2887597E0,5.0945396E0,1.9693134E1,1.8841442E1,9.742286E0,5.476629E0,1.9754314E1],"tree_param":{"num_deleted":"0","num_feature":"208","num_nodes":"13","size_leaf_vector":"1"}},{"base_weights":[5.6135926E-2,-4.8277315E-1,5.579609E-1,3.2188568E-1,-1.1081009E0,9.337878E-1,-2.739541E-1,-2.8831355E-2,3.3186562E-2,-0E0,-4.0834956E-2,3.4765918E-2,-7.998905E-4,1.785781E-2,-2.9345635E-2],"categories":[],"categories_nodes":[],"categories_segments":[],"categories_sizes":[],"default_left":[0,0,0,0,0,0,0,0,0,0,0,0,0,0,0],"id":16,"left_children":[1,3,5,7,9,11,13,-1,-1,-1,-1,-1,-1,-1,-1],"loss_changes":[2.3339117E1,2.232827E1,1.5606029E1,2.287289E1,5.579588E0,8.303745E0,1.1681065E1,0E0,0E0,0E0,0E0,0E0,0E0,0E0,0E0],"parents":[2147483647,0,0,1,1,2,2,3,3,4,4,5,5,6,6],"right_children":[2,4,6,8,10,12,14,-1,-1,-1,-1,-1,-1,-1,-1],"split_conditions":[1.4698997E-1,-2.308878E0,5.48903E-1,1.1812352E0,-5.266605E0,1.9127374E0,-3.320938E0,-2.8831355E-2,3.3186562E-2,-0E0,-4.0834956E-2,3.4765918E-2,-7.998905E-4,1.785781E-2,-2.9345635E-2],"split_indices":[16,32,64,8,13,45,6,0,0,0,0,0,0,0,0],"split_type":[0,0,0,0,0,0,0,0,0,0,0,0,0,0,0],"sum_hessian":[8.0034996E1,3.7685627E1,4.2349365E1,1.6417072E1,2.1268555E1,2.9745972E1,1.2603394E1,5.4885674E0,1.0928505E1,5.173559E0,1.6094995E1,2.444002E1,5.3059516E0,5.2131715E0,7.390222E0],"tree_param":{"num_deleted":"0","num_feature":"208","num_nodes":"15","size_leaf_vector":"1"}},{"base_weights":[6.1907176E-2,-4.4808295E-1,7.9556936E-1,2.73359E-1,-3.8729113E-2,1.1655397E0,-2.064634E-3,-2.337034E-2,2.7731443E-2,6.837183E-3,3.920754E-2],"categories":[],"categories_nodes":[],"categories_segments":[],"categories_sizes":[],"default_left":[0,0,0,0,0,0,0,0,0,0,0],"id":17,"left_children":[1,3,5,7,-1,9,-1,-1,-1,-1,-1],"loss_changes":[3.3058212E1,3.309077E1,1.3030283E1,2.2391691E1,0E0,1.0953178E0,0E0,0E0,0E0,0E0,0E0],"parents":[2147483647,0,0,1,1,2,2,3,3,5,5],"right_children":[2,4,6,8,-1,10,-1,-1,-1,-1,-1],"split_conditions":[4.357855E0,-4.677603E-1,5.1897E-1,3.2751057E-1,-3.8729113E-2,-1.0727783E0,-2.064634E-3,-2.337034E-2,2.7731443E-2,6.837183E-3,3.920754E-2],"split_indices":[1,64,52,16,0,89,0,0,0,0,0],"split_type":[0,0,0,0,0,0,0,0,0,0,0],"sum_hessian":[8.156607E1,4.800271E1,3.3563362E1,2.6317646E1,2.1685062E1,2.358176E1,9.981603E0,9.245907E0,1.707174E1,5.043319E0,1.853844E1],"tree_param":{"num_deleted":"0","num_feature":"208","num_nodes":"11","size_leaf_vector":"1"}},{"base_weights":[8.0175936E-2,-3.703133E-2,3.6279416E-1,-1.3559861E-1,1.0406649E0,2.5112407E-2,-1.8800799E-2,-0E0,3.8151924E-2],"categories":[],"categories_nodes":[],"categories_segments":[],"categories_sizes":[],"default_left":[0,0,0,0,0,0,0,0,0],"id":18,"left_children":[1,-1,3,5,7,-1,-1,-1,-1],"loss_changes":[3.1653217E1,0E0,2.5661123E1,2.205176E1,7.8340874E0,0E0,0E0,0E0,0E0],"parents":[2147483647,0,0,2,2,3,3,4,4],"right_children":[2,-1,4,6,8,-1,-1,-1,-1],"split_conditions":[-3.6853855E0,-3.703133E-2,2.8398304E0,-5.0042486E0,-4.0737505E0,2.5112407E-2,-1.8800799E-2,-0E0,3.8151924E-2],"split_indices":[20,0,22,3,4,0,0,0,0],"split_type":[0,0,0,0,0,0,0,0,0],"sum_hessian":[8.092979E1,1.1906642E1,6.902314E1,4.031034E1,2.8712801E1,1.213182E1,2.817852E1,5.633197E0,2.3079605E1],"tree_param":{"num_deleted":"0","num_feature":"208","num_nodes":"9","size_leaf_vector":"1"}},{"base_weights":[-6.802202E-2,-6.787628E-1,7.0704806E-1,1.3460435E-2,-9.7069377E-1,1.072411E0,-3.1419133E-3,2.0258047E-3,-3.82539E-2,3.2046665E-3,3.8066212E-2],"categories":[],"categories_nodes":[],"categories_segments":[],"categories_sizes":[],"default_left":[0,0,0,0,0,0,0,0,0,0,0],"id":19,"left_children":[1,3,5,-1,7,9,-1,-1,-1,-1,-1],"loss_changes":[3.878241E1,1.7102661E1,1.1845728E1,0E0,1.3639336E1,3.0789566E0,0E0,0E0,0E0,0E0,0E0],"parents":[2147483647,0,0,1,1,2,2,4,4,5,5],"right_children":[2,4,6,-1,8,10,-1,-1,-1,-1,-1],"split_conditions":[4.2753687E0,-4.153904E0,6.762242E-1,1.3460435E-2,-5.7760806E0,-7.6271665E-1,-3.1419133E-3,2.0258047E-3,-3.82539E-2,3.2046665E-3,3.8066212E-2],"split_indices":[1,44,39,0,12,55,0,0,0,0,0],"split_type":[0,0,0,0,0,0,0,0,0,0,0],"sum_hessian":[7.59471E1,4.3406532E1,3.254056E1,7.8918266E0,3.5514706E1,2.2625858E1,9.914705E0,7.837217E0,2.767749E1,5.4687734E0,1.7157085E1],"tree_param":{"num_deleted":"0","num_feature":"208","num_nodes":"11","size_leaf_vector":"1"}},{"base_weights":[8.031797E-2,-3.8272968E-1,7.7079463E-1,1.6007069E-1,-3.796373E-2,-0E0,3.5126816E-2,-2.997422E-2,1.7550694E-2,-1.599277E-2,1.9587211E-2],"categories":[],"categories_nodes":[],"categories_segments":[],"categories_sizes":[],"default_left":[0,0,0,0,0,0,0,0,0,0,0],"id":20,"left_children":[1,3,5,7,-1,9,-1,-1,-1,-1,-1],"loss_changes":[2.612287E1,2.4549599E1,9.916626E0,1.684418E1,0E0,6.120035E0,0E0,0E0,0E0,0E0,0E0],"parents":[2147483647,0,0,1,1,2,2,3,3,5,5],"right_children":[2,4,6,8,-1,10,-1,-1,-1,-1,-1],"split_conditions":[4.2753687E0,1.3937691E-1,-6.0775675E-2,-1.5301807E0,-3.796373E-2,8.602234E-1,3.5126816E-2,-2.997422E-2,1.7550694E-2,-1.599277E-2,1.9587211E-2],"split_indices":[1,64,22,60,0,74,0,0,0,0,0],"split_type":[0,0,0,0,0,0,0,0,0,0,0],"sum_hessian":[7.472271E1,4.4660984E1,3.006173E1,2.8474684E1,1.6186298E1,1.150114E1,1.8560589E1,5.9197307E0,2.2554953E1,6.433375E0,5.067765E0],"tree_param":{"num_deleted":"0","num_feature":"208","num_nodes":"11","size_leaf_vector":"1"}},{"base_weights":[3.6316477E-2,-3.610614E-2,3.1063664E-1,-2.579873E-1,8.1757164E-1,-3.3775702E-2,1.6329117E-2,3.221677E-2,-3.039032E-3],"categories":[],"categories_nodes":[],"categories_segments":[],"categories_sizes":[],"default_left":[0,0,0,0,0,0,0,0,0],"id":21,"left_children":[1,-1,3,5,7,-1,-1,-1,-1],"loss_changes":[2.8248938E1,0E0,2.1515432E1,2.6497929E1,1.0466351E1,0E0,0E0,0E0,0E0],"parents":[2147483647,0,0,2,2,3,3,4,4],"right_children":[2,-1,4,6,8,-1,-1,-1,-1],"split_conditions":[-3.660971E0,-3.610614E-2,6.9507617E-1,9.890051E-1,5.533699E0,-3.3775702E-2,1.6329117E-2,3.221677E-2,-3.039032E-3],"split_indices":[20,0,1,16,6,0,0,0,0],"split_type":[0,0,0,0,0,0,0,0,0],"sum_hessian":[7.938413E1,1.1880408E1,6.750372E1,3.1580643E1,3.5923077E1,1.5187864E1,1.6392778E1,2.8543112E1,7.379966E0],"tree_param":{"num_deleted":"0","num_feature":"208","num_nodes":"9","size_leaf_vector":"1"}},{"base_weights":[-0E0,-5.280266E-1,6.2372893E-1,-9.4712734E-1,2.1297719E-1,9.661972E-1,-9.844047E-3,1.02717E-3,-3.9623704E-2,3.1711776E-2,-1.3965602E-2,-0E0,3.7501615E-2],"categories":[],"categories_nodes":[],"categories_segments":[],"categories_sizes":[],"default_left":[0,0,0,0,0,0,0,0,0,0,0,0,0],"id":22,"left_children":[1,3,5,7,9,11,-1,-1,-1,-1,-1,-1,-1],"loss_changes":[2.6286772E1,1.4447241E1,1.3754681E1,1.1826485E1,1.170954E1,8.134527E0,0E0,0E0,0E0,0E0,0E0,0E0,0E0],"parents":[2147483647,0,0,1,1,2,2,3,3,4,4,5,5],"right_children":[2,4,6,8,10,12,-1,-1,-1,-1,-1,-1,-1],"split_conditions":[1.8191986E0,1.6139438E0,9.668177E-1,-1.8738042E0,-1.5151194E0,-1.7154409E0,-9.844047E-3,1.02717E-3,-3.9623704E-2,3.1711776E-2,-1.3965602E-2,-0E0,3.7501615E-2],"split_indices":[1,52,13,80,58,55,0,0,0,0,0,0,0],"split_type":[0,0,0,0,0,0,0,0,0,0,0,0,0],"sum_hessian":[7.3527466E1,3.920808E1,3.4319386E1,2.5372683E1,1.3835397E1,2.5978172E1,8.341214E0,7.010256E0,1.8362427E1,6.0762634E0,7.759133E0,6.4606113E0,1.9517561E1],"tree_param":{"num_deleted":"0","num_feature":"208","num_nodes":"13","size_leaf_vector":"1"}},{"base_weights":[-0E0,-4.291879E-1,6.987876E-1,-1.111153E0,3.8891938E-1,9.96247E-1,-6.7682355E-3,-1.4738925E-3,-3.8728014E-2,2.6139813E-2,-1.70577E-2,6.627751E-3,3.4325663E-2],"categories":[],"categories_nodes":[],"categories_segments":[],"categories_sizes":[],"default_left":[0,0,0,0,0,0,0,0,0,0,0,0,0],"id":23,"left_children":[1,3,5,7,9,11,-1,-1,-1,-1,-1,-1,-1],"loss_changes":[2.396672E1,2.9364826E1,9.856786E0,3.8493195E0,1.2800289E1,6.88673E-1,0E0,0E0,0E0,0E0,0E0,0E0,0E0],"parents":[2147483647,0,0,1,1,2,2,3,3,4,4,5,5],"right_children":[2,4,6,8,10,12,-1,-1,-1,-1,-1,-1,-1],"split_conditions":[4.2753687E0,1.8670343E0,1.7909111E0,-1.4204011E0,-5.008299E-1,-3.6901786E0,-6.7682355E-3,-1.4738925E-3,-3.8728014E-2,2.6139813E-2,-1.70577E-2,6.627751E-3,3.4325663E-2],"split_indices":[1,16,52,198,27,59,0,0,0,0,0,0,0],"split_type":[0,0,0,0,0,0,0,0,0,0,0,0,0],"sum_hessian":[7.3606316E1,4.6014404E1,2.7591915E1,2.517584E1,2.0838564E1,2.15167E1,6.0752134E0,5.003098E0,2.0172743E1,1.4731172E1,6.107392E0,5.7294765E0,1.5787225E1],"tree_param":{"num_deleted":"0","num_feature":"208","num_nodes":"13","size_leaf_vector":"1"}},{"base_weights":[9.082723E-2,-5.1725316E-1,6.7263263E-1,2.0904596E-1,-1.1258246E0,9.2116725E-1,-1.5264394E-2,-1.9598084E-2,2.5050644E-2,-5.649986E-3,-3.8930207E-2,3.389928E-2,-0E0],"categories":[],"categories_nodes":[],"categories_segments":[],"categories_sizes":[],"default_left":[0,0,0,0,0,0,0,0,0,0,0,0,0],"id":24,"left_children":[1,3,5,7,9,11,-1,-1,-1,-1,-1,-1,-1],"loss_changes":[3.0083673E1,1.9646118E1,1.4699486E1,1.2814294E1,1.5515499E0,7.9054527E0,0E0,0E0,0E0,0E0,0E0,0E0,0E0],"parents":[2147483647,0,0,1,1,2,2,3,3,4,4,5,5],"right_children":[2,4,6,8,10,12,-1,-1,-1,-1,-1,-1,-1],"split_conditions":[1.9110086E0,-1.4434482E0,1.973122E0,-7.6815605E-2,-1.8865669E0,2.4448373E0,-1.5264394E-2,-1.9598084E-2,2.5050644E-2,-5.649986E-3,-3.8930207E-2,3.389928E-2,-0E0],"split_indices":[4,6,31,16,83,71,0,0,0,0,0,0,0],"split_type":[0,0,0,0,0,0,0,0,0,0,0,0,0],"sum_hessian":[7.8644424E1,3.7776237E1,4.086819E1,1.7371058E1,2.040518E1,3.501054E1,5.8576503E0,6.579342E0,1.0791715E1,5.0364666E0,1.5368713E1,2.8451927E1,6.558612E0],"tree_param":{"num_deleted":"0","num_feature":"208","num_nodes":"13","size_leaf_vector":"1"}},{"base_weights":[-3.7650835E-2,-5.200063E-1,6.6428536E-1,-8.2591695E-1,4.751954E-1,9.8360044E-1,-1.3614453E-2,2.3194544E-2,-3.462338E-2,2.5692213E-2,-0E0,-0E0,3.6860388E-2],"categories":[],"categories_nodes":[],"categories_segments":[],"categories_sizes":[],"default_left":[0,0,0,0,0,0,0,0,0,0,0,0,0],"id":25,"left_children":[1,3,5,7,9,11,-1,-1,-1,-1,-1,-1,-1],"loss_changes":[2.8720507E1,1.7128473E1,1.398954E1,2.4605774E1,2.920815E0,6.421465E0,0E0,0E0,0E0,0E0,0E0,0E0,0E0],"parents":[2147483647,0,0,1,1,2,2,3,3,4,4,5,5],"right_children":[2,4,6,8,10,12,-1,-1,-1,-1,-1,-1,-1],"split_conditions":[4.357855E0,3.5255024E0,9.668177E-1,-5.5103436E0,-3.488542E0,-1.7154409E0,-1.3614453E-2,2.3194544E-2,-3.462338E-2,2.5692213E-2,-0E0,-0E0,3.6860388E-2],"split_indices":[1,49,13,37,30,55,0,0,0,0,0,0,0],"split_type":[0,0,0,0,0,0,0,0,0,0,0,0,0],"sum_hessian":[7.91911E1,4.8242245E1,3.0948853E1,3.8058678E1,1.0183567E1,2.5050116E1,5.8987365E0,5.2695575E0,3.278912E1,5.041366E0,5.142201E0,5.82044E0,1.9229677E1],"tree_param":{"num_deleted":"0","num_feature":"208","num_nodes":"13","size_leaf_vector":"1"}},{"base_weights":[-0E0,-5.0730026E-1,5.8609366E-1,-3.406299E-2,9.567985E-2,9.700434E-1,-2.4759778E-1,-1.8960316E-2,2.672937E-2,3.6081675E-2,-0E0,1.1699621E-2,-2.5806412E-2],"categories":[],"categories_nodes":[],"categories_segments":[],"categories_sizes":[],"default_left":[0,0,0,0,0,0,0,0,0,0,0,0,0],"id":26,"left_children":[1,3,5,-1,7,9,11,-1,-1,-1,-1,-1,-1],"loss_changes":[2.4773392E1,1.789404E1,1.4062757E1,0E0,1.5965117E1,6.8734913E0,6.945091E0,0E0,0E0,0E0,0E0,0E0,0E0],"parents":[2147483647,0,0,1,1,2,2,4,4,5,5,6,6],"right_children":[2,4,6,-1,8,10,12,-1,-1,-1,-1,-1,-1],"split_conditions":[1.9511751E0,9.3852323E-1,5.1897E-1,-3.406299E-2,9.718937E-1,3.2077925E0,-2.2050586E0,-1.8960316E-2,2.672937E-2,3.6081675E-2,-0E0,1.1699621E-2,-2.5806412E-2],"split_indices":[1,16,52,0,52,44,3,0,0,0,0,0,0],"split_type":[0,0,0,0,0,0,0,0,0,0,0,0,0],"sum_hessian":[7.7064095E1,4.0639095E1,3.6424995E1,1.9419186E1,2.1219912E1,2.542469E1,1.1000304E1,1.0745999E1,1.0473913E1,2.0242113E1,5.1825786E0,5.124654E0,5.8756504E0],"tree_param":{"num_deleted":"0","num_feature":"208","num_nodes":"13","size_leaf_vector":"1"}},{"base_weights":[2.1552492E-2,-3.3932507E-2,2.6855755E-1,-1.5246649E-1,8.518982E-1,-2.8612562E-2,2.2055289E-2,3.1637527E-2,-0E0],"categories":[],"categories_nodes":[],"categories_segments":[],"categories_sizes":[],"default_left":[0,0,0,0,0,0,0,0,0],"id":27,"left_children":[1,-1,3,5,7,-1,-1,-1,-1],"loss_changes":[2.2834623E1,0E0,1.8047209E1,3.194743E1,5.6788197E0,0E0,0E0,0E0,0E0],"parents":[2147483647,0,0,2,2,3,3,4,4],"right_children":[2,-1,4,6,8,-1,-1,-1,-1],"split_conditions":[-3.660971E0,-3.3932507E-2,2.0693986E0,2.7423317E0,7.813296E0,-2.8612562E-2,2.2055289E-2,3.1637527E-2,-0E0],"split_indices":[20,0,16,22,0,0,0,0,0],"split_type":[0,0,0,0,0,0,0,0,0],"sum_hessian":[7.703271E1,1.0985125E1,6.6047585E1,3.865216E1,2.7395426E1,2.0788912E1,1.7863249E1,2.1940666E1,5.4547606E0],"tree_param":{"num_deleted":"0","num_feature":"208","num_nodes":"9","size_leaf_vector":"1"}},{"base_weights":[4.7995936E-2,3.4135243E-1,-7.936955E-1,3.4661133E-2,8.860322E-3,-3.6447655E-2,3.8911167E-3,2.5900701E-2,-9.899094E-3],"categories":[],"categories_nodes":[],"categories_segments":[],"categories_sizes":[],"default_left":[0,0,0,0,0,0,0,0,0],"id":28,"left_children":[1,3,5,-1,7,-1,-1,-1,-1],"loss_changes":[1.9296469E1,1.5003266E1,9.275711E0,0E0,1.48185425E1,0E0,0E0,0E0,0E0],"parents":[2147483647,0,0,1,1,2,2,4,4],"right_children":[2,4,6,-1,8,-1,-1,-1,-1],"split_conditions":[2.2754452E0,-3.9670527E0,3.3442E0,3.4661133E-2,-2.7547903E0,-3.6447655E-2,3.8911167E-3,2.5900701E-2,-9.899094E-3],"split_indices":[27,44,38,0,76,0,0,0,0],"split_type":[0,0,0,0,0,0,0,0,0],"sum_hessian":[7.369024E1,5.6848225E1,1.6842014E1,1.3460798E1,4.338743E1,1.1659259E1,5.182756E0,1.183866E1,3.1548767E1],"tree_param":{"num_deleted":"0","num_feature":"208","num_nodes":"9","size_leaf_vector":"1"}},{"base_weights":[7.036307E-2,-3.195248E-2,2.7875087E-1,-2.646496E-1,6.6842884E-1,-2.930652E-2,1.9438075E-2,2.807974E-2,-1.2687573E-2],"categories":[],"categories_nodes":[],"categories_segments":[],"categories_sizes":[],"default_left":[0,0,0,0,0,0,0,0,0],"id":29,"left_children":[1,-1,3,5,7,-1,-1,-1,-1],"loss_changes":[2.0198236E1,0E0,1.678953E1,2.3252886E1,1.4995071E1,0E0,0E0,0E0,0E0],"parents":[2147483647,0,0,2,2,3,3,4,4],"right_children":[2,-1,4,6,8,-1,-1,-1,-1],"split_conditions":[-3.6853855E0,-3.195248E-2,1.4698997E-1,2.1946526E0,1.6524615E0,-2.930652E-2,1.9438075E-2,2.807974E-2,-1.2687573E-2],"split_indices":[20,0,16,22,57,0,0,0,0],"split_type":[0,0,0,0,0,0,0,0,0],"sum_hessian":[8.192299E1,1.0047126E1,7.187586E1,2.9347506E1,4.252836E1,1.697986E1,1.2367647E1,3.52336E1,7.294759E0],"tree_param":{"num_deleted":"0","num_feature":"208","num_nodes":"9","size_leaf_vector":"1"}},{"base_weights":[1.1512352E-2,3.5105786E-1,-5.345068E-1,-5.9877986E-1,6.644262E-1,3.077111E-1,-3.267629E-2,-0E0,-2.9021127E-2,-1.574292E-2,2.7692758E-2,2.0853642E-2,-3.5417324E-3],"categories":[],"categories_nodes":[],"categories_segments":[],"categories_sizes":[],"default_left":[0,0,0,0,0,0,0,0,0,0,0,0,0],"id":30,"left_children":[1,3,5,7,9,11,-1,-1,-1,-1,-1,-1,-1],"loss_changes":[1.5614132E1,1.7214863E1,1.6534405E1,3.3381782E0,1.4931181E1,3.1586084E0,0E0,0E0,0E0,0E0,0E0,0E0,0E0],"parents":[2147483647,0,0,1,1,2,2,3,3,4,4,5,5],"right_children":[2,4,6,8,10,12,-1,-1,-1,-1,-1,-1,-1],"split_conditions":[5.48903E-1,-2.2538357E0,-3.433567E0,2.5670427E-1,-3.022101E0,-1.8868164E0,-3.267629E-2,-0E0,-2.9021127E-2,-1.574292E-2,2.7692758E-2,2.0853642E-2,-3.5417324E-3],"split_indices":[64,60,13,49,43,60,0,0,0,0,0,0,0],"split_type":[0,0,0,0,0,0,0,0,0,0,0,0,0],"sum_hessian":[7.917253E1,5.060568E1,2.856685E1,1.1084481E1,3.95212E1,1.1158176E1,1.7408674E1,5.1211004E0,5.963381E0,5.8185935E0,3.3702606E1,6.078299E0,5.079877E0],"tree_param":{"num_deleted":"0","num_feature":"208","num_nodes":"13","size_leaf_vector":"1"}}]},"name":"gbtree"},"learner_model_param":{"base_score":"[5E-1]","boost_from_average":"1","num_class":"0","num_feature":"208","num_target":"1"},"objective":{"name":"binary:logistic","reg_loss_param":{"scale_pos_weight":"2.5"}}},"version":[3,3,0]}