{"learner":{"attributes":{"best_iteration":"63","best_score":"0.671875","scikit_learn":"{\"_estimator_type\": \"classifier\"}"},"feature_names":[],"feature_types":[],"gradient_booster":{"model":{"cats":{"enc":[],"feature_segments":[],"sorted_idx":[]},"gbtree_model_param":{"num_parallel_tree":"1","num_trees":"94"},"iteration_indptr":[0,1,2,3,4,5,6,7,8,9,10,11,12,13,14,15,16,17,18,19,20,21,22,23,24,25,26,27,28,29,30,31,32,33,34,35,36,37,38,39,40,41,42,43,44,45,46,47,48,49,50,51,52,53,54,55,56,57,58,59,60,61,62,63,64,65,66,67,68,69,70,71,72,73,74,75,76,77,78,79,80,81,82,83,84,85,86,87,88,89,90,91,92,93,94],"tree_info":[0,0,0,0,0,0,0,0,0,0,0,0,0,0,0,0,0,0,0,0,0,0,0,0,0,0,0,0,0,0,0,0,0,0,0,0,0,0,0,0,0,0,0,0,0,0,0,0,0,0,0,0,0,0,0,0,0,0,0,0,0,0,0,0,0,0,0,0,0,0,0,0,0,0,0,0,0,0,0,0,0,0,0,0,0,0,0,0,0,0,0,0,0,0],"trees":[{"base_weights":[1.7804155E-2,9.3193716E-1,-1.0632912E0,-6.434783E-1,1.5051546E0,-1.5341365E0,4.1758242E-1,-4.090909E-2,2.2352941E-2,5.0469313E-2,-1.5789473E-2,-5.046025E-2,1.0588235E-2,-1.5294118E-2,3.3749998E-2],"categories":[],"categories_nodes":[],"categories_segments":[],"categories_sizes":[],"default_left":[0,0,0,0,0,0,0,0,0,0,0,0,0,0,0],"id":0,"left_children":[1,3,5,7,9,11,13,-1,-1,-1,-1,-1,-1,-1,-1],"loss_changes":[8.610272E1,4.6888187E1,3.0580307E1,1.8041588E1,1.6903152E1,1.1795311E1,9.798346E0,0E0,0E0,0E0,0E0,0E0,0E0,0E0,0E0],"parents":[2147483647,0,0,1,1,2,2,3,3,4,4,5,5,6,6],"right_children":[2,4,6,8,10,12,14,-1,-1,-1,-1,-1,-1,-1,-1],"split_conditions":[-1.06019385E-1,-5.0549704E-4,8.3846286E-2,1.2804818E-2,-8.220828E-3,5.4227106E-2,1.0459138E-2,-4.090909E-2,2.2352941E-2,5.0469313E-2,-1.5789473E-2,-5.046025E-2,1.0588235E-2,-1.5294118E-2,3.3749998E-2],"split_indices":[1573,1885,1127,403,216,370,152,0,0,0,0,0,0,0,0],"split_type":[0,0,0,0,0,0,0,0,0,0,0,0,0,0,0],"sum_hessian":[8.125E1,4.475E1,3.65E1,1.1375E1,3.3375E1,2.8125E1,8.375E0,8E0,3.375E0,3.1625E1,1.75E0,2.6875E1,1.25E0,3.375E0,5E0],"tree_param":{"num_deleted":"0","num_feature":"2336","num_nodes":"15","size_leaf_vector":"1"}},{"base_weights":[2.1062545E-2,7.7991426E-1,-1.3641428E0,-9.411528E-1,1.1391361E0,1.7673895E-2,-1.6412284E0,1.014491E-2,-3.8811147E-2,4.2789083E-2,-9.984675E-3,-0E0,-5.14562E-2],"categories":[],"categories_nodes":[],"categories_segments":[],"categories_sizes":[],"default_left":[0,0,0,0,0,0,0,0,0,0,0,0,0],"id":1,"left_children":[1,3,5,7,9,-1,11,-1,-1,-1,-1,-1,-1],"loss_changes":[9.611443E1,4.0413986E1,2.1330994E1,7.4531E0,2.422316E1,0E0,3.9828415E0,0E0,0E0,0E0,0E0,0E0,0E0],"parents":[2147483647,0,0,1,1,2,2,3,3,4,4,6,6],"right_children":[2,4,6,8,10,-1,12,-1,-1,-1,-1,-1,-1],"split_conditions":[2.4168536E-2,-1.6324464E-2,2.5302857E-1,-8.931053E-4,5.297438E-2,1.7673895E-2,-4.667124E-2,1.014491E-2,-3.8811147E-2,4.2789083E-2,-9.984675E-3,-0E0,-5.14562E-2],"split_indices":[2123,125,416,130,736,0,265,0,0,0,0,0,0],"split_type":[0,0,0,0,0,0,0,0,0,0,0,0,0],"sum_hessian":[8.595547E1,5.6846363E1,2.9109106E1,8.496252E0,4.8350113E1,2.7482498E0,2.6360857E1,1.2492044E0,7.2470474E0,4.110357E1,7.2465415E0,1.124284E0,2.5236572E1],"tree_param":{"num_deleted":"0","num_feature":"2336","num_nodes":"13","size_leaf_vector":"1"}},{"base_weights":[-1.6828343E-1,-1.0967717E0,8.453998E-1,5.7918143E-1,-1.5000416E0,-7.051114E-1,1.3277614E0,-1.6976936E-2,3.4720454E-2,1.2454327E-2,-5.0213587E-2,1.586104E-2,-3.662607E-2,-1.5103E-2,4.5255356E-2],"categories":[],"categories_nodes":[],"categories_segments":[],"categories_sizes":[],"default_left":[0,0,0,0,0,0,0,0,0,0,0,0,0,0,0],"id":2,"left_children":[1,3,5,7,9,11,13,-1,-1,-1,-1,-1,-1,-1,-1],"loss_changes":[8.279718E1,3.465303E1,3.461489E1,9.584273E0,1.6133575E1,9.858027E0,1.4316463E1,0E0,0E0,0E0,0E0,0E0,0E0,0E0,0E0],"parents":[2147483647,0,0,1,1,2,2,3,3,4,4,5,5,6,6],"right_children":[2,4,6,8,10,12,14,-1,-1,-1,-1,-1,-1,-1,-1],"split_conditions":[1.037588E-2,-5.783166E-2,9.368928E-3,8.7380916E-2,-4.1629605E-2,-3.9058656E-2,2.3181234E-2,-1.6976936E-2,3.4720454E-2,1.2454327E-2,-5.0213587E-2,1.586104E-2,-3.662607E-2,-1.5103E-2,4.5255356E-2],"split_indices":[1942,2121,1330,1256,2208,108,78,0,0,0,0,0,0,0,0],"split_type":[0,0,0,0,0,0,0,0,0,0,0,0,0,0,0],"sum_hessian":[8.174795E1,4.305349E1,3.869446E1,7.6155567E0,3.543793E1,8.360814E0,3.0333647E1,1.9961576E0,5.619399E0,2.122116E0,3.3315815E1,1.8709291E0,6.489885E0,1.7469525E0,2.8586693E1],"tree_param":{"num_deleted":"0","num_feature":"2336","num_nodes":"15","size_leaf_vector":"1"}},{"base_weights":[-7.719162E-2,-1.2197362E0,6.413291E-1,3.0231735E-1,-1.5802447E0,-1.139162E0,1.2260509E0,-1.6500594E-2,2.8403455E-2,-0E0,-4.9541E-2,-4.2809974E-2,1.0274595E-2,4.433636E-2,-2.4578853E-2],"categories":[],"categories_nodes":[],"categories_segments":[],"categories_sizes":[],"default_left":[0,0,0,0,0,0,0,0,0,0,0,0,0,0,0],"id":3,"left_children":[1,3,5,7,9,11,13,-1,-1,-1,-1,-1,-1,-1,-1],"loss_changes":[7.454206E1,2.2054272E1,6.1522026E1,6.7586503E0,3.7297592E0,8.83083E0,2.6573158E1,0E0,0E0,0E0,0E0,0E0,0E0,0E0,0E0],"parents":[2147483647,0,0,1,1,2,2,3,3,4,4,5,5,6,6],"right_children":[2,4,6,8,10,12,14,-1,-1,-1,-1,-1,-1,-1,-1],"split_conditions":[-9.859279E-4,-6.027797E-2,-2.0052185E-2,-5.4007925E-2,-1.3023568E-2,1.4561193E-2,4.514249E-2,-1.6500594E-2,2.8403455E-2,-0E0,-4.9541E-2,-4.2809974E-2,1.0274595E-2,4.433636E-2,-2.4578853E-2],"split_indices":[1885,2070,218,18,4,398,508,0,0,0,0,0,0,0,0],"split_type":[0,0,0,0,0,0,0,0,0,0,0,0,0,0,0],"sum_hessian":[8.423747E1,3.225181E1,5.1985664E1,5.737725E0,2.6514082E1,1.1725722E1,4.025994E1,1.991643E0,3.7460818E0,1.119806E0,2.5394276E1,1.0476121E1,1.2496016E0,3.7022842E1,3.2370958E0],"tree_param":{"num_deleted":"0","num_feature":"2336","num_nodes":"15","size_leaf_vector":"1"}},{"base_weights":[2.5385357E-2,6.715982E-1,-1.1882031E0,9.961807E-1,-3.6555514E-2,1.7397493E-2,-1.4538461E0,3.9580934E-2,-2.7186308E-2,-4.8223477E-2,9.770142E-3],"categories":[],"categories_nodes":[],"categories_segments":[],"categories_sizes":[],"default_left":[0,0,0,0,0,0,0,0,0,0,0],"id":4,"left_children":[1,3,5,7,-1,-1,9,-1,-1,-1,-1],"loss_changes":[7.1304726E1,4.036567E1,1.810738E1,3.689207E1,0E0,0E0,1.0659981E1,0E0,0E0,0E0,0E0],"parents":[2147483647,0,0,1,1,2,2,3,3,6,6],"right_children":[2,4,6,8,-1,-1,10,-1,-1,-1,-1],"split_conditions":[2.5259532E-2,-7.201767E-3,-1.0326717E-1,1.06891625E-1,-3.6555514E-2,1.7397493E-2,1.0214579E-2,3.9580934E-2,-2.7186308E-2,-4.8223477E-2,9.770142E-3],"split_indices":[2123,216,1767,980,0,0,329,0,0,0,0],"split_type":[0,0,0,0,0,0,0,0,0,0,0],"sum_hessian":[8.55286E1,5.7222507E1,2.8306095E1,5.0498512E1,6.7239976E0,2.741961E0,2.5564133E1,4.440066E1,6.097849E0,2.4317171E1,1.2469621E0],"tree_param":{"num_deleted":"0","num_feature":"2336","num_nodes":"11","size_leaf_vector":"1"}},{"base_weights":[2.0842202E-2,8.137199E-1,-9.6837837E-1,-4.846085E-1,1.338759E0,-1.5291247E0,1.1769156E-1,2.1857781E-2,-3.408223E-2,4.527649E-2,-1.6261414E-2,-4.801256E-2,-0E0,-2.938087E-2,2.5728224E-2],"categories":[],"categories_nodes":[],"categories_segments":[],"categories_sizes":[],"default_left":[0,0,0,0,0,0,0,0,0,0,0,0,0,0,0],"id":5,"left_children":[1,3,5,7,9,11,13,-1,-1,-1,-1,-1,-1,-1,-1],"loss_changes":[7.446664E1,3.915365E1,2.7405937E1,1.6335041E1,1.6026917E1,3.488617E0,1.57186575E1,0E0,0E0,0E0,0E0,0E0,0E0,0E0,0E0],"parents":[2147483647,0,0,1,1,2,2,3,3,4,4,5,5,6,6],"right_children":[2,4,6,8,10,12,14,-1,-1,-1,-1,-1,-1,-1,-1],"split_conditions":[-1.06019385E-1,-5.0549704E-4,4.6446387E-2,3.6405712E-1,4.2333E-2,5.560264E-2,4.2214245E-4,2.1857781E-2,-3.408223E-2,4.527649E-2,-1.6261414E-2,-4.801256E-2,-0E0,-2.938087E-2,2.5728224E-2],"split_indices":[1573,1885,784,415,1993,555,2270,0,0,0,0,0,0,0,0],"split_type":[0,0,0,0,0,0,0,0,0,0,0,0,0,0,0],"sum_hessian":[8.9126076E1,5.032935E1,3.8796726E1,1.401043E1,3.631892E1,2.5386435E1,1.3410291E1,4.2345023E0,9.7759285E0,3.433182E1,1.9870975E0,2.4275724E1,1.110709E0,4.4661317E0,8.9441595E0],"tree_param":{"num_deleted":"0","num_feature":"2336","num_nodes":"15","size_leaf_vector":"1"}},{"base_weights":[-8.6035945E-2,7.497307E-1,-1.0791081E0,1.1278152E0,-6.5738195E-1,-4.7382206E-2,2.5994254E-2,4.1296367E-2,-6.139271E-3,-3.383124E-2,1.1386381E-2,-2.8263288E-2,2.4115508E-2],"categories":[],"categories_nodes":[],"categories_segments":[],"categories_sizes":[],"default_left":[0,0,0,0,0,0,0,0,0,0,0,0,0],"id":6,"left_children":[1,3,5,7,9,-1,11,-1,-1,-1,-1,-1,-1],"loss_changes":[7.2710785E1,2.7693949E1,2.3954453E1,1.4844162E1,7.536901E0,0E0,1.3343204E1,0E0,0E0,0E0,0E0,0E0,0E0],"parents":[2147483647,0,0,1,1,2,2,3,3,4,4,6,6],"right_children":[2,4,6,8,10,-1,12,-1,-1,-1,-1,-1,-1],"split_conditions":[-1.060269E-1,-9.350537E-2,-1.6502792E-2,1.9382691E-2,1.4812444E-1,-4.7382206E-2,4.7305178E-2,4.1296367E-2,-6.139271E-3,-3.383124E-2,1.1386381E-2,-2.8263288E-2,2.4115508E-2],"split_indices":[1573,1614,2223,1990,997,0,55,0,0,0,0,0,0],"split_type":[0,0,0,0,0,0,0,0,0,0,0,0,0],"sum_hessian":[8.128464E1,4.39905E1,3.7294136E1,3.570333E1,8.287171E0,2.5408558E1,1.1885579E1,3.063577E1,5.06756E0,6.184001E0,2.10317E0,4.440256E0,7.4453235E0],"tree_param":{"num_deleted":"0","num_feature":"2336","num_nodes":"13","size_leaf_vector":"1"}},{"base_weights":[1.0063059E-1,5.9803534E-1,-1.248327E0,-9.288253E-1,9.218879E-1,-4.4776484E-2,7.6882956E-3,9.2532E-3,-3.700732E-2,3.62011E-2,-2.084569E-2],"categories":[],"categories_nodes":[],"categories_segments":[],"categories_sizes":[],"default_left":[0,0,0,0,0,0,0,0,0,0,0],"id":7,"left_children":[1,3,5,7,9,-1,-1,-1,-1,-1,-1],"loss_changes":[6.0379135E1,3.5486145E1,1.1215332E1,6.819585E0,2.9264408E1,0E0,0E0,0E0,0E0,0E0,0E0],"parents":[2147483647,0,0,1,1,2,2,3,3,4,4],"right_children":[2,4,6,8,10,-1,-1,-1,-1,-1,-1],"split_conditions":[1.5326989E-2,-3.4968987E-2,5.478794E-2,-3.6049634E-2,4.658722E-2,-4.4776484E-2,7.6882956E-3,9.2532E-3,-3.700732E-2,3.62011E-2,-2.084569E-2],"split_indices":[1966,155,737,201,2185,0,0,0,0,0,0],"split_type":[0,0,0,0,0,0,0,0,0,0,0],"sum_hessian":[8.461807E1,6.3583923E1,2.1034151E1,9.60543E0,5.3978493E1,1.8689234E1,2.3449168E0,1.2426647E0,8.362765E0,4.7066383E1,6.9121113E0],"tree_param":{"num_deleted":"0","num_feature":"2336","num_nodes":"11","size_leaf_vector":"1"}},{"base_weights":[4.595807E-2,8.3485436E-1,-7.7299464E-1,-2.893009E-2,1.1537217E0,5.2087927E-1,-1.2288527E0,-2.1337155E-2,4.125803E-2,3.2563485E-2,-1.8628305E-2,-4.4007067E-2,7.795447E-3],"categories":[],"categories_nodes":[],"categories_segments":[],"categories_sizes":[],"default_left":[0,0,0,0,0,0,0,0,0,0,0,0,0],"id":8,"left_children":[1,3,5,-1,7,9,11,-1,-1,-1,-1,-1,-1],"loss_changes":[5.6106213E1,2.9184317E1,2.7417318E1,0E0,2.0054081E1,1.0534824E1,1.3883312E1,0E0,0E0,0E0,0E0,0E0,0E0],"parents":[2147483647,0,0,1,1,2,2,4,4,5,5,6,6],"right_children":[2,4,6,-1,8,10,12,-1,-1,-1,-1,-1,-1],"split_conditions":[-1.0909507E-1,-1.9186473E-2,-2.196008E-2,-2.893009E-2,-3.557825E-2,5.160314E-2,6.032777E-2,-2.1337155E-2,4.125803E-2,3.2563485E-2,-1.8628305E-2,-4.4007067E-2,7.795447E-3],"split_indices":[1573,1885,2048,0,2001,736,1942,0,0,0,0,0,0],"split_type":[0,0,0,0,0,0,0,0,0,0,0,0,0],"sum_hessian":[8.0750114E1,4.1722088E1,3.9028023E1,4.8947687E0,3.682732E1,9.484982E0,2.9543043E1,2.7269819E0,3.4100338E1,7.03196E0,2.453022E0,2.608724E1,3.455803E0],"tree_param":{"num_deleted":"0","num_feature":"2336","num_nodes":"13","size_leaf_vector":"1"}},{"base_weights":[-0E0,-9.175248E-1,8.169578E-1,2.970723E-1,-1.3265654E0,-5.7107025E-1,1.2826791E0,2.6806643E-2,-1.8977482E-2,8.104264E-3,-4.5681413E-2,1.904999E-2,-3.457022E-2,4.2732008E-2,-1.1732517E-2],"categories":[],"categories_nodes":[],"categories_segments":[],"categories_sizes":[],"default_left":[0,0,0,0,0,0,0,0,0,0,0,0,0,0,0],"id":9,"left_children":[1,3,5,7,9,11,13,-1,-1,-1,-1,-1,-1,-1,-1],"loss_changes":[6.226566E1,2.163697E1,3.1336227E1,8.436529E0,1.2011948E1,1.1534855E1,1.0862293E1,0E0,0E0,0E0,0E0,0E0,0E0,0E0,0E0],"parents":[2147483647,0,0,1,1,2,2,3,3,4,4,5,5,6,6],"right_children":[2,4,6,8,10,12,14,-1,-1,-1,-1,-1,-1,-1,-1],"split_conditions":[8.274002E-3,-2.8784683E-2,-2.0052185E-2,1.1514402E-2,-3.7054106E-33,-3.6467183E-2,-7.2960244E-3,2.6806643E-2,-1.8977482E-2,8.104264E-3,-4.5681413E-2,1.904999E-2,-3.457022E-2,4.2732008E-2,-1.1732517E-2],"split_indices":[1942,328,218,2171,223,108,24,0,0,0,0,0,0,0,0],"split_type":[0,0,0,0,0,0,0,0,0,0,0,0,0,0,0],"sum_hessian":[7.707442E1,3.609914E1,4.0975273E1,8.685387E0,2.7413755E1,9.584364E0,3.139091E1,6.0169635E0,2.668423E0,2.3176332E0,2.509612E1,2.4673085E0,7.1170554E0,2.9903332E1,1.4875762E0],"tree_param":{"num_deleted":"0","num_feature":"2336","num_nodes":"15","size_leaf_vector":"1"}},{"base_weights":[-2.3617705E-2,-1.1738464E0,6.0504776E-1,-1.4134609E0,2.6714614E-1,1.1846942E0,-4.4162014E-1,-0E0,-4.4598717E-2,1.4109469E-2,-0E0,-1.0120625E-2,4.1026145E-2,2.2790337E-2,-2.9444573E-2],"categories":[],"categories_nodes":[],"categories_segments":[],"categories_sizes":[],"default_left":[0,0,0,0,0,0,0,0,0,0,0,0,0,0,0],"id":10,"left_children":[1,3,5,7,9,11,13,-1,-1,-1,-1,-1,-1,-1,-1],"loss_changes":[6.3924725E1,1.31572075E1,3.638749E1,3.5371094E0,6.135225E-1,1.2871548E1,1.6459625E1,0E0,0E0,0E0,0E0,0E0,0E0,0E0,0E0],"parents":[2147483647,0,0,1,1,2,2,3,3,4,4,5,5,6,6],"right_children":[2,4,6,8,10,12,14,-1,-1,-1,-1,-1,-1,-1,-1],"split_conditions":[-5.0549704E-4,2.4666129E-2,-1.06019385E-1,4.1061193E-2,-1.2522091E-2,-1.4333332E-2,-1.9530775E-2,-0E0,-4.4598717E-2,1.4109469E-2,-0E0,-1.0120625E-2,4.1026145E-2,2.2790337E-2,-2.9444573E-2],"split_indices":[1885,1332,1573,1000,10,2276,26,0,0,0,0,0,0,0,0],"split_type":[0,0,0,0,0,0,0,0,0,0,0,0,0,0,0],"sum_hessian":[8.166942E1,2.8504902E1,5.3164516E1,2.5084951E1,3.419952E0,3.4576046E1,1.8588472E1,1.0958703E0,2.398908E1,1.8449867E0,1.5749652E0,2.8497372E0,3.1726307E1,4.810485E0,1.3777988E1],"tree_param":{"num_deleted":"0","num_feature":"2336","num_nodes":"15","size_leaf_vector":"1"}},{"base_weights":[-3.2169983E-2,-6.2285054E-1,8.965146E-1,-1.2550919E0,4.2575362E-1,1.2976949E0,-4.1063127E-1,-4.482716E-2,1.5839024E-2,3.1744502E-2,-1.8342933E-2,4.343151E-2,-7.858678E-3,-2.7378263E-2,1.235174E-2],"categories":[],"categories_nodes":[],"categories_segments":[],"categories_sizes":[],"default_left":[0,0,0,0,0,0,0,0,0,0,0,0,0,0,0],"id":11,"left_children":[1,3,5,7,9,11,13,-1,-1,-1,-1,-1,-1,-1,-1],"loss_changes":[4.5613693E1,3.6702747E1,1.9216888E1,1.766182E1,1.622012E1,8.341316E0,5.4201813E0,0E0,0E0,0E0,0E0,0E0,0E0,0E0,0E0],"parents":[2147483647,0,0,1,1,2,2,3,3,4,4,5,5,6,6],"right_children":[2,4,6,8,10,12,14,-1,-1,-1,-1,-1,-1,-1,-1],"split_conditions":[1.32891135E-2,1.3892334E-2,-2.1192206E-2,8.757389E-2,-5.574263E-2,-3.0478367E-3,2.6352674E-2,-4.482716E-2,1.5839024E-2,3.1744502E-2,-1.8342933E-2,4.343151E-2,-7.858678E-3,-2.7378263E-2,1.235174E-2],"split_indices":[403,2081,216,131,176,26,13,0,0,0,0,0,0,0,0],"split_type":[0,0,0,0,0,0,0,0,0,0,0,0,0,0,0],"sum_hessian":[7.759739E1,4.8692047E1,2.8905342E1,3.0603182E1,1.8088867E1,2.2719227E1,6.1861143E0,2.790702E1,2.6961598E0,1.1798528E1,6.290339E0,2.1506956E1,1.2122707E0,4.391968E0,1.794147E0],"tree_param":{"num_deleted":"0","num_feature":"2336","num_nodes":"15","size_leaf_vector":"1"}},{"base_weights":[3.738849E-2,-6.831087E-1,6.641997E-1,2.545309E-1,-1.2790524E0,1.0683938E0,-4.4811782E-1,2.5503928E-2,-2.4623249E-2,5.25297E-3,-4.2797886E-2,-1.2998497E-2,3.8731217E-2,1.8166848E-2,-3.419983E-2],"categories":[],"categories_nodes":[],"categories_segments":[],"categories_sizes":[],"default_left":[0,0,0,0,0,0,0,0,0,0,0,0,0,0,0],"id":12,"left_children":[1,3,5,7,9,11,13,-1,-1,-1,-1,-1,-1,-1,-1],"loss_changes":[4.042154E1,2.4907993E1,2.3878834E1,1.3510031E1,7.625141E0,1.4955791E1,1.3096617E1,0E0,0E0,0E0,0E0,0E0,0E0,0E0,0E0],"parents":[2147483647,0,0,1,1,2,2,3,3,4,4,5,5,6,6],"right_children":[2,4,6,8,10,12,14,-1,-1,-1,-1,-1,-1,-1,-1],"split_conditions":[6.542683E-3,-3.8383272E-3,-9.20721E-2,7.8031786E-2,-7.893914E-33,-3.4495946E-2,3.715419E-2,2.5503928E-2,-2.4623249E-2,5.25297E-3,-4.2797886E-2,-1.2998497E-2,3.8731217E-2,1.8166848E-2,-3.419983E-2],"split_indices":[1885,104,1746,1301,1621,2239,1139,0,0,0,0,0,0,0,0],"split_type":[0,0,0,0,0,0,0,0,0,0,0,0,0,0,0],"sum_hessian":[8.3532166E1,3.7994274E1,4.553789E1,1.4780211E1,2.3214064E1,3.4147026E1,1.1390863E1,1.051452E1,4.265692E0,1.4624684E0,2.1751595E1,3.4627018E0,3.0684326E1,4.0903964E0,7.300467E0],"tree_param":{"num_deleted":"0","num_feature":"2336","num_nodes":"15","size_leaf_vector":"1"}},{"base_weights":[5.877348E-2,8.990123E-1,-8.0565E-1,-4.082536E-1,1.2106957E0,-1.210528E0,3.835831E-1,-2.768677E-2,1.5244606E-2,-5.03504E-3,4.1866872E-2,4.1116807E-3,-4.32254E-2,-1.9675571E-2,3.0590486E-2],"categories":[],"categories_nodes":[],"categories_segments":[],"categories_sizes":[],"default_left":[0,0,0,0,0,0,0,0,0,0,0,0,0,0,0],"id":13,"left_children":[1,3,5,7,9,11,13,-1,-1,-1,-1,-1,-1,-1,-1],"loss_changes":[6.2351624E1,2.0194477E1,2.2332676E1,6.5793056E0,1.1325527E1,1.1986908E1,1.0476293E1,0E0,0E0,0E0,0E0,0E0,0E0,0E0,0E0],"parents":[2147483647,0,0,1,1,2,2,3,3,4,4,5,5,6,6],"right_children":[2,4,6,8,10,12,14,-1,-1,-1,-1,-1,-1,-1,-1],"split_conditions":[-1.1523778E-1,-1.3689928E-2,8.6044736E-2,5.014061E-2,8.937523E-2,-3.8231246E-2,1.0652439E-2,-2.768677E-2,1.5244606E-2,-5.03504E-3,4.1866872E-2,4.1116807E-3,-4.32254E-2,-1.9675571E-2,3.0590486E-2],"split_indices":[1573,1885,1127,513,936,2020,152,0,0,0,0,0,0,0,0],"split_type":[0,0,0,0,0,0,0,0,0,0,0,0,0,0,0],"sum_hessian":[7.972553E1,4.0954067E1,3.8771465E1,7.087926E0,3.3866142E1,2.9511385E1,9.260079E0,5.2241306E0,1.8637953E0,3.3976133E0,3.0468529E1,3.851196E0,2.5660189E1,2.8833036E0,6.3767757E0],"tree_param":{"num_deleted":"0","num_feature":"2336","num_nodes":"15","size_leaf_vector":"1"}},{"base_weights":[-3.0598864E-2,7.5447756E-1,-8.905373E-1,-5.991455E-1,1.1610612E0,2.4614515E-2,-1.1888969E0,1.4470234E-2,-3.146165E-2,-7.021409E-3,3.9247006E-2,1.5253459E-2,-4.1766368E-2],"categories":[],"categories_nodes":[],"categories_segments":[],"categories_sizes":[],"default_left":[0,0,0,0,0,0,0,0,0,0,0,0,0],"id":14,"left_children":[1,3,5,7,9,-1,11,-1,-1,-1,-1,-1,-1],"loss_changes":[5.852904E1,2.7233482E1,2.4652786E1,7.7866206E0,9.372234E0,0E0,1.5896E1,0E0,0E0,0E0,0E0,0E0,0E0],"parents":[2147483647,0,0,1,1,2,2,3,3,4,4,6,6],"right_children":[2,4,6,8,10,-1,12,-1,-1,-1,-1,-1,-1],"split_conditions":[-1.0909507E-1,-3.0758446E-3,-7.769241E-2,-5.038061E-2,-2.9158333E-2,2.4614515E-2,2.5764836E-2,1.4470234E-2,-3.146165E-2,-7.021409E-3,3.9247006E-2,1.5253459E-2,-4.1766368E-2],"split_indices":[1573,1885,2253,1972,192,0,1054,0,0,0,0,0,0],"split_type":[0,0,0,0,0,0,0,0,0,0,0,0,0],"sum_hessian":[8.050741E1,4.167002E1,3.883739E1,8.728897E0,3.2941124E1,4.4895086E0,3.434788E1,1.8457828E0,6.8831143E0,2.3260355E0,3.0615088E1,2.6664698E0,3.1681412E1],"tree_param":{"num_deleted":"0","num_feature":"2336","num_nodes":"13","size_leaf_vector":"1"}},{"base_weights":[-0E0,-8.5498965E-1,5.4035485E-1,4.195457E-1,-1.1643728E0,-9.554504E-1,1.0238676E0,2.5261754E-2,-8.439225E-3,8.709882E-3,-3.899708E-2,-3.5794888E-2,7.0508625E-3,3.613583E-2,-1.9073298E-2],"categories":[],"categories_nodes":[],"categories_segments":[],"categories_sizes":[],"default_left":[0,0,0,0,0,0,0,0,0,0,0,0,0,0,0],"id":15,"left_children":[1,3,5,7,9,11,13,-1,-1,-1,-1,-1,-1,-1,-1],"loss_changes":[4.0303932E1,1.5363531E1,4.243692E1,3.6668394E0,7.714794E0,5.8648205E0,1.5806274E1,0E0,0E0,0E0,0E0,0E0,0E0,0E0,0E0],"parents":[2147483647,0,0,1,1,2,2,3,3,4,4,5,5,6,6],"right_children":[2,4,6,8,10,12,14,-1,-1,-1,-1,-1,-1,-1,-1],"split_conditions":[-9.859279E-4,-5.6597334E-3,-1.9919703E-2,-6.260462E-3,-1.5491771E-2,4.276101E-3,1.3312293E-2,2.5261754E-2,-8.439225E-3,8.709882E-3,-3.899708E-2,-3.5794888E-2,7.0508625E-3,3.613583E-2,-1.9073298E-2],"split_indices":[1885,62,218,209,107,84,282,0,0,0,0,0,0,0,0],"split_type":[0,0,0,0,0,0,0,0,0,0,0,0,0,0,0],"sum_hessian":[8.188028E1,3.0356627E1,5.1523655E1,5.0894933E0,2.5267134E1,1.13658E1,4.0157856E1,3.6883545E0,1.4011388E0,1.2325574E0,2.4034576E1,1.01685915E1,1.1972091E0,3.7500916E1,2.6569378E0],"tree_param":{"num_deleted":"0","num_feature":"2336","num_nodes":"15","size_leaf_vector":"1"}},{"base_weights":[5.526782E-2,7.541753E-1,-8.1762695E-1,9.883506E-1,-2.437846E-2,-1.217658E0,2.2336876E-1,-7.009829E-3,3.502779E-2,8.723638E-3,-4.0753625E-2,2.6271438E-2,-2.0451289E-2],"categories":[],"categories_nodes":[],"categories_segments":[],"categories_sizes":[],"default_left":[0,0,0,0,0,0,0,0,0,0,0,0,0],"id":16,"left_children":[1,3,5,7,-1,9,11,-1,-1,-1,-1,-1,-1],"loss_changes":[5.119889E1,1.9894478E1,1.7142252E1,1.1160294E1,0E0,8.14764E0,9.106452E0,0E0,0E0,0E0,0E0,0E0,0E0],"parents":[2147483647,0,0,1,1,2,2,3,3,5,5,6,6],"right_children":[2,4,6,8,-1,10,12,-1,-1,-1,-1,-1,-1],"split_conditions":[-1.06019385E-1,-7.201767E-3,1.9737229E-2,-1.7363101E-2,-2.437846E-2,-3.7174486E-2,9.341177E-2,-7.009829E-3,3.502779E-2,8.723638E-3,-4.0753625E-2,2.6271438E-2,-2.0451289E-2],"split_indices":[1573,216,2112,1885,0,2027,1020,0,0,0,0,0,0],"split_type":[0,0,0,0,0,0,0,0,0,0,0,0,0],"sum_hessian":[7.799435E1,4.4176685E1,3.381766E1,3.9951305E1,4.2253804E0,2.4755995E1,9.061665E0,4.280247E0,3.567106E1,1.2342477E0,2.3521748E1,5.964726E0,3.0969388E0],"tree_param":{"num_deleted":"0","num_feature":"2336","num_nodes":"13","size_leaf_vector":"1"}},{"base_weights":[6.0721125E-2,5.9834266E-1,-8.848922E-1,9.0045923E-1,-7.3717993E-1,6.8196183E-1,-4.029636E-2,-1.966693E-2,3.4241643E-2,7.4837157E-3,-3.0859845E-2,-0E0,2.4412716E-2],"categories":[],"categories_nodes":[],"categories_segments":[],"categories_sizes":[],"default_left":[0,0,0,0,0,0,0,0,0,0,0,0,0],"id":17,"left_children":[1,3,5,7,9,11,-1,-1,-1,-1,-1,-1,-1],"loss_changes":[4.316515E1,2.4331131E1,2.5228413E1,2.0269463E1,4.7638297E0,8.339739E-1,0E0,0E0,0E0,0E0,0E0,0E0,0E0],"parents":[2147483647,0,0,1,1,2,2,3,3,4,4,5,5],"right_children":[2,4,6,8,10,12,-1,-1,-1,-1,-1,-1,-1],"split_conditions":[2.3278303E-2,-7.5555325E-2,-6.622676E-2,9.6010864E-2,2.8819738E-2,-6.4542186E-3,-4.029636E-2,-1.966693E-2,3.4241643E-2,7.4837157E-3,-3.0859845E-2,-0E0,2.4412716E-2],"split_indices":[2123,1506,1993,951,1047,145,0,0,0,0,0,0,0],"split_type":[0,0,0,0,0,0,0,0,0,0,0,0,0],"sum_hessian":[7.9346115E1,5.196248E1,2.7383638E1,4.3783916E1,8.178564E0,5.3721495E0,2.201149E1,4.621662E0,3.9162254E1,1.1814035E0,6.9971604E0,1.2328869E0,4.1392627E0],"tree_param":{"num_deleted":"0","num_feature":"2336","num_nodes":"13","size_leaf_vector":"1"}},{"base_weights":[5.667805E-2,6.8215984E-1,-8.2583266E-1,9.7383726E-1,-4.4585615E-1,1.833864E-1,-3.9621282E-2,-1.7037902E-2,3.35767E-2,1.6210197E-2,-2.939494E-2,2.4775874E-2,-2.0691225E-2],"categories":[],"categories_nodes":[],"categories_segments":[],"categories_sizes":[],"default_left":[0,0,0,0,0,0,0,0,0,0,0,0,0],"id":18,"left_children":[1,3,5,7,9,11,-1,-1,-1,-1,-1,-1,-1],"loss_changes":[4.6525726E1,1.827908E1,1.9090673E1,1.173101E1,8.149368E0,9.315577E0,0E0,0E0,0E0,0E0,0E0,0E0,0E0],"parents":[2147483647,0,0,1,1,2,2,3,3,4,4,5,5],"right_children":[2,4,6,8,10,12,-1,-1,-1,-1,-1,-1,-1],"split_conditions":[-1.0413176E-1,-9.230735E-2,7.587506E-2,-7.959543E-2,-5.1114947E-2,9.587927E-3,-3.9621282E-2,-1.7037902E-2,3.35767E-2,1.6210197E-2,-2.939494E-2,2.4775874E-2,-2.0691225E-2],"split_indices":[1573,1614,1067,1516,1972,38,0,0,0,0,0,0,0],"split_type":[0,0,0,0,0,0,0,0,0,0,0,0,0],"sum_hessian":[7.848517E1,4.6992977E1,3.1492191E1,3.83684E1,8.624576E0,1.0317976E1,2.1174215E1,1.962241E0,3.640616E1,2.3590865E0,6.265489E0,6.697319E0,3.6206565E0],"tree_param":{"num_deleted":"0","num_feature":"2336","num_nodes":"13","size_leaf_vector":"1"}},{"base_weights":[-4.722863E-2,-9.755719E-1,4.3193144E-1,-1.1549373E0,7.7892225E-3,-7.4491894E-1,9.071001E-1,4.300204E-3,-3.873334E-2,1.1598908E-2,-3.4603503E-2,-1.4293565E-2,3.353664E-2],"categories":[],"categories_nodes":[],"categories_segments":[],"categories_sizes":[],"default_left":[0,0,0,0,0,0,0,0,0,0,0,0,0],"id":19,"left_children":[1,3,5,7,-1,9,11,-1,-1,-1,-1,-1,-1],"loss_changes":[3.5889214E1,7.9351177E0,3.1213818E1,6.2036896E0,0E0,9.487593E0,1.3593426E1,0E0,0E0,0E0,0E0,0E0,0E0],"parents":[2147483647,0,0,1,1,2,2,3,3,5,5,6,6],"right_children":[2,4,6,8,-1,10,12,-1,-1,-1,-1,-1,-1],"split_conditions":[-1.5878985E-3,-4.183008E-3,-2.0052185E-2,-9.565893E-2,7.7892225E-3,3.0731212E-2,-4.688837E-2,4.300204E-3,-3.873334E-2,1.1598908E-2,-3.4603503E-2,-1.4293565E-2,3.353664E-2],"split_indices":[1885,158,218,1460,0,798,2073,0,0,0,0,0,0],"split_type":[0,0,0,0,0,0,0,0,0,0,0,0,0],"sum_hessian":[7.3617615E1,2.4714247E1,4.890337E1,2.2457706E1,2.256541E0,1.2970853E1,3.5932514E1,1.4198191E0,2.1037888E1,2.8340733E0,1.013678E1,3.6235347E0,3.230898E1],"tree_param":{"num_deleted":"0","num_feature":"2336","num_nodes":"13","size_leaf_vector":"1"}},{"base_weights":[7.8563415E-2,5.7089406E-1,-8.873391E-1,9.8263985E-1,-4.3359172E-1,3.645729E-1,-1.1970354E0,3.6362477E-2,-1.9409455E-2,1.9921511E-2,-2.9686324E-2,-0E0,1.6363902E-2,-0E0,-3.811303E-2],"categories":[],"categories_nodes":[],"categories_segments":[],"categories_sizes":[],"default_left":[0,0,0,0,0,0,0,0,0,0,0,0,0,0,0],"id":20,"left_children":[1,3,5,7,9,11,13,-1,-1,-1,-1,-1,-1,-1,-1],"loss_changes":[3.7062664E1,2.3524057E1,1.2201969E1,1.7437256E1,1.2443291E1,6.930586E-1,2.3878555E0,0E0,0E0,0E0,0E0,0E0,0E0,0E0,0E0],"parents":[2147483647,0,0,1,1,2,2,3,3,4,4,5,5,6,6],"right_children":[2,4,6,8,10,12,14,-1,-1,-1,-1,-1,-1,-1,-1],"split_conditions":[2.5259532E-2,5.4476637E-2,-6.622676E-2,4.722781E-2,-7.438137E-2,-2.788449E-4,1.2036858E-2,3.6362477E-2,-1.9409455E-2,1.9921511E-2,-2.9686324E-2,-0E0,1.6363902E-2,-0E0,-3.811303E-2],"split_indices":[2123,208,1993,180,2098,139,1107,0,0,0,0,0,0,0,0],"split_type":[0,0,0,0,0,0,0,0,0,0,0,0,0,0,0],"sum_hessian":[7.240716E1,4.9459362E1,2.2947796E1,3.583225E1,1.3627112E1,3.805191E0,1.9142605E1,3.2621582E1,3.2106657E0,3.7806923E0,9.84642E0,1.4357896E0,2.3694015E0,1.0051953E0,1.813741E1],"tree_param":{"num_deleted":"0","num_feature":"2336","num_nodes":"15","size_leaf_vector":"1"}},{"base_weights":[3.1703424E-2,5.158044E-1,-9.084848E-1,-7.171882E-1,8.547114E-1,1.2713004E-2,-1.2030177E0,1.0006116E-2,-3.1657647E-2,3.2671906E-2,-1.0522888E-2,-0E0,-3.801736E-2],"categories":[],"categories_nodes":[],"categories_segments":[],"categories_sizes":[],"default_left":[0,0,0,0,0,0,0,0,0,0,0,0,0],"id":21,"left_children":[1,3,5,7,9,-1,11,-1,-1,-1,-1,-1,-1],"loss_changes":[3.7111473E1,2.494682E1,1.3037239E1,6.340997E0,1.4631878E1,0E0,2.16811E0,0E0,0E0,0E0,0E0,0E0,0E0],"parents":[2147483647,0,0,1,1,2,2,3,3,4,4,6,6],"right_children":[2,4,6,8,10,-1,12,-1,-1,-1,-1,-1,-1],"split_conditions":[2.5259532E-2,-1.6324464E-2,3.3053574E-1,-3.8651317E-2,1.06891625E-1,1.2713004E-2,2.7451644E-2,1.0006116E-2,-3.1657647E-2,3.2671906E-2,-1.0522888E-2,-0E0,-3.801736E-2],"split_indices":[2123,125,415,175,980,0,675,0,0,0,0,0,0],"split_type":[0,0,0,0,0,0,0,0,0,0,0,0,0],"sum_hessian":[7.631158E1,5.1970062E1,2.4341516E1,9.846796E0,4.212327E1,3.554052E0,2.0787464E1,1.686691E0,8.160105E0,3.620419E1,5.9190784E0,1.0000457E0,1.9787418E1],"tree_param":{"num_deleted":"0","num_feature":"2336","num_nodes":"13","size_leaf_vector":"1"}},{"base_weights":[-0E0,6.645822E-1,-6.8857825E-1,9.3520004E-1,-2.3435017E-2,-1.1049452E0,3.9298934E-1,3.3638794E-2,-1.1287775E-2,1.9479602E-3,-3.8613874E-2,2.9832913E-2,-1.6758593E-2],"categories":[],"categories_nodes":[],"categories_segments":[],"categories_sizes":[],"default_left":[0,0,0,0,0,0,0,0,0,0,0,0,0],"id":22,"left_children":[1,3,5,7,-1,9,11,-1,-1,-1,-1,-1,-1],"loss_changes":[3.503466E1,1.7862589E1,1.8652832E1,1.0639261E1,0E0,7.468704E0,8.864546E0,0E0,0E0,0E0,0E0,0E0,0E0],"parents":[2147483647,0,0,1,1,2,2,3,3,5,5,6,6],"right_children":[2,4,6,8,-1,10,12,-1,-1,-1,-1,-1,-1],"split_conditions":[-1.06019385E-1,6.0750484E-2,5.0696544E-2,4.537622E-2,-2.3435017E-2,-3.3855084E-2,9.222537E-3,3.3638794E-2,-1.1287775E-2,1.9479602E-3,-3.8613874E-2,2.9832913E-2,-1.6758593E-2],"split_indices":[1573,2212,334,508,0,177,38,0,0,0,0,0,0],"split_type":[0,0,0,0,0,0,0,0,0,0,0,0,0],"sum_hessian":[7.060701E1,3.6660286E1,3.394672E1,3.2355103E1,4.3051853E0,2.5131632E1,8.815089E0,2.9383211E1,2.9718914E0,2.9069233E0,2.2224709E1,5.962496E0,2.852593E0],"tree_param":{"num_deleted":"0","num_feature":"2336","num_nodes":"13","size_leaf_vector":"1"}},{"base_weights":[-0E0,4.756102E-1,-8.697265E-1,-7.928608E-1,7.581491E-1,3.9041018E-1,-3.6687277E-2,-0E0,-2.7654637E-2,-9.4524175E-3,2.9660717E-2,-4.6863714E-3,2.1318806E-2],"categories":[],"categories_nodes":[],"categories_segments":[],"categories_sizes":[],"default_left":[0,0,0,0,0,0,0,0,0,0,0,0,0],"id":23,"left_children":[1,3,5,7,9,11,-1,-1,-1,-1,-1,-1,-1],"loss_changes":[3.1487846E1,1.930936E1,1.4277433E1,1.2991796E0,1.2050823E1,2.211249E0,0E0,0E0,0E0,0E0,0E0,0E0,0E0],"parents":[2147483647,0,0,1,1,2,2,3,3,4,4,5,5],"right_children":[2,4,6,8,10,12,-1,-1,-1,-1,-1,-1,-1],"split_conditions":[2.3278303E-2,-1.6808519E-3,3.3053574E-1,1.8370591E-2,-1.7335502E-2,-3.245554E-2,-3.6687277E-2,-0E0,-2.7654637E-2,-9.4524175E-3,2.9660717E-2,-4.6863714E-3,2.1318806E-2],"split_indices":[2123,2254,415,1080,125,9,0,0,0,0,0,0,0],"split_type":[0,0,0,0,0,0,0,0,0,0,0,0,0],"sum_hessian":[6.9933975E1,4.5942875E1,2.39911E1,6.7373414E0,3.9205532E1,4.5629926E0,1.9428108E1,1.004997E0,5.7323446E0,5.971051E0,3.323448E1,1.0995804E0,3.4634123E0],"tree_param":{"num_deleted":"0","num_feature":"2336","num_nodes":"13","size_leaf_vector":"1"}},{"base_weights":[7.738055E-2,8.572659E-1,-5.609951E-1,-9.821109E-2,1.2533408E0,-1.227873E0,3.3546516E-1,2.1115959E-2,-2.559433E-2,-0E0,3.934385E-2,-0E0,-3.8589574E-2,-2.176054E-2,2.8470634E-2],"categories":[],"categories_nodes":[],"categories_segments":[],"categories_sizes":[],"default_left":[0,0,0,0,0,0,0,0,0,0,0,0,0,0,0],"id":24,"left_children":[1,3,5,7,9,11,13,-1,-1,-1,-1,-1,-1,-1,-1],"loss_changes":[4.0450058E1,1.5485113E1,2.8351778E1,9.733344E0,1.8457108E0,2.2264519E0,1.5584848E1,0E0,0E0,0E0,0E0,0E0,0E0,0E0,0E0],"parents":[2147483647,0,0,1,1,2,2,3,3,4,4,5,5,6,6],"right_children":[2,4,6,8,10,12,14,-1,-1,-1,-1,-1,-1,-1,-1],"split_conditions":[-3.0049661E-2,7.825079E-3,1.3523119E-2,5.2437477E-2,-1.50072705E-2,2.7784346E-2,-9.895346E-3,2.1115959E-2,-2.559433E-2,-0E0,3.934385E-2,-0E0,-3.8589574E-2,-2.176054E-2,2.8470634E-2],"split_indices":[216,403,1942,1032,8,1225,252,0,0,0,0,0,0,0,0],"split_type":[0,0,0,0,0,0,0,0,0,0,0,0,0,0,0],"sum_hessian":[7.475486E1,3.3890102E1,4.0864758E1,9.852829E0,2.4037273E1,2.343664E1,1.7428118E1,4.2333922E0,5.6194367E0,1.2702197E0,2.2767054E1,1.0022117E0,2.243443E1,5.5888042E0,1.1839313E1],"tree_param":{"num_deleted":"0","num_feature":"2336","num_nodes":"15","size_leaf_vector":"1"}},{"base_weights":[-1.7702801E-2,5.3549504E-1,-7.2663355E-1,9.7878766E-1,-2.8060272E-1,-1.1041121E0,4.3026853E-1,3.5144687E-2,-1.4277625E-2,1.5625032E-2,-3.0813148E-2,-3.638833E-2,5.549301E-3,2.603624E-2,-1.1535233E-2],"categories":[],"categories_nodes":[],"categories_segments":[],"categories_sizes":[],"default_left":[0,0,0,0,0,0,0,0,0,0,0,0,0,0,0],"id":25,"left_children":[1,3,5,7,9,11,13,-1,-1,-1,-1,-1,-1,-1,-1],"loss_changes":[3.2106133E1,1.779199E1,1.8007896E1,1.0947628E1,1.2501689E1,5.7640114E0,5.2172527E0,0E0,0E0,0E0,0E0,0E0,0E0,0E0,0E0],"parents":[2147483647,0,0,1,1,2,2,3,3,4,4,5,5,6,6],"right_children":[2,4,6,8,10,12,14,-1,-1,-1,-1,-1,-1,-1,-1],"split_conditions":[1.8877808E-2,-9.1029294E-2,1.4671532E-2,4.8905667E-2,-5.4581072E-2,-1.48851685E-2,-1.809048E-2,3.5144687E-2,-1.4277625E-2,1.5625032E-2,-3.0813148E-2,-3.638833E-2,5.549301E-3,2.603624E-2,-1.1535233E-2],"split_indices":[2123,1506,403,518,191,1656,1972,0,0,0,0,0,0,0,0],"split_type":[0,0,0,0,0,0,0,0,0,0,0,0,0,0,0],"sum_hessian":[7.5402145E1,4.1972904E1,3.3429237E1,2.7605358E1,1.4367547E1,2.596013E1,7.4691067E0,2.5499054E1,2.1063058E0,6.7201667E0,7.6473804E0,2.4817816E1,1.1423135E0,5.5305433E0,1.9385631E0],"tree_param":{"num_deleted":"0","num_feature":"2336","num_nodes":"15","size_leaf_vector":"1"}},{"base_weights":[-0E0,6.771291E-1,-5.789551E-1,-3.2006687E-1,1.1574605E0,-3.7984144E-2,3.1833497E-1,2.0568948E-2,-2.8562732E-2,3.764648E-2,-0E0,2.8463677E-2,-2.4957307E-2],"categories":[],"categories_nodes":[],"categories_segments":[],"categories_sizes":[],"default_left":[0,0,0,0,0,0,0,0,0,0,0,0,0],"id":26,"left_children":[1,3,5,7,9,-1,11,-1,-1,-1,-1,-1,-1],"loss_changes":[3.1155186E1,1.976337E1,2.809916E1,1.09737215E1,3.9733658E0,0E0,1.6997793E1,0E0,0E0,0E0,0E0,0E0,0E0],"parents":[2147483647,0,0,1,1,2,2,3,3,4,4,6,6],"right_children":[2,4,6,8,10,-1,12,-1,-1,-1,-1,-1,-1],"split_conditions":[-3.0049661E-2,7.2901575E-3,1.5595585E-2,-3.910047E-2,1.3186E-1,-3.7984144E-2,5.504444E-3,2.0568948E-2,-2.8562732E-2,3.764648E-2,-0E0,2.8463677E-2,-2.4957307E-2],"split_indices":[216,403,1942,2063,988,0,227,0,0,0,0,0,0],"split_type":[0,0,0,0,0,0,0,0,0,0,0,0,0],"sum_hessian":[7.326517E1,3.419239E1,3.9072777E1,1.076425E1,2.342814E1,2.2059742E1,1.7013035E1,3.4452991E0,7.31895E0,2.2007162E1,1.4209802E0,1.1890569E1,5.122466E0],"tree_param":{"num_deleted":"0","num_feature":"2336","num_nodes":"13","size_leaf_vector":"1"}},{"base_weights":[2.3417943E-3,8.466518E-1,-4.4033605E-1,1.1174483E0,-5.3943496E-2,3.4809092E-1,-9.2890686E-1,-0E0,3.605983E-2,-1.740606E-2,1.2785187E-2,2.6806979E-2,-1.9192426E-2,-0E0,-3.637227E-2],"categories":[],"categories_nodes":[],"categories_segments":[],"categories_sizes":[],"default_left":[0,0,0,0,0,0,0,0,0,0,0,0,0,0,0],"id":27,"left_children":[1,3,5,7,9,11,13,-1,-1,-1,-1,-1,-1,-1,-1],"loss_changes":[2.9707378E1,8.009411E0,2.106673E1,2.3918228E0,3.0234866E0,1.3167448E1,9.63615E0,0E0,0E0,0E0,0E0,0E0,0E0,0E0,0E0],"parents":[2147483647,0,0,1,1,2,2,3,3,4,4,5,5,6,6],"right_children":[2,4,6,8,10,12,14,-1,-1,-1,-1,-1,-1,-1,-1],"split_conditions":[-2.7877921E-2,6.960443E-3,-1.07856244E-1,-5.3106442E-2,1.12055605E-2,2.0889262E-2,-2.5562357E-2,-0E0,3.605983E-2,-1.740606E-2,1.2785187E-2,2.6806979E-2,-1.9192426E-2,-0E0,-3.637227E-2],"split_indices":[328,2261,1506,2079,89,2123,2161,0,0,0,0,0,0,0,0],"split_type":[0,0,0,0,0,0,0,0,0,0,0,0,0,0,0],"sum_hessian":[7.240354E1,2.4739567E1,4.766398E1,1.931871E1,5.420857E0,1.7782856E1,2.9881123E1,1.373815E0,1.7944895E1,3.2814667E0,2.1393902E0,1.229325E1,5.4896054E0,7.024065E0,2.2857056E1],"tree_param":{"num_deleted":"0","num_feature":"2336","num_nodes":"15","size_leaf_vector":"1"}},{"base_weights":[3.968337E-2,6.927392E-1,-5.482754E-1,-1.3435063E-1,1.110305E0,2.0377548E-1,-1.147683E0,2.0305322E-2,-2.3462944E-2,-0E0,3.67618E-2,2.4157502E-2,-1.4559999E-2,-3.649388E-2,-0E0],"categories":[],"categories_nodes":[],"categories_segments":[],"categories_sizes":[],"default_left":[0,0,0,0,0,0,0,0,0,0,0,0,0,0,0],"id":28,"left_children":[1,3,5,7,9,11,13,-1,-1,-1,-1,-1,-1,-1,-1],"loss_changes":[2.8887012E1,1.3922237E1,1.9090282E1,9.057001E0,4.4036503E0,9.355728E0,2.213295E0,0E0,0E0,0E0,0E0,0E0,0E0,0E0,0E0],"parents":[2147483647,0,0,1,1,2,2,3,3,4,4,5,5,6,6],"right_children":[2,4,6,8,10,12,14,-1,-1,-1,-1,-1,-1,-1,-1],"split_conditions":[-2.886664E-2,7.825079E-3,-6.499747E-2,-3.9137863E-2,-6.2631905E-2,-2.985111E-3,1.7512485E-1,2.0305322E-2,-2.3462944E-2,-0E0,3.67618E-2,2.4157502E-2,-1.4559999E-2,-3.649388E-2,-0E0],"split_indices":[216,403,176,2063,2225,2261,1063,0,0,0,0,0,0,0,0],"split_type":[0,0,0,0,0,0,0,0,0,0,0,0,0,0,0],"sum_hessian":[6.888874E1,3.3190098E1,3.569864E1,1.1014047E1,2.2176052E1,1.5971581E1,1.9727057E1,4.144805E0,6.869241E0,1.574312E0,2.0601742E1,9.032918E0,6.9386635E0,1.8725393E1,1.001663E0],"tree_param":{"num_deleted":"0","num_feature":"2336","num_nodes":"15","size_leaf_vector":"1"}},{"base_weights":[7.319367E-2,7.3883146E-1,-4.7083694E-1,1.0950831E0,-1.8019503E-1,-1.0525569E0,3.497109E-1,-6.6286772E-3,3.6781725E-2,1.8782133E-2,-2.5312215E-2,-3.6423255E-2,5.608171E-3,-2.0275902E-2,2.808198E-2],"categories":[],"categories_nodes":[],"categories_segments":[],"categories_sizes":[],"default_left":[0,0,0,0,0,0,0,0,0,0,0,0,0,0,0],"id":29,"left_children":[1,3,5,7,9,11,13,-1,-1,-1,-1,-1,-1,-1,-1],"loss_changes":[3.0006285E1,1.382745E1,2.30999E1,6.700428E0,8.385107E0,7.2275715E0,1.4211673E1,0E0,0E0,0E0,0E0,0E0,0E0,0E0,0E0],"parents":[2147483647,0,0,1,1,2,2,3,3,4,4,5,5,6,6],"right_children":[2,4,6,8,10,12,14,-1,-1,-1,-1,-1,-1,-1,-1],"split_conditions":[-3.0896382E-2,1.0009611E-2,1.5595585E-2,-3.8262088E-2,-7.997363E-4,5.6198567E-2,-1.5424258E-2,-6.6286772E-3,3.6781725E-2,1.8782133E-2,-2.5312215E-2,-3.6423255E-2,5.608171E-3,-2.0275902E-2,2.808198E-2],"split_indices":[216,251,1942,1885,31,602,192,0,0,0,0,0,0,0,0],"split_type":[0,0,0,0,0,0,0,0,0,0,0,0,0,0,0],"sum_hessian":[7.623921E1,3.463103E1,4.160818E1,2.5326761E1,9.304268E0,2.4564121E1,1.704406E1,1.4147872E0,2.3911974E1,3.596535E0,5.7077336E0,2.2499802E1,2.0643191E0,5.412983E0,1.1631076E1],"tree_param":{"num_deleted":"0","num_feature":"2336","num_nodes":"15","size_leaf_vector":"1"}},{"base_weights":[-0E0,-5.94733E-1,5.8740556E-1,2.9886538E-1,-3.623506E-2,-5.4718643E-1,1.0229539E0,2.4852207E-2,-2.0725986E-2,5.353631E-3,-2.7427832E-2,3.448386E-2,-7.839552E-3],"categories":[],"categories_nodes":[],"categories_segments":[],"categories_sizes":[],"default_left":[0,0,0,0,0,0,0,0,0,0,0,0,0],"id":30,"left_children":[1,3,5,7,-1,9,11,-1,-1,-1,-1,-1,-1],"loss_changes":[2.7730082E1,2.3496754E1,2.198564E1,1.1138216E1,0E0,4.5413046E0,6.7738686E0,0E0,0E0,0E0,0E0,0E0,0E0],"parents":[2147483647,0,0,1,1,2,2,3,3,5,5,6,6],"right_children":[2,4,6,8,-1,10,12,-1,-1,-1,-1,-1,-1],"split_conditions":[1.0103203E-2,-3.2116394E-2,-2.2136746E-2,1.8471429E-1,-3.623506E-2,4.5927506E-2,2.38422E-2,2.4852207E-2,-2.0725986E-2,5.353631E-3,-2.7427832E-2,3.448386E-2,-7.839552E-3],"split_indices":[1942,216,192,414,0,380,132,0,0,0,0,0,0],"split_type":[0,0,0,0,0,0,0,0,0,0,0,0,0],"sum_hessian":[7.338112E1,3.6251923E1,3.7129196E1,1.4713505E1,2.1538418E1,9.449248E0,2.7679947E1,1.0561889E1,4.1516156E0,2.7769723E0,6.672276E0,2.6193316E1,1.4866303E0],"tree_param":{"num_deleted":"0","num_feature":"2336","num_nodes":"13","size_leaf_vector":"1"}},{"base_weights":[-7.366506E-2,4.6458924E-1,-8.285664E-1,7.519283E-1,-6.084485E-1,3.3516097E-1,-1.1587249E0,-8.361171E-3,3.0859083E-2,1.0396619E-3,-2.4641396E-2,-7.43202E-3,2.0863198E-2,-3.6258325E-2,-0E0],"categories":[],"categories_nodes":[],"categories_segments":[],"categories_sizes":[],"default_left":[0,0,0,0,0,0,0,0,0,0,0,0,0,0,0],"id":31,"left_children":[1,3,5,7,9,11,13,-1,-1,-1,-1,-1,-1,-1,-1],"loss_changes":[3.0278755E1,1.4609951E1,1.4019196E1,1.17553425E1,2.226865E0,2.7659192E0,1.5158424E0,0E0,0E0,0E0,0E0,0E0,0E0,0E0,0E0],"parents":[2147483647,0,0,1,1,2,2,3,3,4,4,5,5,6,6],"right_children":[2,4,6,8,10,12,14,-1,-1,-1,-1,-1,-1,-1,-1],"split_conditions":[-2.1304179E-2,3.8776945E-2,-1.9756984E-2,9.637409E-2,3.5242107E-2,3.6598414E-2,6.598713E-2,-8.361171E-3,3.0859083E-2,1.0396619E-3,-2.4641396E-2,-7.43202E-3,2.0863198E-2,-3.6258325E-2,-0E0],"split_indices":[175,180,26,951,707,492,147,0,0,0,0,0,0,0,0],"split_type":[0,0,0,0,0,0,0,0,0,0,0,0,0,0,0],"sum_hessian":[6.7779976E1,3.946789E1,2.831208E1,3.25747E1,6.8931932E0,5.5777135E0,2.2734367E1,6.1251597E0,2.6449541E1,1.1712197E0,5.7219734E0,1.4283342E0,4.1493793E0,2.1691536E1,1.0428321E0],"tree_param":{"num_deleted":"0","num_feature":"2336","num_nodes":"15","size_leaf_vector":"1"}},{"base_weights":[-5.532778E-2,-7.26089E-1,5.717472E-1,9.1089904E-2,-3.5332408E-2,-3.7208813E-1,8.9713806E-1,-1.1627062E-2,2.3301562E-2,1.1979982E-2,-2.4676153E-2,3.28733E-2,-9.176785E-3],"categories":[],"categories_nodes":[],"categories_segments":[],"categories_sizes":[],"default_left":[0,0,0,0,0,0,0,0,0,0,0,0,0],"id":32,"left_children":[1,3,5,7,-1,9,11,-1,-1,-1,-1,-1,-1],"loss_changes":[3.0103863E1,1.4350468E1,1.2637255E1,6.0437675E0,0E0,5.0945783E0,8.62285E0,0E0,0E0,0E0,0E0,0E0,0E0],"parents":[2147483647,0,0,1,1,2,2,3,3,5,5,6,6],"right_children":[2,4,6,8,-1,10,12,-1,-1,-1,-1,-1,-1],"split_conditions":[1.0103203E-2,-3.0049661E-2,-2.0340096E-2,2.498699E-2,-3.5332408E-2,-4.5403123E-2,-6.605539E-2,-1.1627062E-2,2.3301562E-2,1.1979982E-2,-2.4676153E-2,3.28733E-2,-9.176785E-3],"split_indices":[1942,216,218,869,0,17,1541,0,0,0,0,0,0],"split_type":[0,0,0,0,0,0,0,0,0,0,0,0,0],"sum_hessian":[6.524276E1,3.2064957E1,3.3177807E1,1.1478307E1,2.0586649E1,7.607521E0,2.5570286E1,6.6684895E0,4.809818E0,2.1116488E0,5.495872E0,2.2889565E1,2.6807199E0],"tree_param":{"num_deleted":"0","num_feature":"2336","num_nodes":"13","size_leaf_vector":"1"}},{"base_weights":[-1.4669566E-2,-5.5675054E-1,6.602078E-1,3.2483417E-1,-9.9515164E-1,9.9561113E-1,-3.8886613E-1,-1.2642099E-2,2.5213988E-2,-3.568288E-2,4.4254106E-3,3.4706686E-2,-8.936466E-3,-2.3371635E-2,8.599313E-3],"categories":[],"categories_nodes":[],"categories_segments":[],"categories_sizes":[],"default_left":[0,0,0,0,0,0,0,0,0,0,0,0,0,0,0],"id":33,"left_children":[1,3,5,7,9,11,13,-1,-1,-1,-1,-1,-1,-1,-1],"loss_changes":[2.6470339E1,1.7509254E1,1.2874414E1,7.307682E0,7.988081E0,7.2087727E0,3.5560806E0,0E0,0E0,0E0,0E0,0E0,0E0,0E0,0E0],"parents":[2147483647,0,0,1,1,2,2,3,3,4,4,5,5,6,6],"right_children":[2,4,6,8,10,12,14,-1,-1,-1,-1,-1,-1,-1,-1],"split_conditions":[1.1947947E-2,1.1148324E-3,-7.235516E-3,-1.3549935E-2,9.945198E-2,4.0389173E-2,-1.1116051E-3,-1.2642099E-2,2.5213988E-2,-3.568288E-2,4.4254106E-3,3.4706686E-2,-8.936466E-3,-2.3371635E-2,8.599313E-3],"split_indices":[403,21,24,1896,1153,180,43,0,0,0,0,0,0,0,0],"split_type":[0,0,0,0,0,0,0,0,0,0,0,0,0,0,0],"sum_hessian":[6.662391E1,3.805993E1,2.8563978E1,1.2141205E1,2.5918726E1,2.2482214E1,6.0817647E0,4.3927536E0,7.748451E0,2.2795391E1,3.1233358E0,2.095889E1,1.5233217E0,4.501892E0,1.5798727E0],"tree_param":{"num_deleted":"0","num_feature":"2336","num_nodes":"15","size_leaf_vector":"1"}},{"base_weights":[4.2358126E-2,-4.502572E-1,7.182978E-1,3.2667652E-1,-9.099318E-1,9.262197E-1,-1.577332E-2,-1.47126075E-2,2.5760924E-2,7.612294E-3,-3.4022897E-2,-5.790073E-3,3.255289E-2],"categories":[],"categories_nodes":[],"categories_segments":[],"categories_sizes":[],"default_left":[0,0,0,0,0,0,0,0,0,0,0,0,0],"id":34,"left_children":[1,3,5,7,9,11,-1,-1,-1,-1,-1,-1,-1],"loss_changes":[2.5297764E1,1.6754662E1,1.0260847E1,9.153254E0,9.1731415E0,6.783224E0,0E0,0E0,0E0,0E0,0E0,0E0,0E0],"parents":[2147483647,0,0,1,1,2,2,3,3,4,4,5,5],"right_children":[2,4,6,8,10,12,-1,-1,-1,-1,-1,-1,-1],"split_conditions":[1.995323E-2,-4.0532902E-2,2.2101324E-2,7.2901575E-3,5.86567E-2,-2.5962364E-2,-1.577332E-2,-1.47126075E-2,2.5760924E-2,7.612294E-3,-3.4022897E-2,-5.790073E-3,3.255289E-2],"split_indices":[1942,2070,1966,403,982,2156,0,0,0,0,0,0,0],"split_type":[0,0,0,0,0,0,0,0,0,0,0,0,0],"sum_hessian":[6.925537E1,3.978375E1,2.947162E1,1.43024845E1,2.5481262E1,2.6596802E1,2.8748188E0,4.9914274E0,9.311057E0,3.3312685E0,2.2149994E1,2.4436555E0,2.4153145E1],"tree_param":{"num_deleted":"0","num_feature":"2336","num_nodes":"13","size_leaf_vector":"1"}},{"base_weights":[8.700754E-2,-7.008065E-1,5.317242E-1,2.9483598E-1,-9.679603E-1,8.585903E-1,-3.0382767E-1,-0E0,1.4269319E-2,-3.2938268E-2,6.54414E-4,-7.3757763E-3,3.0386984E-2,-2.7010614E-2,1.417402E-2],"categories":[],"categories_nodes":[],"categories_segments":[],"categories_sizes":[],"default_left":[0,0,0,0,0,0,0,0,0,0,0,0,0,0,0],"id":35,"left_children":[1,3,5,7,9,11,13,-1,-1,-1,-1,-1,-1,-1,-1],"loss_changes":[2.451842E1,8.114208E0,1.3768761E1,6.071087E-1,3.8511372E0,7.370426E0,8.2588825E0,0E0,0E0,0E0,0E0,0E0,0E0,0E0,0E0],"parents":[2147483647,0,0,1,1,2,2,3,3,4,4,5,5,6,6],"right_children":[2,4,6,8,10,12,14,-1,-1,-1,-1,-1,-1,-1,-1],"split_conditions":[-3.0758446E-3,-1.0927325E-2,-8.068865E-3,2.6904551E-2,5.7289742E-2,-1.099632E-2,-6.876701E-2,-0E0,1.4269319E-2,-3.2938268E-2,6.54414E-4,-7.3757763E-3,3.0386984E-2,-2.7010614E-2,1.417402E-2],"split_indices":[1885,62,26,78,772,7,1616,0,0,0,0,0,0,0,0],"split_type":[0,0,0,0,0,0,0,0,0,0,0,0,0,0,0],"sum_hessian":[6.427365E1,2.1756289E1,4.251736E1,3.7450454E0,1.8011244E1,3.136251E1,1.1154851E1,1.4698575E0,2.275188E0,1.6523739E1,1.4875052E0,2.8320568E0,2.8530453E1,6.765104E0,4.3897467E0],"tree_param":{"num_deleted":"0","num_feature":"2336","num_nodes":"15","size_leaf_vector":"1"}},{"base_weights":[-3.697305E-2,5.1591444E-1,-5.7725906E-1,-4.155849E-1,1.01968E0,-3.414857E-2,2.1734364E-1,1.0776131E-2,-2.6378702E-2,-0E0,3.362858E-2,2.3640804E-2,-2.1256825E-2],"categories":[],"categories_nodes":[],"categories_segments":[],"categories_sizes":[],"default_left":[0,0,0,0,0,0,0,0,0,0,0,0,0],"id":36,"left_children":[1,3,5,7,9,-1,11,-1,-1,-1,-1,-1,-1],"loss_changes":[2.0635113E1,1.7469296E1,1.7556427E1,6.173538E0,3.3090248E0,0E0,1.0492043E1,0E0,0E0,0E0,0E0,0E0,0E0],"parents":[2147483647,0,0,1,1,2,2,3,3,4,4,6,6],"right_children":[2,4,6,8,10,-1,12,-1,-1,-1,-1,-1,-1],"split_conditions":[-2.8336223E-2,7.882222E-3,1.9339528E-2,5.2500486E-2,-1.9028706E-2,-3.414857E-2,1.2492856E-2,1.0776131E-2,-2.6378702E-2,-0E0,3.362858E-2,2.3640804E-2,-2.1256825E-2],"split_indices":[216,403,1942,1054,251,0,2086,0,0,0,0,0,0],"split_type":[0,0,0,0,0,0,0,0,0,0,0,0,0],"sum_hessian":[6.2882732E1,3.0231043E1,3.265169E1,1.0098414E1,2.0132627E1,1.9115896E1,1.3535793E1,3.2266514E0,6.871763E0,1.3575765E0,1.8775051E1,9.318856E0,4.2169375E0],"tree_param":{"num_deleted":"0","num_feature":"2336","num_nodes":"13","size_leaf_vector":"1"}},{"base_weights":[-2.0314742E-2,4.8746756E-1,-6.626826E-1,8.548979E-1,-2.890219E-1,5.133578E-1,-9.933007E-1,3.1536996E-2,-4.968469E-4,-2.3293624E-2,1.0330995E-2,-0E0,2.0675087E-2,-3.4349516E-2,1.6838103E-3],"categories":[],"categories_nodes":[],"categories_segments":[],"categories_sizes":[],"default_left":[0,0,0,0,0,0,0,0,0,0,0,0,0,0,0],"id":37,"left_children":[1,3,5,7,9,11,13,-1,-1,-1,-1,-1,-1,-1,-1],"loss_changes":[2.2784666E1,1.212387E1,1.4230855E1,5.769396E0,5.4162083E0,1.0745659E0,5.455372E0,0E0,0E0,0E0,0E0,0E0,0E0,0E0,0E0],"parents":[2147483647,0,0,1,1,2,2,3,3,4,4,5,5,6,6],"right_children":[2,4,6,8,10,12,14,-1,-1,-1,-1,-1,-1,-1,-1],"split_conditions":[-1.06019385E-1,-1.0956234E-2,-4.823417E-2,1.9846607E-2,5.1897123E-2,-1.4095216E-2,1.3805899E-1,3.1536996E-2,-4.968469E-4,-2.3293624E-2,1.0330995E-2,-0E0,2.0675087E-2,-3.4349516E-2,1.6838103E-3],"split_indices":[1573,1972,17,1946,547,7,1050,0,0,0,0,0,0,0,0],"split_type":[0,0,0,0,0,0,0,0,0,0,0,0,0,0,0],"sum_hessian":[6.3344173E1,3.4912796E1,2.8431374E1,2.4367262E1,1.0545536E1,5.211339E0,2.3220036E1,2.0318285E1,4.048977E0,6.468673E0,4.0768623E0,1.3926871E0,3.818652E0,2.0881567E1,2.338468E0],"tree_param":{"num_deleted":"0","num_feature":"2336","num_nodes":"15","size_leaf_vector":"1"}},{"base_weights":[-4.3018238E-4,-8.1580895E-1,4.3073452E-1,-1.0551766E0,1.0601939E-2,-5.6742823E-1,7.61734E-1,-0E0,-3.350549E-2,-2.7873239E-2,1.1000179E-2,2.9859101E-2,-1.3734702E-2],"categories":[],"categories_nodes":[],"categories_segments":[],"categories_sizes":[],"default_left":[0,0,0,0,0,0,0,0,0,0,0,0,0],"id":38,"left_children":[1,3,5,7,-1,9,11,-1,-1,-1,-1,-1,-1],"loss_changes":[2.6931723E1,9.354538E0,1.754538E1,1.8665066E0,0E0,5.999343E0,1.2878191E1,0E0,0E0,0E0,0E0,0E0,0E0],"parents":[2147483647,0,0,1,1,2,2,3,3,5,5,6,6],"right_children":[2,4,6,8,-1,10,12,-1,-1,-1,-1,-1,-1],"split_conditions":[-1.5878985E-3,5.9623834E-2,-2.0052185E-2,2.5676461E-2,1.0601939E-2,5.7631183E-2,5.3364236E-2,-0E0,-3.350549E-2,-2.7873239E-2,1.1000179E-2,2.9859101E-2,-1.3734702E-2],"split_indices":[1885,672,218,1092,0,561,208,0,0,0,0,0,0],"split_type":[0,0,0,0,0,0,0,0,0,0,0,0,0],"sum_hessian":[6.951188E1,2.3919851E1,4.5592026E1,2.0807806E1,3.112045E0,1.0067735E1,3.5524292E1,1.0603914E0,1.9747414E1,8.040913E0,2.0268219E0,3.0965416E1,4.558875E0],"tree_param":{"num_deleted":"0","num_feature":"2336","num_nodes":"13","size_leaf_vector":"1"}},{"base_weights":[-1.5959501E-2,-7.323907E-1,4.630689E-1,2.2335657E-1,-9.989493E-1,8.0390435E-1,-3.7662327E-1,1.7564977E-2,-6.178236E-3,3.566753E-4,-3.2892264E-2,-9.251264E-3,3.0242778E-2,1.0268006E-2,-2.5363918E-2],"categories":[],"categories_nodes":[],"categories_segments":[],"categories_sizes":[],"default_left":[0,0,0,0,0,0,0,0,0,0,0,0,0,0,0],"id":39,"left_children":[1,3,5,7,9,11,13,-1,-1,-1,-1,-1,-1,-1,-1],"loss_changes":[2.3133001E1,8.452468E0,1.2540254E1,1.9278402E0,3.3770676E0,8.366531E0,5.584067E0,0E0,0E0,0E0,0E0,0E0,0E0,0E0,0E0],"parents":[2147483647,0,0,1,1,2,2,3,3,4,4,5,5,6,6],"right_children":[2,4,6,8,10,12,14,-1,-1,-1,-1,-1,-1,-1,-1],"split_conditions":[3.0870931E-3,-5.619873E-3,5.3364236E-2,-3.0993558E-2,3.6341082E-2,-2.2271184E-2,-3.168579E-2,1.7564977E-2,-6.178236E-3,3.566753E-4,-3.2892264E-2,-9.251264E-3,3.0242778E-2,1.0268006E-2,-2.5363918E-2],"split_indices":[1885,359,208,1950,980,269,277,0,0,0,0,0,0,0,0],"split_type":[0,0,0,0,0,0,0,0,0,0,0,0,0,0,0],"sum_hessian":[6.065623E1,2.4506033E1,3.61502E1,4.632146E0,1.9873886E1,2.6651136E1,9.4990635E0,3.1840243E0,1.4481217E0,1.0769777E0,1.879691E1,3.1366405E0,2.3514496E1,3.2273889E0,6.2716746E0],"tree_param":{"num_deleted":"0","num_feature":"2336","num_nodes":"15","size_leaf_vector":"1"}},{"base_weights":[-0E0,6.226674E-1,-5.5263156E-1,-2.4403778E-1,1.0090872E0,-3.3278216E-2,2.1530107E-1,1.3428457E-2,-2.2627411E-2,-0E0,3.2844804E-2,2.2942662E-2,-2.073366E-2],"categories":[],"categories_nodes":[],"categories_segments":[],"categories_sizes":[],"default_left":[0,0,0,0,0,0,0,0,0,0,0,0,0],"id":40,"left_children":[1,3,5,7,9,-1,11,-1,-1,-1,-1,-1,-1],"loss_changes":[2.3269386E1,1.1916307E1,1.730819E1,5.273542E0,2.6227417E0,0E0,1.02205E1,0E0,0E0,0E0,0E0,0E0,0E0],"parents":[2147483647,0,0,1,1,2,2,3,3,4,4,6,6],"right_children":[2,4,6,8,10,-1,12,-1,-1,-1,-1,-1,-1],"split_conditions":[-3.0138714E-2,7.825079E-3,1.5595585E-2,-3.910047E-2,-8.1458606E-2,-3.3278216E-2,5.504444E-3,1.3428457E-2,-2.2627411E-2,-0E0,3.2844804E-2,2.2942662E-2,-2.073366E-2],"split_indices":[216,403,1942,2063,2118,0,227,0,0,0,0,0,0],"split_type":[0,0,0,0,0,0,0,0,0,0,0,0,0],"sum_hessian":[6.181318E1,2.8090227E1,3.3722954E1,8.2049E0,1.9885326E1,1.9533007E1,1.4189946E1,2.8073084E0,5.3975916E0,1.2560139E0,1.8629313E1,9.813393E0,4.376553E0],"tree_param":{"num_deleted":"0","num_feature":"2336","num_nodes":"13","size_leaf_vector":"1"}},{"base_weights":[-0E0,5.206092E-1,-4.8223835E-1,7.932735E-1,-3.0379915E-1,-9.681937E-1,3.092528E-1,-6.745144E-3,2.8654343E-2,-2.1624677E-2,8.546479E-3,-3.2480855E-2,3.8691487E-3,2.211217E-2,-1.6523106E-2],"categories":[],"categories_nodes":[],"categories_segments":[],"categories_sizes":[],"default_left":[0,0,0,0,0,0,0,0,0,0,0,0,0,0,0],"id":41,"left_children":[1,3,5,7,9,11,13,-1,-1,-1,-1,-1,-1,-1,-1],"loss_changes":[1.7180754E1,8.67924E0,1.5082709E1,5.775419E0,3.3874874E0,4.2993603E0,6.8746743E0,0E0,0E0,0E0,0E0,0E0,0E0,0E0,0E0],"parents":[2147483647,0,0,1,1,2,2,3,3,4,4,5,5,6,6],"right_children":[2,4,6,8,10,12,14,-1,-1,-1,-1,-1,-1,-1,-1],"split_conditions":[-1.081019E-1,-7.851375E-3,2.0132568E-2,3.1038243E-2,4.168693E-3,6.44572E-2,4.095411E-3,-6.745144E-3,2.8654343E-2,-2.1624677E-2,8.546479E-3,-3.2480855E-2,3.8691487E-3,2.211217E-2,-1.6523106E-2],"split_indices":[1573,1907,2112,650,2024,233,126,0,0,0,0,0,0,0,0],"split_type":[0,0,0,0,0,0,0,0,0,0,0,0,0,0,0],"sum_hessian":[6.2382244E1,3.0217175E1,3.216507E1,2.3703714E1,6.5134606E0,2.0296944E1,1.1868126E1,2.244143E0,2.1459572E1,4.4127574E0,2.100703E0,1.9240038E1,1.0569057E0,8.988454E0,2.879672E0],"tree_param":{"num_deleted":"0","num_feature":"2336","num_nodes":"15","size_leaf_vector":"1"}},{"base_weights":[-0E0,-5.2006024E-1,5.1168543E-1,2.6866314E-1,-1.0440841E0,-3.048612E-1,8.438355E-1,2.390275E-2,-8.849179E-3,-0E0,-3.2920048E-2,1.0204203E-2,-2.2927403E-2,-7.928133E-3,2.9330075E-2],"categories":[],"categories_nodes":[],"categories_segments":[],"categories_sizes":[],"default_left":[0,0,0,0,0,0,0,0,0,0,0,0,0,0,0],"id":42,"left_children":[1,3,5,7,9,11,13,-1,-1,-1,-1,-1,-1,-1,-1],"loss_changes":[1.8361431E1,1.602042E1,1.0567408E1,5.831006E0,1.3363914E0,4.5232067E0,5.3336945E0,0E0,0E0,0E0,0E0,0E0,0E0,0E0,0E0],"parents":[2147483647,0,0,1,1,2,2,3,3,4,4,5,5,6,6],"right_children":[2,4,6,8,10,12,14,-1,-1,-1,-1,-1,-1,-1,-1],"split_conditions":[9.571009E-3,-3.841833E-2,-2.2136746E-2,6.714667E-2,7.936886E-2,-9.3644165E-2,-5.140665E-2,2.390275E-2,-8.849179E-3,-0E0,-3.2920048E-2,1.0204203E-2,-2.2927403E-2,-7.928133E-3,2.9330075E-2],"split_indices":[1942,2070,192,1237,1140,1767,291,0,0,0,0,0,0,0,0],"split_type":[0,0,0,0,0,0,0,0,0,0,0,0,0,0,0],"sum_hessian":[6.2979366E1,3.18491E1,3.1130264E1,1.2535369E1,1.9313732E1,8.202153E0,2.292811E1,6.7470965E0,5.788272E0,1.0032853E0,1.8310448E1,2.830247E0,5.3719063E0,1.3505005E0,2.157761E1],"tree_param":{"num_deleted":"0","num_feature":"2336","num_nodes":"15","size_leaf_vector":"1"}},{"base_weights":[-4.7714118E-2,7.1550965E-1,-4.006983E-1,-4.1424176E-3,9.303103E-1,3.1587154E-1,-7.4836385E-1,2.9649898E-2,-0E0,-1.2409968E-2,2.2186406E-2,-3.2064974E-2,1.7809005E-2],"categories":[],"categories_nodes":[],"categories_segments":[],"categories_sizes":[],"default_left":[0,0,0,0,0,0,0,0,0,0,0,0,0],"id":43,"left_children":[1,3,5,-1,7,9,11,-1,-1,-1,-1,-1,-1],"loss_changes":[1.6363955E1,4.6153345E0,1.1845985E1,0E0,8.21085E-1,5.943814E0,1.5607946E1,0E0,0E0,0E0,0E0,0E0,0E0],"parents":[2147483647,0,0,1,1,2,2,4,4,5,5,6,6],"right_children":[2,4,6,-1,8,10,12,-1,-1,-1,-1,-1,-1],"split_conditions":[-2.8784683E-2,-1.6946038E-2,-2.2823209E-2,-4.1424176E-3,1.8743359E-2,-1.2585428E-3,5.4551646E-2,2.9649898E-2,-0E0,-1.2409968E-2,2.2186406E-2,-3.2064974E-2,1.7809005E-2],"split_indices":[328,218,2066,0,1907,2264,1928,0,0,0,0,0,0],"split_type":[0,0,0,0,0,0,0,0,0,0,0,0,0],"sum_hessian":[5.571681E1,1.57493725E1,3.9967434E1,2.445862E0,1.3303511E1,1.2206587E1,2.7760847E1,1.2286102E1,1.0174087E0,3.643439E0,8.5631485E0,2.3503925E1,4.256922E0],"tree_param":{"num_deleted":"0","num_feature":"2336","num_nodes":"13","size_leaf_vector":"1"}},{"base_weights":[-1.3885202E-2,7.5407326E-1,-4.287429E-1,-8.3604595E-3,9.386621E-1,-9.499566E-1,3.49207E-2,-0E0,3.1340487E-2,-3.2957096E-2,2.2985811E-4,-2.2821967E-2,1.3539585E-2],"categories":[],"categories_nodes":[],"categories_segments":[],"categories_sizes":[],"default_left":[0,0,0,0,0,0,0,0,0,0,0,0,0],"id":44,"left_children":[1,3,5,-1,7,9,11,-1,-1,-1,-1,-1,-1],"loss_changes":[2.0471586E1,5.651947E0,1.1445793E1,0E0,2.7198086E0,4.1677303E0,8.910924E0,0E0,0E0,0E0,0E0,0E0,0E0],"parents":[2147483647,0,0,1,1,2,2,4,4,5,5,6,6],"right_children":[2,4,6,-1,8,10,12,-1,-1,-1,-1,-1,-1],"split_conditions":[-2.5894238E-2,-3.4931E-2,3.0622294E-2,-8.3604595E-3,-9.714552E-2,3.1862088E-2,1.4354847E-4,-0E0,3.1340487E-2,-3.2957096E-2,2.2985811E-4,-2.2821967E-2,1.3539585E-2],"split_indices":[328,165,327,0,1523,56,2085,0,0,0,0,0,0],"split_type":[0,0,0,0,0,0,0,0,0,0,0,0,0],"sum_hessian":[5.923294E1,1.90694E1,4.016354E1,1.8381983E0,1.7231201E1,1.844239E1,2.1721148E1,1.4058832E0,1.5825318E1,1.6486528E1,1.9558629E0,5.7849507E0,1.5936197E1],"tree_param":{"num_deleted":"0","num_feature":"2336","num_nodes":"13","size_leaf_vector":"1"}},{"base_weights":[6.148884E-2,5.282871E-1,-5.0393623E-1,-3.9352933E-1,7.646574E-1,3.4098834E-1,-8.8585526E-1,-2.1333119E-2,6.0702055E-3,2.9319309E-2,-2.613501E-3,-1.0443642E-2,2.2099463E-2,-3.1903636E-2,4.872385E-3],"categories":[],"categories_nodes":[],"categories_segments":[],"categories_sizes":[],"default_left":[0,0,0,0,0,0,0,0,0,0,0,0,0,0,0],"id":45,"left_children":[1,3,5,7,9,11,13,-1,-1,-1,-1,-1,-1,-1,-1],"loss_changes":[1.8499386E1,9.797409E0,1.1407028E1,2.6625912E0,7.1261883E0,4.1449423E0,5.681999E0,0E0,0E0,0E0,0E0,0E0,0E0,0E0,0E0],"parents":[2147483647,0,0,1,1,2,2,3,3,4,4,5,5,6,6],"right_children":[2,4,6,8,10,12,14,-1,-1,-1,-1,-1,-1,-1,-1],"split_conditions":[-1.0413176E-1,2.3060564E-3,-5.5431508E-2,1.0134603E-2,3.5045616E-2,3.4719206E-2,1.9984724E-2,-2.1333119E-2,6.0702055E-3,2.9319309E-2,-2.613501E-3,-1.0443642E-2,2.2099463E-2,-3.1903636E-2,4.872385E-3],"split_indices":[1573,398,20,61,2123,703,53,0,0,0,0,0,0,0,0],"split_type":[0,0,0,0,0,0,0,0,0,0,0,0,0,0,0],"sum_hessian":[6.397129E1,3.6118526E1,2.7852764E1,6.100803E0,3.0017723E1,7.955613E0,1.9897152E1,4.696049E0,1.4047534E0,2.4606394E1,5.4113283E0,2.1113584E0,5.8442545E0,1.7793108E1,2.1040435E0],"tree_param":{"num_deleted":"0","num_feature":"2336","num_nodes":"15","size_leaf_vector":"1"}},{"base_weights":[1.4671256E-2,-4.8637775E-1,5.362983E-1,-8.402219E-1,3.2110173E-1,8.487137E-1,-3.3459333E-1,-3.0612422E-2,-0E0,-1.1803554E-2,2.3205943E-2,2.895976E-2,-6.1144587E-3,5.7778754E-3,-2.044875E-2],"categories":[],"categories_nodes":[],"categories_segments":[],"categories_sizes":[],"default_left":[0,0,0,0,0,0,0,0,0,0,0,0,0,0,0],"id":46,"left_children":[1,3,5,7,9,11,13,-1,-1,-1,-1,-1,-1,-1,-1],"loss_changes":[1.69504E1,1.0486046E1,1.0240975E1,4.4680595E0,4.8734775E0,4.5061283E0,2.6974878E0,0E0,0E0,0E0,0E0,0E0,0E0,0E0,0E0],"parents":[2147483647,0,0,1,1,2,2,3,3,4,4,5,5,6,6],"right_children":[2,4,6,8,10,12,14,-1,-1,-1,-1,-1,-1,-1,-1],"split_conditions":[-7.1900645E-3,4.271265E-2,2.6187856E-2,4.615084E-2,1.8185137E-2,-6.528673E-3,3.3495195E-2,-3.0612422E-2,-0E0,-1.1803554E-2,2.3205943E-2,2.895976E-2,-6.1144587E-3,5.7778754E-3,-2.044875E-2],"split_indices":[1956,2008,2096,790,1330,291,1138,0,0,0,0,0,0,0,0],"split_type":[0,0,0,0,0,0,0,0,0,0,0,0,0,0,0],"sum_hessian":[5.866936E1,2.9050522E1,2.961884E1,2.097561E1,8.074911E0,2.2700222E1,6.9186163E0,1.7546736E1,3.428875E0,2.4252822E0,5.649629E0,2.1515163E1,1.1850587E0,2.132512E0,4.786104E0],"tree_param":{"num_deleted":"0","num_feature":"2336","num_nodes":"15","size_leaf_vector":"1"}},{"base_weights":[-4.297907E-2,4.2689374E-1,-5.93047E-1,8.393483E-1,-2.1705785E-1,-9.033251E-1,3.048405E-1,-3.98115E-3,2.8717015E-2,1.130499E-2,-2.3599656E-2,-0E0,-3.1354725E-2,1.8352222E-2,-6.3012294E-3],"categories":[],"categories_nodes":[],"categories_segments":[],"categories_sizes":[],"default_left":[0,0,0,0,0,0,0,0,0,0,0,0,0,0,0],"id":47,"left_children":[1,3,5,7,9,11,13,-1,-1,-1,-1,-1,-1,-1,-1],"loss_changes":[1.6026123E1,9.740572E0,9.5460205E0,3.6390228E0,6.04768E0,3.898508E0,2.193831E0,0E0,0E0,0E0,0E0,0E0,0E0,0E0,0E0],"parents":[2147483647,0,0,1,1,2,2,3,3,4,4,5,5,6,6],"right_children":[2,4,6,8,10,12,14,-1,-1,-1,-1,-1,-1,-1,-1],"split_conditions":[1.4626275E-2,-2.4261096E-2,3.2873645E-2,3.991803E-2,-2.1698764E-2,-4.484312E-2,-2.3702834E-2,-3.98115E-3,2.8717015E-2,1.130499E-2,-2.3599656E-2,-0E0,-3.1354725E-2,1.8352222E-2,-6.3012294E-3],"split_indices":[2123,348,869,1241,2014,2228,216,0,0,0,0,0,0,0,0],"split_type":[0,0,0,0,0,0,0,0,0,0,0,0,0,0,0],"sum_hessian":[5.5424328E1,2.9272943E1,2.6151384E1,1.8235569E1,1.10373745E1,2.0249449E1,5.9019346E0,1.0140486E0,1.7221521E1,5.0410075E0,5.996367E0,2.3130462E0,1.7936403E1,4.5610886E0,1.3408461E0],"tree_param":{"num_deleted":"0","num_feature":"2336","num_nodes":"15","size_leaf_vector":"1"}},{"base_weights":[-3.0102955E-2,4.162141E-1,-6.754424E-1,-3.4199807E-1,7.470181E-1,2.1789944E-1,-9.6558857E-1,6.4993077E-3,-2.340888E-2,2.8683536E-2,-2.469656E-3,-6.6644545E-3,1.7456852E-2,-0E0,-3.1102845E-2],"categories":[],"categories_nodes":[],"categories_segments":[],"categories_sizes":[],"default_left":[0,0,0,0,0,0,0,0,0,0,0,0,0,0,0],"id":48,"left_children":[1,3,5,7,9,11,13,-1,-1,-1,-1,-1,-1,-1,-1],"loss_changes":[1.804886E1,1.0131062E1,8.147766E0,4.006675E0,5.74545E0,2.029749E0,1.9261494E0,0E0,0E0,0E0,0E0,0E0,0E0,0E0,0E0],"parents":[2147483647,0,0,1,1,2,2,3,3,4,4,5,5,6,6],"right_children":[2,4,6,8,10,12,14,-1,-1,-1,-1,-1,-1,-1,-1],"split_conditions":[-1.0413176E-1,4.3231387E-2,-1.9530775E-2,-1.7751794E-2,5.3222403E-2,6.654305E-2,-1.8105507E-2,6.4993077E-3,-2.340888E-2,2.8683536E-2,-2.469656E-3,-6.6644545E-3,1.7456852E-2,-0E0,-3.1102845E-2],"split_indices":[1573,42,26,193,782,1235,69,0,0,0,0,0,0,0,0],"split_type":[0,0,0,0,0,0,0,0,0,0,0,0,0,0,0],"sum_hessian":[5.5835823E1,3.2721313E1,2.311451E1,8.990463E0,2.373085E1,5.004974E0,1.8109535E1,3.6165326E0,5.37393E0,1.9549145E1,4.181706E0,1.5513215E0,3.4536526E0,1.0068468E0,1.7102688E1],"tree_param":{"num_deleted":"0","num_feature":"2336","num_nodes":"15","size_leaf_vector":"1"}},{"base_weights":[-0E0,3.90444E-1,-7.404947E-1,7.665163E-1,-3.391924E-1,6.7672133E-3,-9.666574E-1,-6.3324017E-3,2.7859094E-2,-2.4517786E-2,1.2402316E-2,-0E0,-3.0683741E-2],"categories":[],"categories_nodes":[],"categories_segments":[],"categories_sizes":[],"default_left":[0,0,0,0,0,0,0,0,0,0,0,0,0],"id":49,"left_children":[1,3,5,7,9,-1,11,-1,-1,-1,-1,-1,-1],"loss_changes":[1.9498714E1,1.3095181E1,6.5330505E0,6.12574E0,7.141966E0,0E0,1.20191E0,0E0,0E0,0E0,0E0,0E0,0E0],"parents":[2147483647,0,0,1,1,2,2,3,3,4,4,6,6],"right_children":[2,4,6,8,10,-1,12,-1,-1,-1,-1,-1,-1],"split_conditions":[2.5259532E-2,5.4476637E-2,-6.622676E-2,-4.419156E-2,5.7178047E-2,6.7672133E-3,-9.184701E-2,-6.3324017E-3,2.7859094E-2,-2.4517786E-2,1.2402316E-2,-0E0,-3.0683741E-2],"split_indices":[2123,208,1993,2073,334,0,1585,0,0,0,0,0,0],"split_type":[0,0,0,0,0,0,0,0,0,0,0,0,0],"sum_hessian":[6.0838978E1,4.0323757E1,2.051522E1,2.7413225E1,1.2910533E1,3.0543942E0,1.7460825E1,2.893138E0,2.4520088E1,8.550249E0,4.3602843E0,1.0353353E0,1.6425491E1],"tree_param":{"num_deleted":"0","num_feature":"2336","num_nodes":"13","size_leaf_vector":"1"}},{"base_weights":[9.27191E-3,5.7665265E-1,-4.647395E-1,-2.9330763E-1,8.6512446E-1,-8.865274E-1,3.46211E-1,-1.7913628E-2,4.547107E-3,-3.3858048E-3,2.9185835E-2,-3.0693257E-2,3.45259E-4,-8.750611E-3,2.189418E-2],"categories":[],"categories_nodes":[],"categories_segments":[],"categories_sizes":[],"default_left":[0,0,0,0,0,0,0,0,0,0,0,0,0,0,0],"id":50,"left_children":[1,3,5,7,9,11,13,-1,-1,-1,-1,-1,-1,-1,-1],"loss_changes":[1.6746836E1,8.633924E0,1.26704855E1,1.8823636E0,3.6623287E0,3.8940086E0,4.149893E0,0E0,0E0,0E0,0E0,0E0,0E0,0E0,0E0],"parents":[2147483647,0,0,1,1,2,2,3,3,4,4,5,5,6,6],"right_children":[2,4,6,8,10,12,14,-1,-1,-1,-1,-1,-1,-1,-1],"split_conditions":[-3.0049661E-2,7.911478E-3,2.3507241E-2,7.226637E-1,-9.628029E-2,5.8968548E-2,-1.0583332E-2,-1.7913628E-2,4.547107E-3,-3.3858048E-3,2.9185835E-2,-3.0693257E-2,3.45259E-4,-8.750611E-3,2.189418E-2],"split_indices":[216,869,1896,1341,1491,531,125,0,0,0,0,0,0,0,0],"split_type":[0,0,0,0,0,0,0,0,0,0,0,0,0,0,0],"sum_hessian":[5.586314E1,2.6091846E1,2.9771296E1,5.6216125E0,2.0470234E1,2.0212168E1,9.559127E0,4.066031E0,1.5555816E0,1.0960675E0,1.9374166E1,1.8147812E1,2.0643563E0,2.8806434E0,6.6784835E0],"tree_param":{"num_deleted":"0","num_feature":"2336","num_nodes":"15","size_leaf_vector":"1"}},{"base_weights":[-0E0,5.8153373E-1,-5.19602E-1,8.2778794E-1,-2.9808024E-1,-3.1325653E-2,4.9949277E-2,2.8755788E-2,-5.286375E-3,1.9077171E-3,-1.6314305E-2,2.1312896E-2,-1.4067019E-2],"categories":[],"categories_nodes":[],"categories_segments":[],"categories_sizes":[],"default_left":[0,0,0,0,0,0,0,0,0,0,0,0,0],"id":51,"left_children":[1,3,5,7,9,-1,11,-1,-1,-1,-1,-1,-1],"loss_changes":[1.798246E1,7.319476E0,1.0598803E1,4.3739624E0,1.2439485E0,0E0,7.10449E0,0E0,0E0,0E0,0E0,0E0,0E0],"parents":[2147483647,0,0,1,1,2,2,3,3,4,4,6,6],"right_children":[2,4,6,8,10,-1,12,-1,-1,-1,-1,-1,-1],"split_conditions":[-3.0049661E-2,2.0428573E-1,3.915729E-2,-3.9163004E-3,-3.781891E-2,-3.1325653E-2,1.1379173E-2,2.8755788E-2,-5.286375E-3,1.9077171E-3,-1.6314305E-2,2.1312896E-2,-1.4067019E-2],"split_indices":[216,414,4,26,10,0,2123,0,0,0,0,0,0],"split_type":[0,0,0,0,0,0,0,0,0,0,0,0,0],"sum_hessian":[5.355073E1,2.4928377E1,2.8622356E1,2.0502245E1,4.426131E0,1.4511872E1,1.4110484E1,1.9141575E1,1.3606708E0,1.0438762E0,3.3822546E0,6.568543E0,7.541941E0],"tree_param":{"num_deleted":"0","num_feature":"2336","num_nodes":"13","size_leaf_vector":"1"}},{"base_weights":[-0E0,4.0288505E-1,-7.3606384E-1,7.844335E-1,-3.3198616E-1,8.144977E-3,-2.9275218E-2,2.8895054E-2,-4.8514134E-3,-2.300165E-2,1.0297683E-2],"categories":[],"categories_nodes":[],"categories_segments":[],"categories_sizes":[],"default_left":[0,0,0,0,0,0,0,0,0,0,0],"id":52,"left_children":[1,3,5,7,9,-1,-1,-1,-1,-1,-1],"loss_changes":[1.7169363E1,1.2109674E1,6.347687E0,5.8888283E0,5.4603195E0,0E0,0E0,0E0,0E0,0E0,0E0],"parents":[2147483647,0,0,1,1,2,2,3,3,4,4],"right_children":[2,4,6,8,10,-1,-1,-1,-1,-1,-1],"split_conditions":[2.4168536E-2,5.269893E-2,-1.584941E-2,1.6273526E-2,1.454449E-2,8.144977E-3,-2.9275218E-2,2.8895054E-2,-4.8514134E-3,-2.300165E-2,1.0297683E-2],"split_indices":[2123,208,268,185,152,0,0,0,0,0,0],"split_type":[0,0,0,0,0,0,0,0,0,0,0],"sum_hessian":[5.2858055E1,3.5788837E1,1.7069216E1,2.4320156E1,1.1468682E1,2.4032226E0,1.4665994E1,2.129946E1,3.0206957E0,7.6305137E0,3.8381689E0],"tree_param":{"num_deleted":"0","num_feature":"2336","num_nodes":"11","size_leaf_vector":"1"}},{"base_weights":[4.675821E-2,6.183212E-1,-4.119508E-1,-1.8663725E-2,9.033345E-1,-9.239871E-1,1.32622E-1,-1.8113999E-2,1.3921146E-2,3.0056773E-2,-0E0,-2.9620336E-2,-0E0,-1.575948E-2,2.1077683E-2],"categories":[],"categories_nodes":[],"categories_segments":[],"categories_sizes":[],"default_left":[0,0,0,0,0,0,0,0,0,0,0,0,0,0,0],"id":53,"left_children":[1,3,5,7,9,11,13,-1,-1,-1,-1,-1,-1,-1,-1],"loss_changes":[1.655927E1,6.1353054E0,1.0588072E1,4.0049987E0,2.565918E0,1.2924538E0,8.058582E0,0E0,0E0,0E0,0E0,0E0,0E0,0E0,0E0],"parents":[2147483647,0,0,1,1,2,2,3,3,4,4,5,5,6,6],"right_children":[2,4,6,8,10,12,14,-1,-1,-1,-1,-1,-1,-1,-1],"split_conditions":[-3.0138714E-2,7.825079E-3,1.3523119E-2,1.7559792E-1,4.1728012E-2,-6.2191386E-2,1.1000037E-3,-1.8113999E-2,1.3921146E-2,3.0056773E-2,-0E0,-2.9620336E-2,-0E0,-1.575948E-2,2.1077683E-2],"split_indices":[216,403,1942,875,559,1458,2073,0,0,0,0,0,0,0,0],"split_type":[0,0,0,0,0,0,0,0,0,0,0,0,0,0,0],"sum_hessian":[5.645794E1,2.5642673E1,3.0815266E1,7.7088566E0,1.7933817E1,1.5751249E1,1.5064016E1,4.080942E0,3.6279142E0,1.6574034E1,1.3597841E0,1.474774E1,1.0035087E0,6.2870913E0,8.776925E0],"tree_param":{"num_deleted":"0","num_feature":"2336","num_nodes":"15","size_leaf_vector":"1"}},{"base_weights":[-4.7334265E-2,3.8491356E-1,-6.5541184E-1,-5.047531E-1,6.609719E-1,-2.9704215E-2,1.241263E-1,-0E0,-2.0487728E-2,2.6295122E-2,-2.1998761E-3,1.8192897E-2,-1.2150842E-2],"categories":[],"categories_nodes":[],"categories_segments":[],"categories_sizes":[],"default_left":[0,0,0,0,0,0,0,0,0,0,0,0,0],"id":54,"left_children":[1,3,5,7,9,-1,11,-1,-1,-1,-1,-1,-1],"loss_changes":[1.5648451E1,9.370795E0,7.806082E0,1.387578E0,5.376849E0,0E0,3.3203478E0,0E0,0E0,0E0,0E0,0E0,0E0],"parents":[2147483647,0,0,1,1,2,2,3,3,4,4,6,6],"right_children":[2,4,6,8,10,-1,12,-1,-1,-1,-1,-1,-1],"split_conditions":[-1.0413176E-1,2.471331E-3,2.5282972E-2,-3.1075014E-3,2.6548168E-2,-2.9704215E-2,-1.9356357E-2,-0E0,-2.0487728E-2,2.6295122E-2,-2.1998761E-3,1.8192897E-2,-1.2150842E-2],"split_indices":[1573,398,2112,111,2133,0,317,0,0,0,0,0,0],"split_type":[0,0,0,0,0,0,0,0,0,0,0,0,0],"sum_hessian":[5.2627415E1,3.04434E1,2.2184013E1,5.7629967E0,2.4680403E1,1.5850313E1,6.3337007E0,1.0007998E0,4.762197E0,1.9683704E1,4.996698E0,4.0730104E0,2.2606902E0],"tree_param":{"num_deleted":"0","num_feature":"2336","num_nodes":"13","size_leaf_vector":"1"}},{"base_weights":[-0E0,3.8202474E-1,-7.397253E-1,5.9646523E-1,-2.0262036E-2,6.7575914E-3,-2.7818585E-2,-1.4651088E-2,2.2483708E-2],"categories":[],"categories_nodes":[],"categories_segments":[],"categories_sizes":[],"default_left":[0,0,0,0,0,0,0,0,0],"id":55,"left_children":[1,3,5,7,-1,-1,-1,-1,-1],"loss_changes":[1.7385078E1,1.0629734E1,5.056592E0,7.535141E0,0E0,0E0,0E0,0E0,0E0],"parents":[2147483647,0,0,1,1,2,2,3,3],"right_children":[2,4,6,8,-1,-1,-1,-1,-1],"split_conditions":[2.5259532E-2,-7.201767E-3,-4.631078E-2,-7.995009E-2,-2.0262036E-2,6.7575914E-3,-2.7818585E-2,-1.4651088E-2,2.2483708E-2],"split_indices":[2123,216,2172,1516,0,0,0,0,0],"split_type":[0,0,0,0,0,0,0,0,0],"sum_hessian":[5.649315E1,3.8895927E1,1.7597223E1,3.4211487E1,4.684438E0,1.8979609E0,1.5699263E1,2.6077485E0,3.1603739E1],"tree_param":{"num_deleted":"0","num_feature":"2336","num_nodes":"9","size_leaf_vector":"1"}},{"base_weights":[5.267354E-3,5.357938E-1,-4.336842E-1,7.7884E-1,-1.1969121E-2,1.4847791E-1,-2.9633982E-2,-4.6586506E-3,2.7004711E-2,-1.9196937E-2,2.1083917E-2],"categories":[],"categories_nodes":[],"categories_segments":[],"categories_sizes":[],"default_left":[0,0,0,0,0,0,0,0,0,0,0],"id":56,"left_children":[1,3,5,7,-1,9,-1,-1,-1,-1,-1],"loss_changes":[1.3858094E1,7.61967E0,1.1380522E1,3.8726568E0,0E0,8.840437E0,0E0,0E0,0E0,0E0,0E0],"parents":[2147483647,0,0,1,1,2,2,3,3,5,5],"right_children":[2,4,6,8,-1,10,-1,-1,-1,-1,-1],"split_conditions":[-3.0049661E-2,2.7133206E-1,-6.286593E-2,1.2687928E-2,-1.1969121E-2,1.2818113E-2,-2.9633982E-2,-4.6586506E-3,2.7004711E-2,-1.9196937E-2,2.1083917E-2],"split_indices":[216,385,176,164,0,1942,0,0,0,0,0],"split_type":[0,0,0,0,0,0,0,0,0,0,0],"sum_hessian":[5.307672E1,2.4763412E1,2.8313309E1,2.0899565E1,3.8638475E0,1.3998121E1,1.4315188E1,1.3582516E0,1.9541313E1,4.8430157E0,9.155106E0],"tree_param":{"num_deleted":"0","num_feature":"2336","num_nodes":"11","size_leaf_vector":"1"}},{"base_weights":[3.5298053E-2,-7.1839E-1,3.795459E-1,-2.7713003E-2,3.2946132E-3,6.368256E-1,-4.2829219E-1,-4.178947E-3,2.5838884E-2,-2.2158705E-2,5.6090355E-3],"categories":[],"categories_nodes":[],"categories_segments":[],"categories_sizes":[],"default_left":[0,0,0,0,0,0,0,0,0,0,0],"id":57,"left_children":[1,3,5,-1,-1,7,9,-1,-1,-1,-1],"loss_changes":[1.4395575E1,4.000333E0,9.276663E0,0E0,0E0,6.700531E0,2.9598365E0,0E0,0E0,0E0,0E0],"parents":[2147483647,0,0,1,1,2,2,5,5,6,6],"right_children":[2,4,6,-1,-1,8,10,-1,-1,-1,-1],"split_conditions":[-1.5661847E-2,6.715703E-4,-4.0025905E-2,-2.7713003E-2,3.2946132E-3,1.0492569E-1,-3.9222594E-2,-4.178947E-3,2.5838884E-2,-2.2158705E-2,5.6090355E-3],"split_indices":[125,376,1578,0,0,951,1513,0,0,0,0],"split_type":[0,0,0,0,0,0,0,0,0,0,0],"sum_hessian":[5.0637074E1,1.394369E1,3.6693386E1,1.1863189E1,2.080501E0,2.9250616E1,7.4427686E0,5.8179607E0,2.3432655E1,5.6279135E0,1.8148553E0],"tree_param":{"num_deleted":"0","num_feature":"2336","num_nodes":"11","size_leaf_vector":"1"}},{"base_weights":[-3.1456932E-2,6.453647E-1,-4.3435383E-1,2.8278824E-2,-8.063404E-3,-6.928408E-1,2.7083343E-1,-1.3727538E-2,9.866944E-3,1.8808765E-3,-3.0091709E-2,1.9955767E-2,-1.0339541E-2],"categories":[],"categories_nodes":[],"categories_segments":[],"categories_sizes":[],"default_left":[0,0,0,0,0,0,0,0,0,0,0,0,0],"id":58,"left_children":[1,3,5,-1,7,9,11,-1,-1,-1,-1,-1,-1],"loss_changes":[1.5766914E1,5.035281E0,7.8233747E0,0E0,1.8657473E0,8.004247E0,3.7224467E0,0E0,0E0,0E0,0E0,0E0,0E0],"parents":[2147483647,0,0,1,1,2,2,4,4,5,5,6,6],"right_children":[2,4,6,-1,8,10,12,-1,-1,-1,-1,-1,-1],"split_conditions":[-2.6624192E-2,-1.1236596E-1,-7.620955E-2,2.8278824E-2,1.3390325E-1,-7.550877E-3,1.5259374E-2,-1.3727538E-2,9.866944E-3,1.8808765E-3,-3.0091709E-2,1.9955767E-2,-1.0339541E-2],"split_indices":[328,1573,1579,0,1295,227,2123,0,0,0,0,0,0],"split_type":[0,0,0,0,0,0,0,0,0,0,0,0,0],"sum_hessian":[5.2509964E1,1.7994225E1,3.451574E1,1.2507046E1,5.4871793E0,2.6333689E1,8.182049E0,3.1623063E0,2.3248732E0,7.4235773E0,1.8910112E1,5.8294215E0,2.352627E0],"tree_param":{"num_deleted":"0","num_feature":"2336","num_nodes":"13","size_leaf_vector":"1"}},{"base_weights":[-0E0,4.7287422E-1,-4.668842E-1,-2.2294612E-1,7.3351455E-1,-2.829682E-2,6.954548E-2,-1.8599706E-2,6.359375E-3,-5.7134186E-3,2.6113495E-2,1.3494414E-2,-1.5869634E-2],"categories":[],"categories_nodes":[],"categories_segments":[],"categories_sizes":[],"default_left":[0,0,0,0,0,0,0,0,0,0,0,0,0],"id":59,"left_children":[1,3,5,7,9,-1,11,-1,-1,-1,-1,-1,-1],"loss_changes":[1.2923434E1,6.3182817E0,8.534788E0,2.398676E0,4.096672E0,0E0,4.1729665E0,0E0,0E0,0E0,0E0,0E0,0E0],"parents":[2147483647,0,0,1,1,2,2,3,3,4,4,6,6],"right_children":[2,4,6,8,10,-1,12,-1,-1,-1,-1,-1,-1],"split_conditions":[-1.0909507E-1,-3.984527E-2,-6.649568E-2,-1.3555464E-2,-2.3872072E-2,-2.829682E-2,6.8307295E-3,-1.8599706E-2,6.359375E-3,-5.7134186E-3,2.6113495E-2,1.3494414E-2,-1.5869634E-2],"split_indices":[1573,124,1550,329,1885,0,2222,0,0,0,0,0,0],"split_type":[0,0,0,0,0,0,0,0,0,0,0,0,0],"sum_hessian":[5.25299E1,2.6318172E1,2.6211727E1,6.2445436E0,2.007363E1,1.3665804E1,1.2545923E1,3.7990763E0,2.4454672E0,1.4970844E0,1.8576544E1,9.1492605E0,3.3966627E0],"tree_param":{"num_deleted":"0","num_feature":"2336","num_nodes":"13","size_leaf_vector":"1"}},{"base_weights":[1.7966254E-2,-5.531372E-1,4.2837715E-1,-8.638678E-1,2.2013728E-1,7.025254E-1,-2.3507576E-1,-0E0,-2.9408423E-2,-6.682667E-3,1.7457005E-2,2.5529495E-2,-8.025051E-3,5.8668717E-3,-1.9741155E-2],"categories":[],"categories_nodes":[],"categories_segments":[],"categories_sizes":[],"default_left":[0,0,0,0,0,0,0,0,0,0,0,0,0,0,0],"id":60,"left_children":[1,3,5,7,9,11,13,-1,-1,-1,-1,-1,-1,-1,-1],"loss_changes":[1.3740748E1,6.92283E0,7.3953366E0,2.2303648E0,2.0744126E0,5.132098E0,2.94719E0,0E0,0E0,0E0,0E0,0E0,0E0,0E0,0E0],"parents":[2147483647,0,0,1,1,2,2,3,3,4,4,5,5,6,6],"right_children":[2,4,6,8,10,12,14,-1,-1,-1,-1,-1,-1,-1,-1],"split_conditions":[-1.903214E-2,4.271265E-2,-7.9931006E-2,-9.4402425E-2,1.042213E-2,6.971459E-2,3.2514628E-2,-0E0,-2.9408423E-2,-6.682667E-3,1.7457005E-2,2.5529495E-2,-8.025051E-3,5.8668717E-3,-1.9741155E-2],"split_indices":[1956,2008,1540,1565,403,2212,394,0,0,0,0,0,0,0,0],"split_type":[0,0,0,0,0,0,0,0,0,0,0,0,0,0,0],"sum_hessian":[5.312364E1,2.0758068E1,3.236557E1,1.5479543E1,5.278525E0,2.3843628E1,8.52194E0,1.8074553E0,1.3672087E1,1.6486509E0,3.629874E0,2.1892202E1,1.9514258E0,3.8503525E0,4.671588E0],"tree_param":{"num_deleted":"0","num_feature":"2336","num_nodes":"15","size_leaf_vector":"1"}},{"base_weights":[5.4527838E-2,4.1925204E-1,-5.7853144E-1,6.759514E-1,-3.5735726E-1,-2.7670434E-2,2.5123748E-1,2.6075302E-2,-8.329578E-3,-2.0483952E-2,6.5634125E-3,1.5172122E-2,-2.2432618E-3],"categories":[],"categories_nodes":[],"categories_segments":[],"categories_sizes":[],"default_left":[0,0,0,0,0,0,0,0,0,0,0,0,0],"id":61,"left_children":[1,3,5,7,9,-1,11,-1,-1,-1,-1,-1,-1],"loss_changes":[1.3110565E1,8.460514E0,7.1046863E0,6.837531E0,2.8317184E0,0E0,1.1582621E0,0E0,0E0,0E0,0E0,0E0,0E0],"parents":[2147483647,0,0,1,1,2,2,3,3,4,4,6,6],"right_children":[2,4,6,8,10,-1,12,-1,-1,-1,-1,-1,-1],"split_conditions":[2.5259532E-2,1.1565323E-2,8.778127E-2,5.0837148E-2,-4.4506893E-2,-2.7670434E-2,-3.0146247E-2,2.6075302E-2,-8.329578E-3,-2.0483952E-2,6.5634125E-3,1.5172122E-2,-2.2432618E-3],"split_indices":[2123,1966,1240,507,1495,0,216,0,0,0,0,0,0],"split_type":[0,0,0,0,0,0,0,0,0,0,0,0,0],"sum_hessian":[5.1320595E1,3.420622E1,1.7114374E1,2.6968554E1,7.2376657E0,1.27159395E1,4.398434E0,2.3517538E1,3.4510148E0,5.379352E0,1.8583133E0,3.2639632E0,1.134471E0],"tree_param":{"num_deleted":"0","num_feature":"2336","num_nodes":"13","size_leaf_vector":"1"}},{"base_weights":[-0E0,-6.200008E-1,3.419113E-1,-2.708891E-2,1.09164245E-1,-4.1187263E-1,6.313442E-1,-3.9489856E-3,1.2272712E-2,4.7519794E-3,-2.0497642E-2,2.5510883E-2,-1.5522435E-3],"categories":[],"categories_nodes":[],"categories_segments":[],"categories_sizes":[],"default_left":[0,0,0,0,0,0,0,0,0,0,0,0,0],"id":62,"left_children":[1,3,5,-1,7,9,11,-1,-1,-1,-1,-1,-1],"loss_changes":[1.1408345E1,4.933232E0,8.92593E0,0E0,9.370919E-1,2.5421345E0,5.178653E0,0E0,0E0,0E0,0E0,0E0,0E0],"parents":[2147483647,0,0,1,1,2,2,4,4,5,5,6,6],"right_children":[2,4,6,-1,8,10,12,-1,-1,-1,-1,-1,-1],"split_conditions":[2.4340616E-3,3.429727E-2,5.352293E-2,-2.708891E-2,5.1980384E-2,-3.308072E-2,7.846299E-3,-3.9489856E-3,1.2272712E-2,4.7519794E-3,-2.0497642E-2,2.5510883E-2,-1.5522435E-3],"split_indices":[864,1928,961,0,491,328,126,0,0,0,0,0,0],"split_type":[0,0,0,0,0,0,0,0,0,0,0,0,0],"sum_hessian":[4.896042E1,1.5629286E1,3.3331135E1,1.1732639E1,3.8966463E0,7.9368052E0,2.539433E1,1.2457132E0,2.6509333E0,1.7737164E0,6.163089E0,1.9781162E1,5.613167E0],"tree_param":{"num_deleted":"0","num_feature":"2336","num_nodes":"13","size_leaf_vector":"1"}},{"base_weights":[2.7836187E-2,-6.1101925E-1,4.1513497E-1,6.854309E-3,-2.6241748E-2,7.813624E-1,-1.4232154E-1,2.644309E-2,-2.6234086E-3,-2.0814108E-2,1.1797193E-2],"categories":[],"categories_nodes":[],"categories_segments":[],"categories_sizes":[],"default_left":[0,0,0,0,0,0,0,0,0,0,0],"id":63,"left_children":[1,3,5,-1,-1,7,9,-1,-1,-1,-1],"loss_changes":[1.3287277E1,5.5949593E0,8.071593E0,0E0,0E0,2.9841318E0,5.620758E0,0E0,0E0,0E0,0E0],"parents":[2147483647,0,0,1,1,2,2,5,5,6,6],"right_children":[2,4,6,-1,-1,8,10,-1,-1,-1,-1],"split_conditions":[-1.5878985E-3,-5.6597334E-3,-1.2212053E-2,6.854309E-3,-2.6241748E-2,6.4517416E-2,2.7806573E-3,2.644309E-2,-2.6234086E-3,-2.0814108E-2,1.1797193E-2],"split_indices":[1885,62,26,0,0,1161,2073,0,0,0,0],"split_type":[0,0,0,0,0,0,0,0,0,0,0],"sum_hessian":[4.8417778E1,1.6645632E1,3.1772146E1,3.1682627E0,1.3477369E1,1.9530352E1,1.2241795E1,1.850612E1,1.0242313E0,6.514464E0,5.7273307E0],"tree_param":{"num_deleted":"0","num_feature":"2336","num_nodes":"11","size_leaf_vector":"1"}},{"base_weights":[4.6520308E-2,5.18885E-1,-4.141223E-1,-3.336299E-1,7.6823163E-1,1.5601287E-2,-7.171846E-1,9.970043E-4,-1.656147E-2,-7.1068765E-3,2.7360693E-2,-2.8140264E-2,4.4500115E-3],"categories":[],"categories_nodes":[],"categories_segments":[],"categories_sizes":[],"default_left":[0,0,0,0,0,0,0,0,0,0,0,0,0],"id":64,"left_children":[1,3,5,7,9,-1,11,-1,-1,-1,-1,-1,-1],"loss_changes":[1.2678452E1,7.4681234E0,9.342951E0,1.2031275E0,4.881215E0,0E0,5.694151E0,0E0,0E0,0E0,0E0,0E0,0E0],"parents":[2147483647,0,0,1,1,2,2,3,3,4,4,6,6],"right_children":[2,4,6,8,10,-1,12,-1,-1,-1,-1,-1,-1],"split_conditions":[-1.1236596E-1,-1.7363101E-2,-4.823417E-2,-5.3626247E-4,-3.8770826E-3,1.5601287E-2,4.9430694E-2,9.970043E-4,-1.656147E-2,-7.1068765E-3,2.7360693E-2,-2.8140264E-2,4.4500115E-3],"split_indices":[1573,1885,17,102,326,0,599,0,0,0,0,0,0],"split_type":[0,0,0,0,0,0,0,0,0,0,0,0,0],"sum_hessian":[5.1823154E1,2.647056E1,2.5352594E1,4.8531456E0,2.1617414E1,4.8757997E0,2.0476795E1,1.0517602E0,3.8013854E0,1.5920064E0,2.0025408E1,1.7034746E1,3.4420483E0],"tree_param":{"num_deleted":"0","num_feature":"2336","num_nodes":"13","size_leaf_vector":"1"}},{"base_weights":[-0E0,5.927091E-1,-3.1960666E-1,7.9053825E-1,-6.674805E-3,-6.111455E-1,3.3327958E-1,2.651233E-2,-0E0,5.1788944E-3,-2.6356487E-2,-1.0137269E-2,2.0954126E-2],"categories":[],"categories_nodes":[],"categories_segments":[],"categories_sizes":[],"default_left":[0,0,0,0,0,0,0,0,0,0,0,0,0],"id":65,"left_children":[1,3,5,7,-1,9,11,-1,-1,-1,-1,-1,-1],"loss_changes":[9.711839E0,3.8971639E0,7.6144333E0,1.6086531E0,0E0,6.724145E0,3.9584625E0,0E0,0E0,0E0,0E0,0E0,0E0],"parents":[2147483647,0,0,1,1,2,2,3,3,5,5,6,6],"right_children":[2,4,6,8,-1,10,12,-1,-1,-1,-1,-1,-1],"split_conditions":[-2.7877921E-2,5.6753937E-2,-2.8836143E-3,3.0652639E-2,-6.674805E-3,-1.3098655E-3,-1.0539059E-1,2.651233E-2,-0E0,5.1788944E-3,-2.6356487E-2,-1.0137269E-2,2.0954126E-2],"split_indices":[328,736,257,2261,0,1002,1450,0,0,0,0,0,0],"split_type":[0,0,0,0,0,0,0,0,0,0,0,0,0],"sum_hessian":[4.6705025E1,1.4371083E1,3.233394E1,1.2624815E1,1.7462684E0,2.3544067E1,8.789874E0,1.1562529E1,1.0622866E0,5.3084207E0,1.8235645E1,2.2113829E0,6.578491E0],"tree_param":{"num_deleted":"0","num_feature":"2336","num_nodes":"13","size_leaf_vector":"1"}},{"base_weights":[-0E0,-5.6980795E-1,3.6594492E-1,-8.041924E-1,9.188177E-3,-4.6116123E-1,6.13564E-1,1.2516427E-3,-2.7743783E-2,-0E0,-1.8806467E-2,2.2980371E-2,-1.0683011E-2],"categories":[],"categories_nodes":[],"categories_segments":[],"categories_sizes":[],"default_left":[0,0,0,0,0,0,0,0,0,0,0,0,0],"id":66,"left_children":[1,3,5,7,-1,9,11,-1,-1,-1,-1,-1,-1],"loss_changes":[1.1128725E1,5.383645E0,7.9932795E0,2.8004875E0,0E0,1.1573923E0,5.4399576E0,0E0,0E0,0E0,0E0,0E0,0E0],"parents":[2147483647,0,0,1,1,2,2,3,3,5,5,6,6],"right_children":[2,4,6,8,-1,10,12,-1,-1,-1,-1,-1,-1],"split_conditions":[-1.5878985E-3,5.0449308E-2,-2.4441171E-2,3.505741E-2,9.188177E-3,-3.293347E-2,-3.9752573E-4,1.2516427E-3,-2.7743783E-2,-0E0,-1.8806467E-2,2.2980371E-2,-1.0683011E-2],"split_indices":[1885,849,218,836,0,2027,1,0,0,0,0,0,0],"split_type":[0,0,0,0,0,0,0,0,0,0,0,0,0],"sum_hessian":[4.833443E1,1.7194923E1,3.1139505E1,1.4660347E1,2.534577E0,5.648058E0,2.5491447E1,1.0394882E0,1.3620859E1,1.0228322E0,4.6252255E0,2.3463867E1,2.0275803E0],"tree_param":{"num_deleted":"0","num_feature":"2336","num_nodes":"13","size_leaf_vector":"1"}},{"base_weights":[7.028551E-2,-4.8898277E-1,4.858247E-1,-8.039397E-1,2.1746136E-1,7.844658E-1,-2.7607128E-1,-0E0,-2.6759079E-2,-4.31085E-3,1.5171425E-2,-0E0,2.7131641E-2,8.7703355E-3,-1.9381365E-2],"categories":[],"categories_nodes":[],"categories_segments":[],"categories_sizes":[],"default_left":[0,0,0,0,0,0,0,0,0,0,0,0,0,0,0],"id":67,"left_children":[1,3,5,7,9,11,13,-1,-1,-1,-1,-1,-1,-1,-1],"loss_changes":[1.1798496E1,5.741029E0,7.962741E0,1.5639133E0,1.3919313E0,2.999261E0,2.959688E0,0E0,0E0,0E0,0E0,0E0,0E0,0E0,0E0],"parents":[2147483647,0,0,1,1,2,2,3,3,4,4,5,5,6,6],"right_children":[2,4,6,8,10,12,14,-1,-1,-1,-1,-1,-1,-1,-1],"split_conditions":[-1.056574E-2,3.4771282E-2,5.4942314E-3,-9.57E-1,-3.763955E-2,-1.30390655E-2,-5.783166E-2,-0E0,-2.6759079E-2,-4.31085E-3,1.5171425E-2,-0E0,2.7131641E-2,8.7703355E-3,-1.9381365E-2],"split_indices":[125,869,1966,1813,124,1942,2121,0,0,0,0,0,0,0,0],"split_type":[0,0,0,0,0,0,0,0,0,0,0,0,0,0,0],"sum_hessian":[4.4715473E1,1.7809364E1,2.690611E1,1.3010397E1,4.798967E0,2.020858E1,6.697531E0,1.038552E0,1.1971846E1,1.25805E0,3.5409172E0,2.0799134E0,1.8128666E1,1.8231261E0,4.874405E0],"tree_param":{"num_deleted":"0","num_feature":"2336","num_nodes":"15","size_leaf_vector":"1"}},{"base_weights":[1.7303938E-2,5.7878894E-1,-4.149791E-1,-0E0,8.621161E-1,3.1956086E-1,-6.868072E-1,-1.6427496E-2,1.3813698E-2,-0E0,2.7671248E-2,-5.1029725E-3,1.8030921E-2,-2.7084006E-2,-0E0],"categories":[],"categories_nodes":[],"categories_segments":[],"categories_sizes":[],"default_left":[0,0,0,0,0,0,0,0,0,0,0,0,0,0,0],"id":68,"left_children":[1,3,5,7,9,11,13,-1,-1,-1,-1,-1,-1,-1,-1],"loss_changes":[1.350742E1,4.8999357E0,7.040694E0,3.3793597E0,9.8377895E-1,2.004342E0,3.6473722E0,0E0,0E0,0E0,0E0,0E0,0E0,0E0,0E0],"parents":[2147483647,0,0,1,1,2,2,3,3,4,4,5,5,6,6],"right_children":[2,4,6,8,10,12,14,-1,-1,-1,-1,-1,-1,-1,-1],"split_conditions":[-3.0146247E-2,7.882222E-3,-1.8256743E-2,-4.932862E-2,3.2899126E-2,-1.7326854E-2,1.278268E-1,-1.6427496E-2,1.3813698E-2,-0E0,2.7671248E-2,-5.1029725E-3,1.8030921E-2,-2.7084006E-2,-0E0],"split_indices":[216,403,2123,1427,599,192,936,0,0,0,0,0,0,0,0],"split_type":[0,0,0,0,0,0,0,0,0,0,0,0,0,0,0],"sum_hessian":[4.9006557E1,2.188155E1,2.7125006E1,7.074253E0,1.4807298E1,6.1907177E0,2.0934288E1,3.9153206E0,3.1589324E0,1.0943711E0,1.3712927E1,1.3961499E0,4.794568E0,1.5326862E1,5.6074257E0],"tree_param":{"num_deleted":"0","num_feature":"2336","num_nodes":"15","size_leaf_vector":"1"}},{"base_weights":[4.543899E-2,5.6969744E-1,-4.4355756E-1,-8.265255E-3,7.6443654E-1,-7.406027E-1,2.6853812E-1,-1.1747702E-3,2.6917405E-2,-0E0,-2.7982427E-2,1.6740864E-2,-5.4355753E-3],"categories":[],"categories_nodes":[],"categories_segments":[],"categories_sizes":[],"default_left":[0,0,0,0,0,0,0,0,0,0,0,0,0],"id":69,"left_children":[1,3,5,-1,7,9,11,-1,-1,-1,-1,-1,-1],"loss_changes":[1.3624638E1,5.446971E0,6.655742E0,0E0,3.4308329E0,3.6024647E0,1.8500044E0,0E0,0E0,0E0,0E0,0E0,0E0],"parents":[2147483647,0,0,1,1,2,2,4,4,5,5,6,6],"right_children":[2,4,6,-1,8,10,12,-1,-1,-1,-1,-1,-1],"split_conditions":[-1.1282243E-1,-1.7363101E-2,3.9720103E-2,-8.265255E-3,-2.2614878E-3,-3.5469495E-2,2.3934562E-2,-1.1747702E-3,2.6917405E-2,-0E0,-2.7982427E-2,1.6740864E-2,-5.4355753E-3],"split_indices":[1573,1885,1942,0,326,261,1960,0,0,0,0,0,0],"split_type":[0,0,0,0,0,0,0,0,0,0,0,0,0],"sum_hessian":[4.669725E1,2.3284061E1,2.3413189E1,3.1655607E0,2.01185E1,1.7427608E1,5.9855814E0,2.0855246E0,1.8032976E1,3.4085941E0,1.4019014E1,4.5547595E0,1.4308219E0],"tree_param":{"num_deleted":"0","num_feature":"2336","num_nodes":"13","size_leaf_vector":"1"}},{"base_weights":[-0E0,4.358001E-1,-4.4646364E-1,-1.5542051E-1,7.583742E-1,-2.7127108E-2,4.8890978E-2,-1.7093608E-2,1.106899E-2,2.7045783E-2,-0E0,-1.4429476E-2,1.6184006E-2],"categories":[],"categories_nodes":[],"categories_segments":[],"categories_sizes":[],"default_left":[0,0,0,0,0,0,0,0,0,0,0,0,0],"id":70,"left_children":[1,3,5,7,9,-1,11,-1,-1,-1,-1,-1,-1],"loss_changes":[1.07118225E1,6.153104E0,7.286726E0,3.2247586E0,2.9659386E0,0E0,4.771901E0,0E0,0E0,0E0,0E0,0E0,0E0],"parents":[2147483647,0,0,1,1,2,2,3,3,4,4,6,6],"right_children":[2,4,6,8,10,-1,12,-1,-1,-1,-1,-1,-1],"split_conditions":[-2.8336223E-2,7.825079E-3,1.2818113E-2,7.226637E-1,4.1728012E-2,-2.7127108E-2,-1.1042315E-3,-1.7093608E-2,1.106899E-2,2.7045783E-2,-0E0,-1.4429476E-2,1.6184006E-2],"split_indices":[216,403,1942,1341,559,0,2073,0,0,0,0,0,0],"split_type":[0,0,0,0,0,0,0,0,0,0,0,0,0],"sum_hessian":[4.902526E1,2.424809E1,2.477717E1,8.014127E0,1.6233965E1,1.2639269E1,1.2137902E1,5.3968415E0,2.6172855E0,1.425993E1,1.974035E0,4.8834777E0,7.254424E0],"tree_param":{"num_deleted":"0","num_feature":"2336","num_nodes":"13","size_leaf_vector":"1"}},{"base_weights":[1.2256447E-2,4.8519E-1,-5.2961004E-1,-2.4854659E-1,7.53377E-1,-7.5706583E-1,1.4314294E-1,5.5427873E-3,-1.6548898E-2,-2.579409E-4,2.6743414E-2,-0E0,-2.5735801E-2,-3.2653108E-3,1.2789669E-2],"categories":[],"categories_nodes":[],"categories_segments":[],"categories_sizes":[],"default_left":[0,0,0,0,0,0,0,0,0,0,0,0,0,0,0],"id":71,"left_children":[1,3,5,7,9,11,13,-1,-1,-1,-1,-1,-1,-1,-1],"loss_changes":[1.2414141E1,6.3606715E0,4.2601547E0,1.7835441E0,3.161953E0,2.131033E0,9.4876516E-1,0E0,0E0,0E0,0E0,0E0,0E0,0E0,0E0],"parents":[2147483647,0,0,1,1,2,2,3,3,4,4,5,5,6,6],"right_children":[2,4,6,8,10,12,14,-1,-1,-1,-1,-1,-1,-1,-1],"split_conditions":[-1.0413176E-1,-1.9099973E-3,4.3534875E-2,-1.7292002E-2,-2.0052185E-2,6.1385827E-3,-8.2760295E-3,5.5427873E-3,-1.6548898E-2,-2.579409E-4,2.6743414E-2,-0E0,-2.5735801E-2,-3.2653108E-3,1.2789669E-2],"split_indices":[1573,1885,1942,62,218,968,275,0,0,0,0,0,0,0,0],"split_type":[0,0,0,0,0,0,0,0,0,0,0,0,0,0,0],"sum_hessian":[4.2607445E1,2.3903801E1,1.8703646E1,5.459109E0,1.844469E1,1.4807672E1,3.8959749E0,1.3709272E0,4.0881815E0,2.1499774E0,1.6294714E1,1.0430627E0,1.3764608E1,1.1702293E0,2.7257457E0],"tree_param":{"num_deleted":"0","num_feature":"2336","num_nodes":"15","size_leaf_vector":"1"}},{"base_weights":[-0E0,4.707308E-1,-3.615315E-1,-2.5671512E-1,2.539644E-2,3.6377445E-1,-6.813655E-1,-1.7320162E-2,6.4302264E-3,-4.1187676E-3,1.8373597E-2,-2.5795588E-2,3.510228E-3],"categories":[],"categories_nodes":[],"categories_segments":[],"categories_sizes":[],"default_left":[0,0,0,0,0,0,0,0,0,0,0,0,0],"id":72,"left_children":[1,3,5,7,-1,9,11,-1,-1,-1,-1,-1,-1],"loss_changes":[8.232788E0,7.0606685E0,7.302206E0,2.0400424E0,0E0,1.8777722E0,3.9903593E0,0E0,0E0,0E0,0E0,0E0,0E0],"parents":[2147483647,0,0,1,1,2,2,3,3,5,5,6,6],"right_children":[2,4,6,8,-1,10,12,-1,-1,-1,-1,-1,-1],"split_conditions":[-3.0896382E-2,7.825079E-3,-4.919789E-2,3.75106E-3,2.539644E-2,4.3814834E-2,4.9185943E-2,-1.7320162E-2,6.4302264E-3,-4.1187676E-3,1.8373597E-2,-2.5795588E-2,3.510228E-3],"split_indices":[216,403,2206,257,0,531,1896,0,0,0,0,0,0],"split_type":[0,0,0,0,0,0,0,0,0,0,0,0,0],"sum_hessian":[4.2187977E1,1.8284391E1,2.3903584E1,5.645884E0,1.2638508E1,6.2320423E0,1.7671541E1,4.219736E0,1.4261479E0,1.1789825E0,5.05306E0,1.5277556E1,2.393984E0],"tree_param":{"num_deleted":"0","num_feature":"2336","num_nodes":"13","size_leaf_vector":"1"}},{"base_weights":[7.383828E-3,-5.7634246E-1,3.505702E-1,5.381968E-3,-7.44551E-1,5.7060486E-1,-1.6273804E-2,-2.57508E-2,-0E0,2.2625674E-2,-2.8052598E-3],"categories":[],"categories_nodes":[],"categories_segments":[],"categories_sizes":[],"default_left":[0,0,0,0,0,0,0,0,0,0,0],"id":73,"left_children":[1,3,5,-1,7,9,-1,-1,-1,-1,-1],"loss_changes":[9.325292E0,3.0745564E0,7.060682E0,0E0,2.0233755E0,4.1986666E0,0E0,0E0,0E0,0E0,0E0],"parents":[2147483647,0,0,1,1,2,2,4,4,5,5],"right_children":[2,4,6,-1,8,10,-1,-1,-1,-1,-1],"split_conditions":[-3.3065295E-3,3.404227E-2,-9.799689E-3,5.381968E-3,6.205967E-2,2.1317001E-2,-1.6273804E-2,-2.57508E-2,-0E0,2.2625674E-2,-2.8052598E-3],"split_indices":[1885,836,216,0,2017,2135,0,0,0,0,0],"split_type":[0,0,0,0,0,0,0,0,0,0,0],"sum_hessian":[4.165161E1,1.3587899E1,2.8063711E1,1.3550835E0,1.2232816E1,2.4283417E1,3.7802942E0,1.1207437E1,1.0253795E0,1.9885292E1,4.398124E0],"tree_param":{"num_deleted":"0","num_feature":"2336","num_nodes":"11","size_leaf_vector":"1"}},{"base_weights":[1.8603973E-2,4.2701554E-1,-4.468224E-1,6.0405266E-1,-1.2258483E-2,-2.6606483E-2,3.0811518E-1,-9.510497E-3,2.2635207E-2,1.8548762E-2,-6.581264E-3],"categories":[],"categories_nodes":[],"categories_segments":[],"categories_sizes":[],"default_left":[0,0,0,0,0,0,0,0,0,0,0],"id":74,"left_children":[1,3,5,7,-1,-1,9,-1,-1,-1,-1],"loss_changes":[9.600168E0,5.082588E0,8.895901E0,4.6649323E0,0E0,0E0,2.3929348E0,0E0,0E0,0E0,0E0],"parents":[2147483647,0,0,1,1,2,2,3,3,6,6],"right_children":[2,4,6,8,-1,-1,10,-1,-1,-1,-1],"split_conditions":[-1.06019385E-1,-7.201767E-3,2.0132568E-2,-7.366305E-2,-1.2258483E-2,-2.6606483E-2,-3.0471545E-2,-9.510497E-3,2.2635207E-2,1.8548762E-2,-6.581264E-3],"split_indices":[1573,216,2112,1516,0,0,1,0,0,0,0],"split_type":[0,0,0,0,0,0,0,0,0,0,0],"sum_hessian":[4.4597393E1,2.5029854E1,1.956754E1,2.2327612E1,2.7022417E0,1.28673315E1,6.700207E0,1.73547E0,2.0592142E1,5.087809E0,1.6123985E0],"tree_param":{"num_deleted":"0","num_feature":"2336","num_nodes":"11","size_leaf_vector":"1"}},{"base_weights":[-0E0,-4.639574E-1,3.6124083E-1,-7.727587E-1,1.6396596E-1,7.1926105E-1,-2.0634624E-1,-0E0,-2.6719771E-2,1.4839922E-2,-6.157073E-3,-0E0,2.4432493E-2,8.299023E-3,-1.82303E-2],"categories":[],"categories_nodes":[],"categories_segments":[],"categories_sizes":[],"default_left":[0,0,0,0,0,0,0,0,0,0,0,0,0,0,0],"id":75,"left_children":[1,3,5,7,9,11,13,-1,-1,-1,-1,-1,-1,-1,-1],"loss_changes":[7.7631617E0,5.063913E0,6.0026064E0,1.9034882E0,1.611695E0,1.6678114E0,2.9389775E0,0E0,0E0,0E0,0E0,0E0,0E0,0E0,0E0],"parents":[2147483647,0,0,1,1,2,2,3,3,4,4,5,5,6,6],"right_children":[2,4,6,8,10,12,14,-1,-1,-1,-1,-1,-1,-1,-1],"split_conditions":[-1.7769001E-3,4.7321375E-2,-1.06019385E-1,2.640857E-1,4.2532746E-2,-1.8490905E-2,3.9597295E-2,-0E0,-2.6719771E-2,1.4839922E-2,-6.157073E-3,-0E0,2.4432493E-2,8.299023E-3,-1.82303E-2],"split_indices":[2073,537,1573,416,1264,285,1107,0,0,0,0,0,0,0,0],"split_type":[0,0,0,0,0,0,0,0,0,0,0,0,0,0,0],"sum_hessian":[3.983968E1,1.801561E1,2.1824068E1,1.2680264E1,5.3353453E0,1.3971408E1,7.852661E0,1.4770294E0,1.1203235E1,3.7054327E0,1.6299129E0,1.2196429E0,1.2751764E1,2.856011E0,4.99665E0],"tree_param":{"num_deleted":"0","num_feature":"2336","num_nodes":"15","size_leaf_vector":"1"}},{"base_weights":[-3.6644813E-2,-4.102095E-1,4.4926E-1,1.2732228E-2,-6.107044E-1,-8.284572E-2,7.030989E-1,5.0301054E-3,-2.3749504E-2,7.2828773E-3,-1.4079482E-2,2.4501747E-2,-0E0],"categories":[],"categories_nodes":[],"categories_segments":[],"categories_sizes":[],"default_left":[0,0,0,0,0,0,0,0,0,0,0,0,0],"id":76,"left_children":[1,3,5,-1,7,9,11,-1,-1,-1,-1,-1,-1],"loss_changes":[8.718027E0,5.696899E0,3.4846935E0,0E0,4.543577E0,1.5552889E0,1.7359858E0,0E0,0E0,0E0,0E0,0E0,0E0],"parents":[2147483647,0,0,1,1,2,2,4,4,5,5,6,6],"right_children":[2,4,6,-1,8,10,12,-1,-1,-1,-1,-1,-1],"split_conditions":[-1.0588376E-2,3.5056084E-2,3.402759E-2,1.2732228E-2,-3.1095253E-2,-2.0007357E-2,5.86248E-2,5.0301054E-3,-2.3749504E-2,7.2828773E-3,-1.4079482E-2,2.4501747E-2,-0E0],"split_indices":[329,836,542,0,328,2253,208,0,0,0,0,0,0],"split_type":[0,0,0,0,0,0,0,0,0,0,0,0,0],"sum_hessian":[4.2198025E1,2.5284561E1,1.6913465E1,3.282435E0,2.2002127E1,4.84293E0,1.2070535E1,3.1491234E0,1.8853003E1,1.8295343E0,3.0133958E0,1.0771411E1,1.2991244E0],"tree_param":{"num_deleted":"0","num_feature":"2336","num_nodes":"13","size_leaf_vector":"1"}},{"base_weights":[-0E0,-4.4170094E-1,4.0873823E-1,3.832378E-2,-2.5380142E-2,-1.0024863E-2,6.2454206E-1,1.3855687E-2,-1.1307994E-2,2.3605848E-2,-7.0872568E-3],"categories":[],"categories_nodes":[],"categories_segments":[],"categories_sizes":[],"default_left":[0,0,0,0,0,0,0,0,0,0,0],"id":77,"left_children":[1,3,5,7,-1,-1,9,-1,-1,-1,-1],"loss_changes":[8.713263E0,5.3981295E0,4.9433985E0,2.7746437E0,0E0,0E0,4.11967E0,0E0,0E0,0E0,0E0],"parents":[2147483647,0,0,1,1,2,2,3,3,6,6],"right_children":[2,4,6,8,-1,-1,10,-1,-1,-1,-1],"split_conditions":[5.6049214E-3,-2.8434124E-2,2.5250753E-2,-1.341027E-2,-2.5380142E-2,-1.0024863E-2,2.1010496E-2,1.3855687E-2,-1.1307994E-2,2.3605848E-2,-7.0872568E-3],"split_indices":[1942,216,78,26,0,0,1966,0,0,0,0],"split_type":[0,0,0,0,0,0,0,0,0,0,0],"sum_hessian":[4.2269615E1,2.0151686E1,2.2117928E1,9.323846E0,1.082784E1,3.5652897E0,1.8552637E1,5.641456E0,3.6823902E0,1.6803362E1,1.7492747E0],"tree_param":{"num_deleted":"0","num_feature":"2336","num_nodes":"11","size_leaf_vector":"1"}},{"base_weights":[-0E0,6.886349E-1,-2.9313508E-1,2.3595475E-2,-0E0,2.7038947E-1,-6.376346E-1,1.7711123E-2,-1.0707864E-2,4.0046712E-3,-2.4844322E-2],"categories":[],"categories_nodes":[],"categories_segments":[],"categories_sizes":[],"default_left":[0,0,0,0,0,0,0,0,0,0,0],"id":78,"left_children":[1,3,5,-1,-1,7,9,-1,-1,-1,-1],"loss_changes":[1.0048675E1,1.4591799E0,7.4222736E0,0E0,0E0,3.6320958E0,4.389662E0,0E0,0E0,0E0,0E0],"parents":[2147483647,0,0,1,1,2,2,5,5,6,6],"right_children":[2,4,6,-1,-1,8,10,-1,-1,-1,-1],"split_conditions":[-2.7877921E-2,3.0881152E-2,-1.07856244E-1,2.3595475E-2,-0E0,2.0889262E-2,-5.6889453E-3,1.7711123E-2,-1.0707864E-2,4.0046712E-3,-2.4844322E-2],"split_indices":[328,2135,1506,0,0,2123,101,0,0,0,0],"split_type":[0,0,0,0,0,0,0,0,0,0,0],"sum_hessian":[4.2764523E1,1.208777E1,3.067675E1,1.0924949E1,1.1628218E0,1.0782154E1,1.9894596E1,8.312772E0,2.4693825E0,3.0793152E0,1.681528E1],"tree_param":{"num_deleted":"0","num_feature":"2336","num_nodes":"11","size_leaf_vector":"1"}},{"base_weights":[-4.723652E-2,3.141401E-1,-5.799933E-1,5.486351E-1,-1.2282666E-2,7.449388E-2,-8.1185406E-1,2.0399828E-2,-5.674795E-3,1.0296526E-2,-2.7580552E-3,-0E0,-2.6254756E-2],"categories":[],"categories_nodes":[],"categories_segments":[],"categories_sizes":[],"default_left":[0,0,0,0,0,0,0,0,0,0,0,0,0],"id":79,"left_children":[1,3,5,7,-1,9,11,-1,-1,-1,-1,-1,-1],"loss_changes":[9.07769E0,5.2936316E0,3.8814673E0,3.0349927E0,0E0,6.4678854E-1,9.088087E-1,0E0,0E0,0E0,0E0,0E0,0E0],"parents":[2147483647,0,0,1,1,2,2,3,3,5,5,6,6],"right_children":[2,4,6,8,-1,10,12,-1,-1,-1,-1,-1,-1],"split_conditions":[-1.0413176E-1,-3.156256E-3,7.954785E-2,-7.201767E-3,-1.2282666E-2,2.3278303E-2,-3.1854726E-2,2.0399828E-2,-5.674795E-3,1.0296526E-2,-2.7580552E-3,-0E0,-2.6254756E-2],"split_indices":[1573,1907,1020,216,0,2123,11,0,0,0,0,0,0],"split_type":[0,0,0,0,0,0,0,0,0,0,0,0,0],"sum_hessian":[3.9930546E1,2.3407154E1,1.6523392E1,1.9269531E1,4.1376224E0,3.7267842E0,1.2796608E1,1.7707293E1,1.5622395E0,2.5045912E0,1.2221929E0,1.0160517E0,1.1780556E1],"tree_param":{"num_deleted":"0","num_feature":"2336","num_nodes":"13","size_leaf_vector":"1"}},{"base_weights":[-0E0,6.0359836E-1,-3.1429142E-1,-0E0,2.4115691E-2,8.778157E-2,-7.6230377E-1,1.6796654E-2,-1.420244E-2,-2.6753955E-2,-0E0],"categories":[],"categories_nodes":[],"categories_segments":[],"categories_sizes":[],"default_left":[0,0,0,0,0,0,0,0,0,0,0],"id":80,"left_children":[1,3,5,-1,-1,7,9,-1,-1,-1,-1],"loss_changes":[8.863101E0,2.7414422E0,6.2506595E0,0E0,0E0,5.449492E0,2.1324549E0,0E0,0E0,0E0,0E0],"parents":[2147483647,0,0,1,1,2,2,5,5,6,6],"right_children":[2,4,6,-1,-1,8,10,-1,-1,-1,-1],"split_conditions":[-2.7877921E-2,-7.285811E-3,1.066853E-3,-0E0,2.4115691E-2,-2.6757937E-2,5.9660845E-2,1.6796654E-2,-1.420244E-2,-2.6753955E-2,-0E0],"split_indices":[328,2079,126,0,0,291,4,0,0,0,0],"split_type":[0,0,0,0,0,0,0,0,0,0,0],"sum_hessian":[4.0077507E1,1.3236401E1,2.6841105E1,2.839518E0,1.0396882E1,1.4240734E1,1.2600371E1,8.705838E0,5.534896E0,1.1080068E1,1.5203036E0],"tree_param":{"num_deleted":"0","num_feature":"2336","num_nodes":"11","size_leaf_vector":"1"}},{"base_weights":[-0E0,-3.584332E-1,4.648263E-1,-8.0005103E-1,4.243243E-1,-1.2048249E-1,2.4828063E-2,1.4240397E-4,-2.780925E-2,-4.274313E-3,1.971758E-2,9.459543E-3,-1.5197533E-2],"categories":[],"categories_nodes":[],"categories_segments":[],"categories_sizes":[],"default_left":[0,0,0,0,0,0,0,0,0,0,0,0,0],"id":81,"left_children":[1,3,5,7,9,11,-1,-1,-1,-1,-1,-1,-1],"loss_changes":[7.910248E0,1.0551849E1,5.4352336E0,2.855095E0,2.2082121E0,2.276591E0,0E0,0E0,0E0,0E0,0E0,0E0,0E0],"parents":[2147483647,0,0,1,1,2,2,3,3,4,4,5,5],"right_children":[2,4,6,8,10,12,-1,-1,-1,-1,-1,-1,-1],"split_conditions":[7.121824E-5,1.454449E-2,-1.1960388E-2,-1.0108887E-1,3.8660705E-2,-1.352612E-2,2.4828063E-2,1.4240397E-4,-2.780925E-2,-4.274313E-3,1.971758E-2,9.459543E-3,-1.5197533E-2],"split_indices":[1896,152,252,1571,800,305,0,0,0,0,0,0,0],"split_type":[0,0,0,0,0,0,0,0,0,0,0,0,0],"sum_hessian":[4.135017E1,2.3491808E1,1.7858364E1,1.5792958E1,7.6988497E0,6.5452633E0,1.1313101E1,1.4715092E0,1.4321448E1,1.3312422E0,6.3676076E0,2.1164196E0,4.4288435E0],"tree_param":{"num_deleted":"0","num_feature":"2336","num_nodes":"13","size_leaf_vector":"1"}},{"base_weights":[-6.700355E-3,-5.5665666E-1,3.3989063E-1,6.5398016E-3,-8.1743276E-1,-1.8414015E-1,6.670926E-1,-2.6605396E-2,-0E0,-1.741823E-2,8.743668E-3,2.4023581E-2,-9.148704E-4],"categories":[],"categories_nodes":[],"categories_segments":[],"categories_sizes":[],"default_left":[0,0,0,0,0,0,0,0,0,0,0,0,0],"id":82,"left_children":[1,3,5,-1,7,9,11,-1,-1,-1,-1,-1,-1],"loss_changes":[9.047221E0,4.9744325E0,5.5390444E0,0E0,1.0665045E0,3.000087E0,2.5832548E0,0E0,0E0,0E0,0E0,0E0,0E0],"parents":[2147483647,0,0,1,1,2,2,4,4,5,5,6,6],"right_children":[2,4,6,-1,8,10,12,-1,-1,-1,-1,-1,-1],"split_conditions":[-1.7001148E-2,-3.0425865E-2,-7.89087E-3,6.5398016E-3,5.9231907E-2,1.454449E-2,7.4936524E-2,-2.6605396E-2,-0E0,-1.741823E-2,8.743668E-3,2.4023581E-2,-9.148704E-4],"split_indices":[1956,328,1896,0,591,152,1122,0,0,0,0,0,0],"split_type":[0,0,0,0,0,0,0,0,0,0,0,0,0],"sum_hessian":[4.0349525E1,1.6010963E1,2.4338564E1,3.1905932E0,1.282037E1,8.68483E0,1.5653734E1,1.1796776E1,1.0235932E0,5.5218844E0,3.1629453E0,1.3966707E1,1.6870272E0],"tree_param":{"num_deleted":"0","num_feature":"2336","num_nodes":"13","size_leaf_vector":"1"}},{"base_weights":[8.831596E-2,-2.4504428E-1,5.2306443E-1,-6.23721E-1,3.4087747E-1,7.133933E-1,-7.357776E-3,2.455247E-3,-2.5970569E-2,-3.367136E-3,1.7574362E-2,-0E0,2.4518775E-2],"categories":[],"categories_nodes":[],"categories_segments":[],"categories_sizes":[],"default_left":[0,0,0,0,0,0,0,0,0,0,0,0,0],"id":83,"left_children":[1,3,5,7,9,11,-1,-1,-1,-1,-1,-1,-1],"loss_changes":[7.1254787E0,6.685273E0,4.153577E0,4.048639E0,1.9030448E0,2.217475E0,0E0,0E0,0E0,0E0,0E0,0E0,0E0],"parents":[2147483647,0,0,1,1,2,2,3,3,4,4,5,5],"right_children":[2,4,6,8,10,12,-1,-1,-1,-1,-1,-1,-1],"split_conditions":[1.21326E-2,4.8660405E-2,3.7247885E-2,-1.9040758E-2,7.5985625E-2,-7.052287E-2,-7.357776E-3,2.455247E-3,-2.5970569E-2,-3.367136E-3,1.7574362E-2,-0E0,2.4518775E-2],"split_indices":[403,488,180,2096,985,1516,0,0,0,0,0,0,0],"split_type":[0,0,0,0,0,0,0,0,0,0,0,0,0],"sum_hessian":[4.1594162E1,2.2981268E1,1.8612894E1,1.487855E1,8.102717E0,1.6132559E1,2.4803355E0,3.2510428E0,1.1627507E1,1.9808412E0,6.1218767E0,1.2355561E0,1.4897003E1],"tree_param":{"num_deleted":"0","num_feature":"2336","num_nodes":"13","size_leaf_vector":"1"}},{"base_weights":[-0E0,4.8443574E-1,-4.3251082E-1,-1.7651977E-1,6.822939E-1,-2.5806777E-2,1.2566113E-1,-1.0840979E-2,-0E0,-1.3259482E-3,2.5121145E-2,1.5548978E-2,-9.159468E-3],"categories":[],"categories_nodes":[],"categories_segments":[],"categories_sizes":[],"default_left":[0,0,0,0,0,0,0,0,0,0,0,0,0],"id":84,"left_children":[1,3,5,7,9,-1,11,-1,-1,-1,-1,-1,-1],"loss_changes":[9.803773E0,3.8758945E0,6.679927E0,5.154753E-1,3.099759E0,0E0,2.687529E0,0E0,0E0,0E0,0E0,0E0,0E0],"parents":[2147483647,0,0,1,1,2,2,3,3,4,4,6,6],"right_children":[2,4,6,8,10,-1,12,-1,-1,-1,-1,-1,-1],"split_conditions":[-3.0049661E-2,4.2835005E-2,1.54353175E-2,4.8387546E-2,-3.0919064E-2,-2.5806777E-2,-1.5276644E-2,-1.0840979E-2,-0E0,-1.3259482E-3,2.5121145E-2,1.5548978E-2,-9.159468E-3],"split_indices":[216,800,1942,327,1913,0,2032,0,0,0,0,0,0],"split_type":[0,0,0,0,0,0,0,0,0,0,0,0,0],"sum_hessian":[4.05523E1,2.000742E1,2.054488E1,3.51956E0,1.6487858E1,1.1726916E1,8.817965E0,2.5030637E0,1.0164965E0,2.1433759E0,1.4344482E1,5.510306E0,3.3076584E0],"tree_param":{"num_deleted":"0","num_feature":"2336","num_nodes":"13","size_leaf_vector":"1"}},{"base_weights":[2.0496849E-2,-4.5358405E-1,3.835425E-1,-7.8865975E-1,2.902834E-1,6.2920606E-1,-1.4938827E-1,-0E0,-2.5443733E-2,-0E0,1.375693E-2,2.3586676E-2,-2.7988972E-3,-1.35642495E-2,3.448199E-3],"categories":[],"categories_nodes":[],"categories_segments":[],"categories_sizes":[],"default_left":[0,0,0,0,0,0,0,0,0,0,0,0,0,0,0],"id":85,"left_children":[1,3,5,7,9,11,13,-1,-1,